tree
version=v4
num_class=1
num_tree_per_iteration=1
label_index=0
max_feature_idx=39
objective=binary sigmoid:1
feature_names=Column_0 Column_1 Column_2 Column_3 Column_4 Column_5 Column_6 Column_7 Column_8 Column_9 Column_10 Column_11 Column_12 Column_13 Column_14 Column_15 Column_16 Column_17 Column_18 Column_19 Column_20 Column_21 Column_22 Column_23 Column_24 Column_25 Column_26 Column_27 Column_28 Column_29 Column_30 Column_31 Column_32 Column_33 Column_34 Column_35 Column_36 Column_37 Column_38 Column_39
feature_infos=[-3.2993531091498873:1.5378327277713315] [-2.1022395728336556:1.8808013908567873] [-1.6306164139332799:2.4287057065268041] [-1.8467268406065327:2.0173017728571141] [-2.6127434830234315:1.8298632869870379] [-2.0536487394180507:2.3187038264578193] [-1.8237892999404066:2.3199980460647724] [-1.9461210824092727:2.2887808951772506] [-2.5677198436803779:3.157074948133165] [-2.5633041258005851:2.6553730933074271] [-2.3249961701652282:2.8517435589627254] [-2.3123307493548002:2.4654313578387153] [-3.2874138299405624:2.0556756795408067] [-2.205173088800811:3.5912103480184996] [-1.4105445086546502:2.8628425917768943] [-2.5007843649308086:2.2939321147277063] [-2.1036563120336926:3.261990406079966] [-1.9793114274166685:2.8595360203818068] [-2.6337455213259089:2.5248956119617945] [-2.4959442273885228:1.696847161770626] [-2.3871959931284343:2.6189993682836006] [-2.0405174363181606:1.9611935220531826] [-1.7981670578164228:2.4187871862018864] [-2.1916855066098346:1.7855239728139911] [-2.0285756483190043:2.4050816679893101] [-3.2524227462867628:2.8321956680769995] [-2.7975744990511067:2.4323081966268503] [-2.2286465154454804:1.9885191027669269] [-1.856239230075315:2.7437016495374129] [-2.7264013786039039:1.7650710887374721] [-2.2351174782780414:2.763128418430167] [-1.9327028991677861:3.1834474932836225] [-2.1948350973930726:3.1576109006396402] [-1.9565298612936459:2.7726400174880861] [-2.7979955649294941:3.5899443546768106] [-2.1246789966369897:2.7413406369148499] [-2.3147556414157773:2.5878854923449142] [-2.1916207926928868:2.1637040192449351] [-2.7514608506925708:1.7632162126906572] [-1.8965163272949697:2.5672374140221859]
tree_sizes=449 553 660 450 447 667 567 668 671 566 566 564 564 563 564 566 561 563 564 564 557 557 656 557 556 569 670 667 672 672 665 564 669 543 666 567 668 564 566 569 672 672 670 670 658 563 671 672 564 672 669 667 663 666 667

Tree=0
num_leaves=3
num_cat=0
split_feature=3 4
split_gain=6.19944 6.4956
threshold=0.66687932012339657 -0.79548159561794018
decision_type=2 2
left_child=1 -1
right_child=-2 -3
leaf_value=-0.74354508952881959 -0.73910021266456505 -0.76774326442231633
leaf_weight=1.5232000201940534 1.958400025963783 3.2640000432729721
leaf_count=7 9 15
internal_value=-0.753772 -0.759788
internal_weight=6.7456 4.7872
internal_count=31 22
is_linear=0
shrinkage=1


Tree=1
num_leaves=4
num_cat=0
split_feature=3 23 9
split_gain=6.06183 4.56367 0.415436
threshold=0.66687932012339657 0.65751831962389584 -0.3400282632975028
decision_type=2 2 2
left_child=1 2 -1
right_child=-2 -3 -4
leaf_value=-0.0041379758653921836 0.014459429605591219 0.010874095448957679 -0.01374695594337314
leaf_weight=1.084394037723541 1.9686787873506544 1.0900895744562147 2.6017862856388096
leaf_count=5 9 5 12
internal_value=0 -0.00596792 -0.0113683
internal_weight=6.74495 4.77627 3.68618
internal_count=31 22 17
is_linear=0
shrinkage=0.01


Tree=2
num_leaves=5
num_cat=0
split_feature=20 23 23 8
split_gain=5.3824 6.48642 3.14667 0.172948
threshold=0.24432611362879655 0.65751831962389584 -0.57248017527733408 -0.16119318040916128
decision_type=2 2 2 2
left_child=1 2 -1 -4
right_child=-2 -3 3 -5
leaf_value=0.010833949515639232 -0.013471181212725034 0.022116098180804476 -0.012546828751802491 -0.0040827784536029473
leaf_weight=1.0912766903638838 1.9530909806489942 1.5371269285678861 1.0814674943685529 1.0814674943685538
leaf_count=5 9 7 5 5
internal_value=0 0.00581962 -0.00200974 -0.00912414
internal_weight=6.74443 4.79134 3.25421 2.16293
internal_count=31 22 15 10
is_linear=0
shrinkage=0.01


Tree=3
num_leaves=3
num_cat=0
split_feature=4 3
split_gain=5.95804 7.72199
threshold=-0.79548159561794018 1.1369245065276028
decision_type=2 2
left_child=-1 -2
right_child=1 -3
leaf_value=0.014294656498309063 -0.013876515994027273 0.013547201675136374
leaf_weight=1.9765079319477079 3.4440054893493652 1.3236088156700132
leaf_count=9 16 6
internal_value=0 -0.00593567
internal_weight=6.74412 4.76761
internal_count=31 22
is_linear=0
shrinkage=0.01


Tree=4
num_leaves=3
num_cat=0
split_feature=4 3
split_gain=5.82695 7.5959
threshold=-0.79548159561794018 1.1369245065276028
decision_type=2 2
left_child=-1 -2
right_child=1 -3
leaf_value=0.014091887174422085 -0.01381181240919494 0.013363620135111026
leaf_weight=1.9862877577543256 3.4260964542627335 1.3297165781259535
leaf_count=9 16 6
internal_value=0 -0.00588894
internal_weight=6.7421 4.75581
internal_count=31 22
is_linear=0
shrinkage=0.01


Tree=5
num_leaves=5
num_cat=0
split_feature=20 29 0 20
split_gain=5.21004 5.44323 7.17859 4.38418
threshold=0.24432611362879655 0.078031060800349092 0.14120611471289482 -0.084265503361556651
decision_type=2 2 2 2
left_child=1 3 -3 -1
right_child=-2 2 -4 -5
leaf_value=-0.013438149493731559 -0.013523055151074846 -0.0041022184636014154 0.028038748277092965 0.010424318447466458
leaf_weight=1.94571028649807 2.158113569021225 1.082173213362694 1.5420097708702085 1.1033371537923811
leaf_count=9 10 5 7 5
internal_value=-0.000541247 0.00437256 0.0147532 -0.00442883
internal_weight=7.83134 5.67323 2.62418 3.04905
internal_count=36 26 12 14
is_linear=0
shrinkage=0.01


Tree=6
num_leaves=4
num_cat=0
split_feature=9 27 31
split_gain=6.68106 6.49111 2.46879
threshold=0.34909723254509079 -0.18895718873857739 0.22970752811008638
decision_type=2 2 2
left_child=2 -2 -1
right_child=1 -3 -4
leaf_value=-0.013829335637512232 -0.0056105791390662386 0.022700638663369403 0.00021108432358060071
leaf_weight=2.818669393658638 1.2895291149616244 1.7713478803634641 1.9482786655426023
leaf_count=13 6 8 9
internal_value=-0.000535603 0.0106568 -0.00799904
internal_weight=7.82783 3.06088 4.76695
internal_count=36 14 22
is_linear=0
shrinkage=0.01


Tree=7
num_leaves=5
num_cat=0
split_feature=1 33 7 24
split_gain=5.37081 5.54506 3.40223 2.30659
threshold=-0.082269404615424396 -0.17170212489593084 0.49921789015884893 0.25480062676809173
decision_type=2 2 2 2
left_child=1 -1 -3 -2
right_child=3 2 -4 -5
leaf_value=-0.0068912876792045913 -0.01366203047968525 0.026804426070207332 0.0021555547964017077 0.002551247535841958
leaf_weight=1.5121256262063982 2.7823470979928975 1.3431046754121783 1.101622015237808 1.0852088481187818
leaf_count=7 13 6 5 5
internal_value=-0.000529102 0.00743486 0.0166115 -0.00891102
internal_weight=7.82441 3.95685 2.44473 3.86756
internal_count=36 18 11 18
is_linear=0
shrinkage=0.01


Tree=8
num_leaves=5
num_cat=0
split_feature=1 33 14 24
split_gain=5.27355 5.41829 3.34889 2.28043
threshold=-0.082269404615424396 -0.17170212489593084 0.47632455839645998 0.25480062676809173
decision_type=2 2 2 2
left_child=1 -1 -3 -2
right_child=3 2 -4 -5
leaf_value=-0.0068430560280873685 -0.013598705199740078 0.002058763221033297 0.026452885358882697 0.0025257571855952085
leaf_weight=1.5082797557115557 2.7678887844085698 1.1051389425992968 1.3518397808074949 1.0862036049365995
leaf_count=7 13 5 6 5
internal_value=-0.000520575 0.00735031 0.0163812 -0.00885248
internal_weight=7.81935 3.96526 2.45698 3.85409
internal_count=36 18 11 18
is_linear=0
shrinkage=0.01


Tree=9
num_leaves=4
num_cat=0
split_feature=9 27 33
split_gain=6.39681 6.19123 4.32337
threshold=0.34909723254509079 -0.18895718873857739 0.32740555899511664
decision_type=2 2 2
left_child=2 -2 -1
right_child=1 -3 -4
leaf_value=-0.013791348839886378 -0.0055729986516690382 0.02201433215224578 0.0066693036918104454
leaf_weight=3.4163917899131775 1.2856468707323077 1.7949280589818952 1.3167928904294965
leaf_count=16 6 8 6
internal_value=-0.000512196 0.0103734 -0.00787199
internal_weight=7.81376 3.08057 4.73318
internal_count=36 14 22
is_linear=0
shrinkage=0.01


Tree=10
num_leaves=4
num_cat=0
split_feature=23 23 10
split_gain=7.7173 3.37255 2.98006
threshold=0.65751831962389584 -0.82900366460062314 0.60285223491150086
decision_type=2 2 2
left_child=1 -1 -2
right_child=2 -3 -4
leaf_value=0.0042387710693967302 0.026321919818447403 -0.013596062006076473 0.0022411685361434426
leaf_weight=1.5109297186136244 1.1182065159082415 2.7669902592897415 1.0966659188270567
leaf_count=7 5 13 5
internal_value=0.000545452 -0.00711557 0.0154425
internal_weight=6.49279 4.27792 2.21487
internal_count=30 20 10
is_linear=0
shrinkage=0.01


Tree=11
num_leaves=4
num_cat=0
split_feature=23 23 10
split_gain=7.55723 3.32967 2.88323
threshold=0.65751831962389584 -0.82900366460062314 0.60285223491150086
decision_type=2 2 2
left_child=1 -1 -2
right_child=2 -3 -4
leaf_value=0.0041929153665469215 0.02588101328723949 -0.013533806587822732 0.002219048843810661
leaf_weight=1.5132612586021421 1.1275395005941393 2.7524541318416595 1.0975145995616911
leaf_count=7 5 13 5
internal_value=0.000544248 -0.0070642 0.0152372
internal_weight=6.49077 4.26572 2.22505
internal_count=30 20 10
is_linear=0
shrinkage=0.01


Tree=12
num_leaves=4
num_cat=0
split_feature=23 23 16
split_gain=7.40165 3.28753 2.83857
threshold=0.65751831962389584 -0.82900366460062314 0.1305922930613497
decision_type=2 2 2
left_child=1 -1 -2
right_child=2 -3 -4
leaf_value=0.0041476464821554419 0.025553489045802711 -0.013472547107515919 0.0021275093636192429
leaf_weight=1.5155595541000364 1.134949788451195 2.7378477305173874 1.0998500585556028
leaf_count=7 5 13 5
internal_value=0.000543046 -0.00701342 0.0150377
internal_weight=6.48821 4.25341 2.2348
internal_count=30 20 10
is_linear=0
shrinkage=0.01


Tree=13
num_leaves=4
num_cat=0
split_feature=23 23 10
split_gain=7.25019 3.24613 2.77213
threshold=0.65751831962389584 -0.82900366460062314 0.60285223491150086
decision_type=2 2 2
left_child=1 -1 -2
right_child=2 -3 -4
leaf_value=0.0041029541885470658 0.02519634093762281 -0.013412259019666108 0.0020811789548337701
leaf_weight=1.5178251713514326 1.1419809609651568 2.7231759130954742 1.1022313982248304
leaf_count=7 5 13 5
internal_value=0.00054184 -0.00696321 0.0148431
internal_weight=6.48521 4.241 2.24421
internal_count=30 20 10
is_linear=0
shrinkage=0.01


Tree=14
num_leaves=4
num_cat=0
split_feature=23 23 16
split_gain=7.10285 3.20545 2.73133
threshold=0.65751831962389584 -0.82900366460062314 0.1305922930613497
decision_type=2 2 2
left_child=1 -1 -2
right_child=2 -3 -4
leaf_value=0.0040588292615524489 0.024889752091493529 -0.01335291761203356 0.0019926433466210393
leaf_weight=1.5200585722923277 1.1488611549139025 2.7084434032440186 1.1043606102466581
leaf_count=7 5 13 5
internal_value=0.000540639 -0.00691356 0.0146538
internal_weight=6.48172 4.2285 2.25322
internal_count=30 20 10
is_linear=0
shrinkage=0.01


Tree=15
num_leaves=4
num_cat=0
split_feature=9 31 13
split_gain=7.32122 3.19012 0.367934
threshold=0.34909723254509079 0.22970752811008638 0.17607543011621793
decision_type=2 2 2
left_child=1 2 -1
right_child=-2 -3 -4
leaf_value=-0.013393593771499632 0.017966942627656256 0.0054228705542010095 -0.0038336528447128343
leaf_weight=1.9324178844690325 2.0216248631477356 1.9239891916513441 1.0658231526613233
leaf_count=9 9 9 5
internal_value=0.00232887 -0.00412464 -0.0105514
internal_weight=6.94386 4.92223 2.99824
internal_count=32 23 14
is_linear=0
shrinkage=0.01


Tree=16
num_leaves=4
num_cat=0
split_feature=3 27 12
split_gain=5.19105 5.51074 5.31586
threshold=1.3149644081805854 0.2295998457757788 0.48205846751552739
decision_type=2 2 2
left_child=1 2 -1
right_child=-2 -3 -4
leaf_value=0.01780834147799118 0.019161576247689181 -0.013447516394991223 -0.0068672531895129906
leaf_weight=1.7519320249557497 1.3603472858667371 2.3338290005922318 1.5016456842422483
leaf_count=8 6 11 7
internal_value=0.0023035 -0.00188979 0.00625628
internal_weight=6.94775 5.58741 3.25358
internal_count=32 26 15
is_linear=0
shrinkage=0.01


Tree=17
num_leaves=4
num_cat=0
split_feature=9 11 31
split_gain=7.07344 4.12498 2.71676
threshold=0.34909723254509079 1.0000000180025095e-35 0.22970752811008638
decision_type=2 2 2
left_child=1 -1 -3
right_child=-2 2 -4
leaf_value=-0.013508449100659931 0.017574803087865413 -0.0053486492259639 0.014216666244257577
leaf_weight=2.3456521183252335 2.0375628173351288 1.2693434208631518 1.2976593673229215
leaf_count=11 9 6 6
internal_value=0.00228024 -0.00408786 0.00432917
internal_weight=6.95022 4.91265 2.567
internal_count=32 23 12
is_linear=0
shrinkage=0.01


Tree=18
num_leaves=4
num_cat=0
split_feature=3 27 34
split_gain=4.99345 5.3957 4.88722
threshold=1.3149644081805854 0.2295998457757788 1.0000000180025095e-35
decision_type=2 2 2
left_child=1 2 -1
right_child=-2 -3 -4
leaf_value=-0.0065651662042505053 0.018709810068685131 -0.013366597181739128 0.017074887673764843
leaf_weight=1.4828944504261019 1.3722551316022871 2.3183246999979019 1.7792044728994367
leaf_count=7 6 11 8
internal_value=0.00225674 -0.00187126 0.00615545
internal_weight=6.95268 5.58042 3.2621
internal_count=32 26 15
is_linear=0
shrinkage=0.01


Tree=19
num_leaves=4
num_cat=0
split_feature=9 11 37
split_gain=6.81014 4.03954 5.21742
threshold=0.34909723254509079 1.0000000180025095e-35 0.62274381649920285
decision_type=2 2 2
left_child=1 -1 -3
right_child=-2 2 -4
leaf_value=-0.013417518558461315 0.017164630883304104 0.015768837378921482 -0.011971865765723049
leaf_weight=2.3284406810998917 2.0537619143724442 1.5421459674835207 1.029254764318466
leaf_count=11 9 7 5
internal_value=0.00223437 -0.00404177 0.00425823
internal_weight=6.9536 4.89984 2.5714
internal_count=32 23 12
is_linear=0
shrinkage=0.01


Tree=20
num_leaves=4
num_cat=0
split_feature=20 23 33
split_gain=7.27722 5.42846 2.9957
threshold=0.24432611362879655 0.65751831962389584 0.32740555899511664
decision_type=2 2 2
left_child=1 2 -1
right_child=-2 -3 -4
leaf_value=-0.012493485940735983 -0.013449556413928261 0.020108567683822597 0.0070002294491883811
leaf_weight=1.2575831711292269 2.5314486473798752 1.8577647507190702 1.7488805353641508
leaf_count=6 12 8 8
internal_value=0 0.00712084 -0.000971638
internal_weight=7.39568 4.86423 3.00646
internal_count=34 22 14
is_linear=0
shrinkage=0.01


Tree=21
num_leaves=4
num_cat=0
split_feature=20 23 8
split_gain=7.15836 5.29251 3.99918
threshold=0.24432611362879655 0.65751831962389584 -0.16119318040916128
decision_type=2 2 2
left_child=1 2 -1
right_child=-2 -3 -4
leaf_value=-0.012679354449325978 -0.013388763077384661 0.019821639676483257 0.0096130340920265577
leaf_weight=1.4605235904455185 2.5180349051952362 1.8672097027301786 1.5438329130411148
leaf_count=7 12 8 7
internal_value=0 0.00704187 -0.000961297
internal_weight=7.3896 4.87157 3.00436
internal_count=34 22 14
is_linear=0
shrinkage=0.01


Tree=22
num_leaves=5
num_cat=0
split_feature=23 35 8 33
split_gain=4.93381 5.1347 2.94366 5.74943
threshold=0.65751831962389584 0.057180305984517697 -0.16119318040916128 0.32740555899511664
decision_type=2 2 2 2
left_child=2 -2 -1 -4
right_child=1 -3 3 -5
leaf_value=-0.013278434493935728 0.023036174715958549 -0.0043557775690641577 -0.012260215105364401 0.017650111227839011
leaf_weight=2.4969145506620407 1.4319868385791781 1.0944330394268034 1.23122975230217 1.1279717087745664
leaf_count=12 6 5 6 5
internal_value=0 0.0110753 -0.00587764 0.00176995
internal_weight=7.38254 2.52642 4.85612 2.3592
internal_count=34 11 23 11
is_linear=0
shrinkage=0.01


Tree=23
num_leaves=4
num_cat=0
split_feature=20 23 8
split_gain=6.95321 5.05419 3.86576
threshold=0.24432611362879655 0.65751831962389584 -0.16119318040916128
decision_type=2 2 2
left_child=1 2 -1
right_child=-2 -3 -4
leaf_value=-0.012562465136301181 -0.013282942311243603 0.019326456327912318 0.0093818673189939011
leaf_weight=1.4450247138738632 2.4935802072286606 1.8823080509901045 1.552700862288475
leaf_count=7 12 8 7
internal_value=0 0.00690901 -0.000937429
internal_weight=7.37361 4.88003 2.99773
internal_count=34 22 14
is_linear=0
shrinkage=0.01


Tree=24
num_leaves=4
num_cat=0
split_feature=20 2 8
split_gain=6.84167 4.41614 4.86485
threshold=0.24432611362879655 -0.34002741263583641 -0.16119318040916128
decision_type=2 2 2
left_child=1 -1 -3
right_child=-2 2 -4
leaf_value=-0.006805608336776142 -0.013224728881370294 -0.0036961331589968993 0.020953258237028066
leaf_weight=1.4854820817708967 2.4800192266702652 1.0587301850318911 2.3411792516708374
leaf_count=7 12 5 10
internal_value=0 0.0068355 0.0131054
internal_weight=7.36541 4.88539 3.39991
internal_count=34 22 15
is_linear=0
shrinkage=0.01


Tree=25
num_leaves=4
num_cat=0
split_feature=4 11 27
split_gain=4.86738 6.06041 5.12991
threshold=-0.79548159561794018 1.0000000180025095e-35 0.37834064076098806
decision_type=2 2 2
left_child=-1 -2 -3
right_child=1 2 -4
leaf_value=0.016738939972867409 -0.013212029602061994 0.017387574669669108 -0.0062827167326293468
leaf_weight=2.0681876689195633 2.2755564451217651 2.0361434072256093 1.4521629661321638
leaf_count=9 11 9 7
internal_value=0.00394574 -0.000681354 0.0073546
internal_weight=7.83205 5.76386 3.48831
internal_count=36 27 16
is_linear=0
shrinkage=0.01


Tree=26
num_leaves=5
num_cat=0
split_feature=36 4 1 9
split_gain=5.04132 4.39017 3.68987 4.75953
threshold=0.37101423231020425 -0.97517927323974163 -0.082269404615424396 1.0000000180025095e-35
decision_type=2 2 2 2
left_child=1 -1 3 -3
right_child=-2 2 -4 -5
leaf_value=0.016466041526648371 0.018998848303095329 -0.012002049651555061 -0.013082141901448869 0.014361193180388976
leaf_weight=1.1547666937112806 1.6315203607082365 1.0304357707500456 2.435656845569611 1.5828899741172788
leaf_count=5 7 5 12 7
internal_value=0.00390496 -0.000144362 -0.0043836 0.00353837
internal_weight=7.83527 6.20375 5.04898 2.61333
internal_count=36 29 24 12
is_linear=0
shrinkage=0.01


Tree=27
num_leaves=5
num_cat=0
split_feature=36 37 16 11
split_gain=4.91899 4.23176 4.7095 2.78971
threshold=0.37101423231020425 0.62274381649920285 -0.51291009915857344 0.28328956824590962
decision_type=2 2 2 2
left_child=1 2 -1 -4
right_child=-2 -3 3 -5
leaf_value=-0.0075209266270877245 0.018736018155502517 -0.012710943984517949 0.0031755372068498038 0.024386323146515145
leaf_weight=1.6722355037927621 1.6392268836498258 1.819410368800163 1.5498000532388694 1.1548066586256025
leaf_count=8 7 9 7 5
internal_value=0.00386857 -0.000140917 0.00502816 0.0131352
internal_weight=7.83548 6.19625 4.37684 2.70461
internal_count=36 29 20 12
is_linear=0
shrinkage=0.01


Tree=28
num_leaves=5
num_cat=0
split_feature=36 4 1 11
split_gain=4.80087 4.28544 3.59737 4.60804
threshold=0.37101423231020425 -0.97517927323974163 -0.082269404615424396 1.0000000180025095e-35
decision_type=2 2 2 2
left_child=1 -1 3 -3
right_child=-2 2 -4 -5
leaf_value=0.016224492344841187 0.018480777966700029 -0.011929356972813427 -0.01299510740180829 0.014027667114651842
leaf_weight=1.1600053459405897 1.6465913653373716 1.0229983925819395 2.4136062562465672 1.5934754014015196
leaf_count=5 7 5 12 7
internal_value=0.00383228 -0.000137164 -0.00434803 0.00344522
internal_weight=7.83668 6.19009 5.03008 2.61647
internal_count=36 29 24 12
is_linear=0
shrinkage=0.01


Tree=29
num_leaves=5
num_cat=0
split_feature=36 4 1 9
split_gain=4.68659 4.19659 3.54805 4.54639
threshold=0.37101423231020425 -0.97517927323974163 -0.082269404615424396 1.0000000180025095e-35
decision_type=2 2 2 2
left_child=1 -1 3 -3
right_child=-2 2 -4 -5
leaf_value=0.016014759150254739 0.018232785205347945 -0.011899428577742734 -0.012941325118796001 0.013892260706557248
leaf_weight=1.1647307276725767 1.6536218971014021 1.0198321044445036 2.3998848646879201 1.5974920541048048
leaf_count=5 7 5 12 7
internal_value=0.00379716 -0.000133848 -0.00431782 0.00340653
internal_weight=7.83556 6.18194 5.01721 2.61732
internal_count=36 29 24 12
is_linear=0
shrinkage=0.01


Tree=30
num_leaves=5
num_cat=0
split_feature=1 8 5 17
split_gain=4.45793 6.68188 1.96837 0.624295
threshold=0.35341497145222112 -0.22984311370431137 0.26428245744418472 -0.20867202406688831
decision_type=2 2 2 2
left_child=1 -1 -2 -3
right_child=2 3 -4 -5
leaf_value=-0.007254838133369519 -0.013306859951982296 0.0090499463750120784 0.002319551330896489 0.022641533468413355
leaf_weight=1.6727045178413389 2.1001909226179127 1.12380450963974 1.0776643007993696 1.4400126934051514
leaf_count=8 10 5 5 6
internal_value=0.000869926 0.00762891 -0.0077935 0.0176227
internal_weight=7.41438 4.23652 3.17786 2.56382
internal_count=34 19 15 11
is_linear=0
shrinkage=0.01


Tree=31
num_leaves=4
num_cat=0
split_feature=3 4 5
split_gain=4.39897 3.93882 2.38879
threshold=1.1369245065276028 -0.79548159561794018 0.57284457848965042
decision_type=2 2 2
left_child=1 -1 -3
right_child=-2 2 -4
leaf_value=0.011114298839615079 0.016059054896176227 -0.013343763611545021 0.00071257470155691369
leaf_weight=1.3906917870044706 1.4380875676870344 2.6881152838468552 1.8913809955120084
leaf_count=6 6 13 9
internal_value=0.000863485 -0.00283631 -0.00743348
internal_weight=7.40828 5.97019 4.5795
internal_count=34 28 22
is_linear=0
shrinkage=0.01


Tree=32
num_leaves=5
num_cat=0
split_feature=1 8 5 17
split_gain=4.33093 6.43724 1.93293 0.609688
threshold=0.35341497145222112 -0.22984311370431137 0.26428245744418472 -0.20867202406688831
decision_type=2 2 2 2
left_child=1 -1 -2 -3
right_child=2 3 -4 -5
leaf_value=-0.0071644129890753271 -0.013215729447622287 0.0088215775715857932 0.0022836091807431247 0.022196729751203317
leaf_weight=1.6635179817676542 2.0822113156318669 1.1292344927787781 1.0781861245632169 1.4489324986934662
leaf_count=8 10 5 5 6
internal_value=0.000858622 0.00750641 -0.00771348 0.0172599
internal_weight=7.40208 4.24168 3.1604 2.57817
internal_count=34 19 15 11
is_linear=0
shrinkage=0.01


Tree=33
num_leaves=4
num_cat=0
split_feature=3 25 4
split_gain=4.25892 6.63147 1.57955
threshold=1.1369245065276028 0.78832793336383689 -0.4445984924042154
decision_type=2 2 2
left_child=1 2 -1
right_child=-2 -3 -4
leaf_value=0 0.01576868091944383 0.013805444740006905 -0.013192997962347058
leaf_weight=1.3228212147951119 1.4436900615692136 1.6022128164768217 3.0264436155557637
leaf_count=6 6 7 15
internal_value=0.000852324 -0.00280157 -0.00931692
internal_weight=7.39517 5.95148 4.34926
internal_count=34 28 21
is_linear=0
shrinkage=0.01


Tree=34
num_leaves=5
num_cat=0
split_feature=1 8 5 11
split_gain=4.24453 6.20391 1.90539 0.690425
threshold=0.35341497145222112 -0.22984311370431137 0.26428245744418472 0.14487131373256432
decision_type=2 2 2 2
left_child=1 -1 -2 -3
right_child=2 3 -4 -5
leaf_value=-0.0070529415945981633 -0.013154544197352689 0.0083601963511112792 0.0022469374323563023 0.0220531351363315
leaf_weight=1.6517882049083707 2.0687040388584141 1.1366441249847414 1.0779595524072645 1.4523902684450147
leaf_count=8 10 5 5 6
internal_value=0.000846331 0.00742219 -0.00766372 0.016948
internal_weight=7.38749 4.24082 3.14666 2.58903
internal_count=34 19 15 11
is_linear=0
shrinkage=0.01


Tree=35
num_leaves=4
num_cat=0
split_feature=33 8 32
split_gain=4.8361 4.85224 2.91181
threshold=0.19394224961705389 -0.16119318040916128 -0.33306121847360576
decision_type=2 2 2
left_child=2 -2 -1
right_child=1 -3 -4
leaf_value=0.0037454520802498816 -0.0053041979484916594 0.018312362376576546 -0.01315404905804617
leaf_weight=1.5147198587656023 1.2629003524780276 2.1735642850399017 2.4501411020755768
leaf_count=7 6 9 12
internal_value=0.000787649 0.00944594 -0.00651851
internal_weight=7.40133 3.43646 3.96486
internal_count=34 15 19
is_linear=0
shrinkage=0.01


Tree=36
num_leaves=5
num_cat=0
split_feature=20 39 13 4
split_gain=8.50465 4.43181 2.65877 0.591641
threshold=0.24432611362879655 -0.18744181304675131 0.17607543011621793 0.19185266969666911
decision_type=2 2 2 2
left_child=1 2 -1 -3
right_child=-2 3 -4 -5
leaf_value=-0.012352512423179234 -0.013155236771020611 0.02248591844011158 0.0086302981297454989 0.0090576732519088762
leaf_weight=1.0624237358570101 2.6438754200935364 1.4421448409557345 1.1318660974502561 1.1131812930107114
leaf_count=5 13 6 5 5
internal_value=0.00077952 0.00885383 -0.00118881 0.0175742
internal_weight=7.39349 4.74962 2.19429 2.55533
internal_count=34 21 10 11
is_linear=0
shrinkage=0.01


Tree=37
num_leaves=4
num_cat=0
split_feature=20 21 23
split_gain=8.36618 6.2606 2.82303
threshold=0.24432611362879655 0.064663961812032725 0.32531111858595257
decision_type=2 2 2
left_child=1 2 -1
right_child=-2 -3 -4
leaf_value=-0.0124823019618331 -0.013099959456721549 0.020014509377019169 0.0082416014648503937
leaf_weight=1.2555489242076876 2.6289780735969543 2.360890194773674 1.1390503644943235
leaf_count=6 13 10 5
internal_value=0.000774323 0.00876223 -0.00228839
internal_weight=7.38447 4.75549 2.3946
internal_count=34 21 11
is_linear=0
shrinkage=0.01


Tree=38
num_leaves=4
num_cat=0
split_feature=20 21 23
split_gain=8.22751 6.10921 2.77967
threshold=0.24432611362879655 0.064663961812032725 0.32531111858595257
decision_type=2 2 2
left_child=1 2 -1
right_child=-2 -3 -4
leaf_value=-0.012424932227978688 -0.013045501255724635 0.019749255377011672 0.0081516243990714041
leaf_weight=1.2492261528968813 2.6140454560518265 2.3699703216552734 1.1411997377872465
leaf_count=6 13 10 5
internal_value=0.00076631 0.0086688 -0.00226718
internal_weight=7.37444 4.7604 2.39043
internal_count=34 21 11
is_linear=0
shrinkage=0.01


Tree=39
num_leaves=4
num_cat=0
split_feature=20 21 20
split_gain=8.09186 5.96312 2.75992
threshold=0.24432611362879655 0.064663961812032725 -0.084265503361556651
decision_type=2 2 2
left_child=1 2 -1
right_child=-2 -3 -4
leaf_value=-0.012430477261219694 -0.012991844174803905 0.019491863458824137 0.0080854345982161718
leaf_weight=1.2401759028434756 2.59908127784729 2.3785301148891449 1.1460043489933012
leaf_count=6 13 10 5
internal_value=0.000758406 0.00857741 -0.00224623
internal_weight=7.36379 4.76471 2.38618
internal_count=34 21 11
is_linear=0
shrinkage=0.01


Tree=40
num_leaves=5
num_cat=0
split_feature=3 0 29 3
split_gain=4.52817 3.72744 4.40283 0.203985
threshold=-0.82184214865237359 -0.38405876129160382 0.34657148770775997 0.11911629142981273
decision_type=2 2 2 2
left_child=-1 -2 3 -3
right_child=1 2 -4 -5
leaf_value=-0.013049206076197022 0.017672116850951453 -0.0041559054447958786 0.010539935688711628 -0.012851186569268541
leaf_weight=2.0295656621456146 1.3845117539167402 1.0526050329208376 1.8169205635786054 1.287802457809448
leaf_count=10 6 5 8 6
internal_value=-0.000518221 0.00404366 -0.000568621 -0.00968077
internal_weight=7.57141 5.54184 4.15733 2.34041
internal_count=35 25 19 11
is_linear=0
shrinkage=0.01


Tree=41
num_leaves=5
num_cat=0
split_feature=18 27 29 5
split_gain=3.63605 4.44196 2.5786 1.95791
threshold=0.13884123502408494 -0.18895718873857739 -0.056851836118719502 0.80781753659206046
decision_type=2 2 2 2
left_child=1 -1 -3 -2
right_child=3 2 -4 -5
leaf_value=-0.0068204320982805187 -0.013372683969686487 0.00098033458483482491 0.021990828821525397 0.0019477594301213425
leaf_weight=1.6174541860818861 2.2854211032390599 1.1192449331283569 1.4536206275224686 1.0875727385282514
leaf_count=8 11 5 6 5
internal_value=-0.00051407 0.00551169 0.0136036 -0.00823105
internal_weight=7.56331 4.19032 2.57287 3.37299
internal_count=35 19 11 16
is_linear=0
shrinkage=0.01


Tree=42
num_leaves=5
num_cat=0
split_feature=18 23 31 5
split_gain=3.57331 5.40457 3.57774 1.93615
threshold=0.13884123502408494 -0.82900366460062314 -0.42028130653117329 0.80781753659206046
decision_type=2 2 2 2
left_child=1 -1 -3 -2
right_child=3 2 -4 -5
leaf_value=0.022684875936018537 -0.013312628052147229 -0.012688022149352628 0.0083622395642258575 0.0019288199786457719
leaf_weight=1.1848084479570387 2.2732857763767247 1.4454797804355619 1.5609405636787417 1.0882478803396223
leaf_count=5 11 7 7 5
internal_value=-0.000506606 0.005459 -0.0015194 -0.00817636
internal_weight=7.55276 4.19123 3.00642 3.36153
internal_count=35 19 14 16
is_linear=0
shrinkage=0.01


Tree=43
num_leaves=5
num_cat=0
split_feature=3 0 29 3
split_gain=4.36817 3.55986 4.20513 0.198717
threshold=-0.82184214865237359 -0.38405876129160382 0.34657148770775997 0.11911629142981273
decision_type=2 2 2 2
left_child=-1 -2 3 -3
right_child=1 2 -4 -5
leaf_value=-0.012907438293223966 0.017217440002532419 -0.0040651658653742487 0.010226819739229127 -0.01269765580142582
leaf_weight=2.0027486979961395 1.3944768160581587 1.0463706552982333 1.8256558477878568 1.273193374276161
leaf_count=10 6 5 8 6
internal_value=-0.000498953 0.00395906 -0.000566093 -0.00954574
internal_weight=7.54245 5.5397 4.14522 2.31956
internal_count=35 25 19 11
is_linear=0
shrinkage=0.01


Tree=44
num_leaves=5
num_cat=0
split_feature=3 34 1 5
split_gain=4.30263 3.49236 3.94763 5.49297
threshold=-0.82184214865237359 -0.9395869120847643 0.44310141943851178 0.57284457848965042
decision_type=2 2 2 2
left_child=-1 -2 -3 -4
right_child=1 2 3 -5
leaf_value=-0.012852986493677252 -0.011799661273703166 0.018400511594278107 -0.012777154993776412 0.015192117651713709
leaf_weight=1.9916006177663801 1.0056762248277662 1.8985208868980405 1.4635481983423235 1.1739942729473112
leaf_count=10 5 8 7 5
internal_value=-0.000495083 0.00391797 0.00779773 0
internal_weight=7.53334 5.54174 4.53606 2.63754
internal_count=35 25 20 12
is_linear=0
shrinkage=0.01


Tree=45
num_leaves=4
num_cat=0
split_feature=32 4 33
split_gain=4.6367 4.72387 3.66086
threshold=-0.21245853656949185 0.51360257838895107 0.1150859953444897
decision_type=2 2 2
left_child=1 -1 -2
right_child=2 -3 -4
leaf_value=0.018972953018779291 -0.013137532146710493 -0.0047768252916207858 0.0049829133325593909
leaf_weight=2.1399984061717992 2.4283032566308975 1.1929601728916166 1.8200747072696684
leaf_count=9 12 6 8
internal_value=0.00151992 0.0102894 -0.0052084
internal_weight=7.58134 3.33296 4.24838
internal_count=35 15 20
is_linear=0
shrinkage=0.01


Tree=46
num_leaves=5
num_cat=0
split_feature=4 22 9 39
split_gain=4.30628 3.23456 3.98137 0.269381
threshold=0.51360257838895107 -1.0359096904881011 0.060428995817091526 -0.18744181304675131
decision_type=2 2 2 2
left_child=1 -1 -3 -2
right_child=3 2 -4 -5
leaf_value=-0.0061734218478866846 -0.012284702148556245 -0.00091390957835352975 0.019060365604290225 -0.0032009919243856039
leaf_weight=1.2909275144338606 1.3956567943096163 1.497063532471657 2.3916860371828079 0.99958401918411244
leaf_count=6 7 7 10 5
internal_value=0.00150525 0.00671369 0.01129 -0.00917485
internal_weight=7.57492 5.17968 3.88875 2.39524
internal_count=35 23 17 12
is_linear=0
shrinkage=0.01


Tree=47
num_leaves=5
num_cat=0
split_feature=32 4 39 36
split_gain=4.48919 4.52697 3.26146 0.409824
threshold=-0.21245853656949185 0.51360257838895107 0.50882673787289723 -0.74003260929953962
decision_type=2 2 2 2
left_child=1 -1 3 -2
right_child=2 -3 -4 -5
leaf_value=0.018551341372139672 -0.0034131992066547033 -0.0046967000605418396 0.0084684771764868411 -0.013232278007401935
leaf_weight=2.1517826318740849 1.0298105478286745 1.1873876750469206 1.1223517954349516 2.0787612199783325
leaf_count=9 5 6 5 10
internal_value=0.00148529 0.0100975 -0.00515705 -0.0104988
internal_weight=7.57009 3.33917 4.23092 3.10857
internal_count=35 15 20 15
is_linear=0
shrinkage=0.01


Tree=48
num_leaves=4
num_cat=0
split_feature=32 4 33
split_gain=4.40028 4.42616 3.56722
threshold=-0.21245853656949185 0.51360257838895107 0.1150859953444897
decision_type=2 2 2
left_child=1 -1 -2
right_child=2 -3 -4
leaf_value=0.018321211447551552 -0.01301846296563907 -0.0046617933612417553 0.0049078696862423802
leaf_weight=2.158245831727982 2.4000445306301117 1.1850761622190473 1.8206462264060972
leaf_count=9 12 6 8
internal_value=0.00146954 0.00998543 -0.00511966
internal_weight=7.56401 3.34332 4.22069
internal_count=35 15 20
is_linear=0
shrinkage=0.01


Tree=49
num_leaves=5
num_cat=0
split_feature=32 4 39 36
split_gain=4.3125 4.32862 3.18897 0.409684
threshold=-0.21245853656949185 0.51360257838895107 0.50882673787289723 -0.74003260929953962
decision_type=2 2 2 2
left_child=1 -1 3 -2
right_child=2 -3 -4 -5
leaf_value=0.018097302260531273 -0.0033193114760303138 -0.0046271250779023262 0.0083602123142895585 -0.013140775741993007
leaf_weight=2.1643056124448781 1.0239237099885943 1.1827765852212904 1.1240459680557249 2.0612829625606537
leaf_count=9 5 6 5 10
internal_value=0.00145552 0.00987567 -0.00508169 -0.0104017
internal_weight=7.55633 3.34708 4.20925 3.08521
internal_count=35 15 20 15
is_linear=0
shrinkage=0.01


Tree=50
num_leaves=5
num_cat=0
split_feature=3 23 5 22
split_gain=6.74139 3.77751 2.73428 0.496329
threshold=1.3149644081805854 0.65751831962389584 0.26428245744418472 -0.7620346407274442
decision_type=2 2 2 2
left_child=1 3 -3 -1
right_child=-2 2 -4 -5
leaf_value=-0.0029835600226043621 0.019196252614063027 -0.0058073297955055512 0.014834017393585516 -0.013071731564712266
leaf_weight=0.9846847504377364 1.2409667074680326 1.1279620677232745 1.1734520196914671 3.1699879318475723
leaf_count=5 5 5 5 16
internal_value=-0.00108757 -0.00537232 0.00448037 -0.0110421
internal_weight=7.69705 6.45609 2.30141 4.15467
internal_count=36 31 10 21
is_linear=0
shrinkage=0.01


Tree=51
num_leaves=5
num_cat=0
split_feature=3 23 5 22
split_gain=6.61618 3.72464 2.6791 0.492075
threshold=1.3149644081805854 0.65751831962389584 0.26428245744418472 -0.7620346407274442
decision_type=2 2 2 2
left_child=1 3 -3 -1
right_child=-2 2 -4 -5
leaf_value=-0.0029597716351257982 0.018996626851005474 -0.0057621728093033087 0.014661384009713334 -0.013019958090932111
leaf_weight=0.98348261415958393 1.242510139942169 1.1262260079383852 1.1765579730272291 3.1512589305639267
leaf_count=5 5 5 5 16
internal_value=-0.0010777 -0.00533654 0.00443252 -0.0109896
internal_weight=7.68004 6.43753 2.30278 4.13474
internal_count=36 31 10 21
is_linear=0
shrinkage=0.01


Tree=52
num_leaves=5
num_cat=0
split_feature=3 23 5 22
split_gain=6.49422 3.67263 2.62533 0.487916
threshold=1.3149644081805854 0.65751831962389584 0.26428245744418472 -0.7620346407274442
decision_type=2 2 2 2
left_child=1 3 -3 -1
right_child=-2 2 -4 -5
leaf_value=-0.0029361583038010485 0.018802424010693458 -0.0057173853966388652 0.01449245787876541 -0.01296894566329366
leaf_weight=0.98228833079338063 1.2438161969184873 1.124490022659302 1.179519936442375 3.1325050294399261
leaf_count=5 5 5 5 16
internal_value=-0.001068 -0.00530119 0.00438538 -0.0109377
internal_weight=7.66262 6.4188 2.30401 4.11479
internal_count=36 31 10 21
is_linear=0
shrinkage=0.01


Tree=53
num_leaves=5
num_cat=0
split_feature=3 23 5 22
split_gain=6.37541 3.62146 2.57293 0.48385
threshold=1.3149644081805854 0.65751831962389584 0.26428245744418472 -0.7620346407274442
decision_type=2 2 2 2
left_child=1 3 -3 -1
right_child=-2 2 -4 -5
leaf_value=-0.002912719176291133 0.018613423393354558 -0.0056729622860368844 0.014327106491579436 -0.01291867682095103
leaf_weight=0.98110185563564289 1.2448911964893339 1.1227542757987978 1.1823414415121076 3.1137305349111557
leaf_count=5 5 5 5 16
internal_value=-0.00105844 -0.00526629 0.00433896 -0.0108863
internal_weight=7.64482 6.39993 2.3051 4.09483
internal_count=36 31 10 21
is_linear=0
shrinkage=0.01


Tree=54
num_leaves=5
num_cat=0
split_feature=3 23 5 22
split_gain=6.25963 3.57111 2.52184 0.479874
threshold=1.3149644081805854 0.65751831962389584 0.26428245744418472 -0.7620346407274442
decision_type=2 2 2 2
left_child=1 3 -3 -1
right_child=-2 2 -4 -5
leaf_value=-0.0028894522198129845 0.018429418976620635 -0.005628900029391066 0.014165204414712883 -0.012869133608588924
leaf_weight=0.97992321848869313 1.2457413226366041 1.121019169688225 1.1850257813930509 3.0949396640062332
leaf_count=5 5 5 5 16
internal_value=-0.00104905 -0.0052318 0.00429321 -0.0108354
internal_weight=7.62665 6.38091 2.30604 4.07486
internal_count=36 31 10 21
is_linear=0
shrinkage=0.01


end of trees

feature_importances:
Column_23=25
Column_3=18
Column_4=15
Column_5=12
Column_20=12
Column_1=9
Column_8=9
Column_9=9
Column_33=8
Column_11=6
Column_22=6
Column_27=6
Column_36=6
Column_32=5
Column_29=4
Column_31=4
Column_39=4
Column_0=3
Column_10=3
Column_16=3
Column_21=3
Column_13=2
Column_17=2
Column_18=2
Column_24=2
Column_34=2
Column_37=2
Column_2=1
Column_7=1
Column_12=1
Column_14=1
Column_25=1
Column_35=1

parameters:
[boosting: gbdt]
[objective: binary]
[metric: auc]
[tree_learner: serial]
[device_type: cpu]
[data_sample_strategy: bagging]
[data: ]
[valid: ]
[num_iterations: 1000]
[learning_rate: 0.01]
[num_leaves: 15]
[num_threads: 0]
[seed: 42]
[deterministic: 1]
[force_col_wise: 1]
[force_row_wise: 0]
[histogram_pool_size: -1]
[max_depth: -1]
[min_data_in_leaf: 5]
[min_sum_hessian_in_leaf: 0.001]
[bagging_fraction: 0.7]
[pos_bagging_fraction: 1]
[neg_bagging_fraction: 1]
[bagging_freq: 5]
[bagging_seed: 400]
[bagging_by_query: 0]
[feature_fraction: 0.8]
[feature_fraction_bynode: 1]
[feature_fraction_seed: 30056]
[extra_trees: 0]
[extra_seed: 12879]
[early_stopping_round: 0]
[early_stopping_min_delta: 0]
[first_metric_only: 0]
[max_delta_step: 0]
[lambda_l1: 0.1]
[lambda_l2: 0.1]
[linear_lambda: 0]
[min_gain_to_split: 0.01]
[drop_rate: 0.1]
[max_drop: 50]
[skip_drop: 0.5]
[xgboost_dart_mode: 0]
[uniform_drop: 0]
[drop_seed: 17869]
[top_rate: 0.2]
[other_rate: 0.1]
[min_data_per_group: 100]
[max_cat_threshold: 32]
[cat_l2: 10]
[cat_smooth: 10]
[max_cat_to_onehot: 4]
[top_k: 20]
[monotone_constraints: ]
[monotone_constraints_method: basic]
[monotone_penalty: 0]
[feature_contri: ]
[forcedsplits_filename: ]
[refit_decay_rate: 0.9]
[cegb_tradeoff: 1]
[cegb_penalty_split: 0]
[cegb_penalty_feature_lazy: ]
[cegb_penalty_feature_coupled: ]
[path_smooth: 0]
[interaction_constraints: ]
[verbosity: -1]
[saved_feature_importance_type: 0]
[use_quantized_grad: 0]
[num_grad_quant_bins: 4]
[quant_train_renew_leaf: 0]
[stochastic_rounding: 1]
[linear_tree: 0]
[max_bin: 255]
[max_bin_by_feature: ]
[min_data_in_bin: 3]
[bin_construct_sample_cnt: 200000]
[data_random_seed: 175]
[is_enable_sparse: 1]
[enable_bundle: 1]
[use_missing: 1]
[zero_as_missing: 0]
[feature_pre_filter: 1]
[pre_partition: 0]
[two_round: 0]
[header: 0]
[label_column: ]
[weight_column: ]
[group_column: ]
[ignore_column: ]
[categorical_feature: ]
[forcedbins_filename: ]
[precise_float_parser: 0]
[parser_config_file: ]
[objective_seed: 16083]
[num_class: 1]
[is_unbalance: 0]
[scale_pos_weight: 1]
[sigmoid: 1]
[boost_from_average: 1]
[reg_sqrt: 0]
[alpha: 0.9]
[fair_c: 1]
[poisson_max_delta_step: 0.7]
[tweedie_variance_power: 1.5]
[lambdarank_truncation_level: 30]
[lambdarank_norm: 1]
[label_gain: ]
[lambdarank_position_bias_regularization: 0]
[eval_at: ]
[multi_error_top_k: 1]
[auc_mu_weights: ]
[num_machines: 1]
[local_listen_port: 12400]
[time_out: 120]
[machine_list_filename: ]
[machines: ]
[gpu_platform_id: -1]
[gpu_device_id: -1]
[gpu_use_dp: 0]
[num_gpu: 1]

end of parameters

pandas_categorical:null
