tree
version=v4
num_class=1
num_tree_per_iteration=1
label_index=0
max_feature_idx=9
objective=binary sigmoid:1
feature_names=Column_0 Column_1 Column_2 Column_3 Column_4 Column_5 Column_6 Column_7 Column_8 Column_9
feature_infos=[-0.88588770630523472:3.1088242388506653] [-1.183407855719641:3.2981155884742011] [-1.7962854922153955:2.4682655999244978] [-1.0497101164015681:3.8632024976493726] [-1.5240033861306257:2.161557566509392] [-1.7464317542169139:2.4488019763447997] [-1.5274437083327048:1.0689933401986158] [-2.0819011250665094:2.4958611424821724] [-1.4346326694769052:3.8170232233828183] [-1.8136023548426379:2.6139491250413278]
tree_sizes=650 677 770 566 668 671 672 673 672 562 670 671 562 667 669 659 761 667 766 668 768 768 767 771 773 767

Tree=0
num_leaves=5
num_cat=0
split_feature=4 0 7 6
split_gain=6.24453 2.59827 2.06801 0.459559
threshold=0.72562472781847609 0.53421678749873569 -1.0000000180025095e-35 0.54667673556387786
decision_type=2 2 2 2
left_child=1 2 -1 -4
right_child=-2 -3 3 -5
leaf_value=-0.76847768420565377 -0.7317129788107144 -0.74549974333381663 -0.75009533150818408 -0.75928650785691887
leaf_weight=2.1760000288486476 1.0880000144243238 1.3056000173091886 1.0880000144243247 1.0880000144243238
leaf_count=10 5 6 5 5
internal_value=-0.753653 -0.757872 -0.761584 -0.754691
internal_weight=6.7456 5.6576 4.352 2.176
internal_count=31 26 20 10
is_linear=0
shrinkage=1


Tree=1
num_leaves=5
num_cat=0
split_feature=9 7 8 1
split_gain=5.93348 9.84215 2.53402 1.70608e-05
threshold=1.0000000180025095e-35 -0.24400932068966238 -0.17481972943266885 1.0000000180025095e-35
decision_type=2 2 2 2
left_child=1 -1 -2 -4
right_child=2 -3 3 -5
leaf_value=-0.0044262102561131817 0.0036971548156240486 0.030994739798835588 -0.014687338165428568 -0.014740934826678358
leaf_weight=1.9526434093713763 1.0872607231140139 1.3112350404262541 1.3037169426679613 1.0908575654029844
leaf_count=9 5 6 6 5
internal_value=0.000117105 0.00980385 -0.00896327 -0.0147118
internal_weight=6.74571 3.26388 3.48184 2.39457
internal_count=31 15 16 11
is_linear=0
shrinkage=0.01


Tree=2
num_leaves=6
num_cat=0
split_feature=4 0 3 6 6
split_gain=5.97345 2.53801 2.05656 4.07479 1.75698e-06
threshold=0.72562472781847609 0.53421678749873569 -0.57543612185282544 0.56766872671611535 0.54667673556387786
decision_type=2 2 2 2 2
left_child=1 2 3 -1 -4
right_child=-2 -3 4 -5 -6
leaf_value=0.012788533681590568 0.021409621918035197 0.0081552277643644096 -0.014639271019972156 -0.014615717625670622 -0.014621246440860103
leaf_weight=1.0900277495384214 1.1021201461553571 1.3097736239433286 1.0823747813701636 1.0803610533475874 1.0808307677507398
leaf_count=5 5 6 5 5 5
internal_value=0.000115457 -0.00404318 -0.00773 -0.000852564 -0.0146303
internal_weight=6.74549 5.64337 4.33359 2.17039 2.16321
internal_count=31 26 20 10 10
is_linear=0
shrinkage=0.01


Tree=3
num_leaves=4
num_cat=0
split_feature=9 1 1
split_gain=5.79312 8.71993 1.48195
threshold=1.0000000180025095e-35 -0.2204573793717555 -0.45727029743293129
decision_type=2 2 2
left_child=1 -1 -2
right_child=2 -3 -4
leaf_value=-0.0079868532006727826 -0.0014824341654877632 0.02474048873340489 -0.01465882625210909
leaf_weight=1.5107539445161822 1.5175944119691851 1.7655653804540632 1.9508136361837385
leaf_count=7 7 8 9
internal_value=0.000113927 0.00964948 -0.00889352
internal_weight=6.74473 3.27632 3.46841
internal_count=31 15 16
is_linear=0
shrinkage=0.01


Tree=4
num_leaves=5
num_cat=0
split_feature=1 3 5 7
split_gain=3.41516 5.0865 1.66875 0.455582
threshold=-0.2204573793717555 -0.40353824964625012 -0.28280408420188152 0.14335284598245132
decision_type=2 2 2 2
left_child=2 -2 3 -1
right_child=1 -3 -4 -5
leaf_value=0.0037883705597795136 0.022613062762088455 -0.0033361831871932496 -0.014515353146649475 -0.0053854694590529531
leaf_weight=1.0839985162019736 1.3302720934152605 1.74795226752758 1.5001491308212278 1.0813338309526441
leaf_count=5 6 8 7 5
internal_value=0.000112392 0.00787793 -0.00640901 -0.000792905
internal_weight=6.74371 3.07822 3.66548 2.16533
internal_count=31 14 17 10
is_linear=0
shrinkage=0.01


Tree=5
num_leaves=5
num_cat=0
split_feature=9 5 7 4
split_gain=8.27691 2.3494 1.37225 0.000105267
threshold=1.0000000180025095e-35 0.18760948395488528 0.36087290628628432 -0.75019513416940986
decision_type=2 2 2 2
left_child=1 -1 -2 -4
right_child=2 -3 3 -5
leaf_value=0.0024304982205275378 -0.0030936761867889039 0.018765988665308351 -0.014669844959787839 -0.014540584773787455
leaf_weight=1.7452757954597475 1.7316471338272093 1.7767005711793897 1.084780752658844 1.5029264241456985
leaf_count=8 8 8 5 7
internal_value=-0.000706604 0.0106711 -0.00998393 -0.0145948
internal_weight=7.84133 3.52198 4.31935 2.58771
internal_count=36 16 20 12
is_linear=0
shrinkage=0.01


Tree=6
num_leaves=5
num_cat=0
split_feature=9 1 7 4
split_gain=8.11395 4.32036 1.35903 0.000100744
threshold=1.0000000180025095e-35 0.11160394764682745 0.36087290628628432 -0.75019513416940986
decision_type=2 2 2 2
left_child=1 -1 -2 -4
right_child=2 -3 3 -5
leaf_value=0.0006066634517724155 -0.0030662323888359373 0.022848663506425355 -0.014601851044697051 -0.014475054718116179
leaf_weight=1.9580878019332888 1.7296843379735944 1.5764004737138746 1.0789629220962524 1.494674414396286
leaf_count=9 8 7 5 7
internal_value=-0.000700122 0.0105267 -0.00992116 -0.0145282
internal_weight=7.83781 3.53449 4.30332 2.57364
internal_count=36 16 20 12
is_linear=0
shrinkage=0.01


Tree=7
num_leaves=5
num_cat=0
split_feature=9 1 7 5
split_gain=7.95539 4.18979 1.34611 9.64337e-05
threshold=1.0000000180025095e-35 0.11160394764682745 0.36087290628628432 -0.82698705281959606
decision_type=2 2 2 2
left_child=1 -1 -2 -4
right_child=2 -3 3 -5
leaf_value=0.00060046504817505098 -0.0030390141392385591 0.022459918394392448 -0.014535154768262401 -0.014410759111044729
leaf_weight=1.958514675498009 1.7277340888977049 1.5875913649797437 1.0731040984392166 1.4863712638616562
leaf_count=9 8 7 5 7
internal_value=-0.000693817 0.0103869 -0.00985911 -0.0144629
internal_weight=7.83332 3.54611 4.28721 2.55948
internal_count=36 16 20 12
is_linear=0
shrinkage=0.01


Tree=8
num_leaves=5
num_cat=0
split_feature=9 1 8 8
split_gain=7.80073 4.06527 1.3197 6.56913e-05
threshold=1.0000000180025095e-35 0.11160394764682745 1.0000000180025095e-35 0.63004194418419368
decision_type=2 2 2 2
left_child=1 -1 -2 -4
right_child=2 -3 3 -5
leaf_value=0.00059433158330211735 -0.0030585954386610475 0.022085580226844211 -0.014331683654565684 -0.014433360529423013
leaf_weight=1.9589369893074038 1.7292765378952024 1.598300442099571 1.26524955034256 1.2764971852302549
leaf_count=9 8 7 6 6
internal_value=-0.000687612 0.0102506 -0.00979776 -0.0143827
internal_weight=7.82826 3.55724 4.27102 2.54175
internal_count=36 16 20 12
is_linear=0
shrinkage=0.01


Tree=9
num_leaves=4
num_cat=0
split_feature=5 8 3
split_gain=4.90376 3.81687 6.02705
threshold=-0.93389922740067954 -0.42268906240166115 -0.40353824964625012
decision_type=2 2 2
left_child=-1 -2 -3
right_child=1 2 -4
leaf_value=-0.014521967181319909 0.015104825593186643 0.010345764613739396 -0.01451796378822787
leaf_weight=1.9287527501583097 1.993332654237747 1.9786655902862547 1.921870142221451
leaf_count=9 9 9 9
internal_value=-0.000681507 0.00384775 -0.00190508
internal_weight=7.82262 5.89387 3.90054
internal_count=36 27 18
is_linear=0
shrinkage=0.01


Tree=10
num_leaves=5
num_cat=0
split_feature=9 0 0 9
split_gain=5.89941 7.27023 2.51182 0.000712473
threshold=-0.071557518701128128 -0.82541928658237362 0.64178287143053181 0.36937789583047137
decision_type=2 2 2 2
left_child=1 -1 3 -2
right_child=2 -3 -4 -5
leaf_value=-0.0074169908780404581 -0.014635251594682264 0.02340646454967257 0.0040098006558506377 -0.014285355222252905
leaf_weight=1.3267711699008944 1.0816543847322471 1.8079666197299955 1.0763087868690489 1.2597051858901975
leaf_count=6 5 8 5 6
internal_value=0.000452905 0.0103605 -0.00863449 -0.014447
internal_weight=6.55241 3.13474 3.41767 2.34136
internal_count=30 14 16 11
is_linear=0
shrinkage=0.01


Tree=11
num_leaves=5
num_cat=0
split_feature=9 0 0 9
split_gain=5.78033 7.06861 2.48016 0.000682238
threshold=-0.071557518701128128 -0.82541928658237362 0.64178287143053181 0.36937789583047137
decision_type=2 2 2 2
left_child=1 -1 3 -2
right_child=2 -3 -4 -5
leaf_value=-0.0073614370948853905 -0.014567929158937995 0.023008444860304171 0.0039637605284301054 -0.014224582168513824
leaf_weight=1.3234327137470248 1.0758157372474677 1.8207843899726865 1.0779140740633009 1.2524725049734113
leaf_count=6 5 8 5 6
internal_value=0.000448115 0.0102255 -0.00857721 -0.0143832
internal_weight=6.55042 3.14422 3.4062 2.32829
internal_count=30 14 16 11
is_linear=0
shrinkage=0.01


Tree=12
num_leaves=4
num_cat=0
split_feature=4 0 7
split_gain=5.24658 3.28725 0.624169
threshold=0.72562472781847609 0.53421678749873569 0.14335284598245132
decision_type=2 2 2
left_child=1 2 -1
right_child=-2 -3 -4
leaf_value=-0.014579062354340252 0.016328343222653034 0.0054238763985870698 -0.0050372691183295472
leaf_weight=1.9354102015495303 1.5781174153089521 1.9726481437683103 1.0615879148244856
leaf_count=9 7 9 5
internal_value=0.00044343 -0.00460084 -0.0111992
internal_weight=6.54776 4.96965 2.997
internal_count=30 23 14
is_linear=0
shrinkage=0.01


Tree=13
num_leaves=5
num_cat=0
split_feature=9 0 7 0
split_gain=5.65852 6.79218 2.437 0.000434552
threshold=-0.071557518701128128 -0.82541928658237362 -0.45372444903251546 0.2010317493085573
decision_type=2 2 2 2
left_child=1 -1 -2 -4
right_child=2 -3 3 -5
leaf_value=-0.0072511631559155952 0.0038743237438369328 0.022513431877591354 -0.014161389231153634 -0.014436986165450692
leaf_weight=1.316250801086426 1.0809881389141085 1.8361921310424802 1.037110432982445 1.2760925740003584
leaf_count=6 5 8 5 6
internal_value=0.000438833 0.0100857 -0.00852096 -0.0143134
internal_weight=6.54663 3.15244 3.39419 2.3132
internal_count=30 14 16 11
is_linear=0
shrinkage=0.01


Tree=14
num_leaves=5
num_cat=0
split_feature=2 8 0 8
split_gain=5.15831 5.8039 1.72203 0.397058
threshold=0.13459184081117642 -0.42268906240166115 1.0000000180025095e-35 -0.17481972943266885
decision_type=2 2 2 2
left_child=2 -2 -1 -4
right_child=1 -3 3 -5
leaf_value=-0.014456126188936699 0.02816468349355266 -0.0016667657326536797 -0.0053435767680429357 0.0031913469749009675
leaf_weight=1.7016067355871203 1.1440483033657076 1.5169506222009657 1.0792988985776903 1.1012134552001951
leaf_count=8 5 7 5 5
internal_value=0.000434312 0.0111587 -0.00691674 -0.00103323
internal_weight=6.54312 2.661 3.88212 2.18051
internal_count=30 12 18 10
is_linear=0
shrinkage=0.01


Tree=15
num_leaves=5
num_cat=0
split_feature=9 1 2 4
split_gain=4.88811 2.10183 3.40303 5.1454
threshold=0.63603883699958164 0.8532742519829436 0.13459184081117642 -0.13593497539607369
decision_type=2 2 2 2
left_child=1 2 3 -1
right_child=-2 -3 -4 -5
leaf_value=0.013396734118706713 -0.014138413924627341 -0.0058938612221821783 0.021079535058636169 -0.014449190203924291
leaf_weight=1.7638369053602212 1.4481367021799085 1.0989692211151121 1.62516213953495 1.0638050884008414
leaf_count=8 7 5 7 5
internal_value=0.00222355 0.00649144 0.00954818 0.00292064
internal_weight=6.99991 5.55177 4.4528 2.82764
internal_count=32 25 20 13
is_linear=0
shrinkage=0.01


Tree=16
num_leaves=6
num_cat=0
split_feature=9 3 2 5 9
split_gain=4.80409 2.88424 2.9696 1.85486 1.79625
threshold=0.63603883699958164 -0.67722687837199269 0.13459184081117642 0.88681510571517108 -0.16744347392466638
decision_type=2 2 2 2 2
left_child=1 -1 4 -4 -3
right_child=-2 2 3 -5 -6
leaf_value=0.020809996138638584 -0.014080350358256761 -0.014665234535045349 0.01987931717117777 0.0018208474882665904 0.0035231662873605836
leaf_weight=1.1133726090192793 1.4396100640296934 1.0835922062397001 1.13084913790226 1.1443796604871748 1.0883016139268877
leaf_count=5 7 5 5 5 5
internal_value=0.00220089 0.00641609 0.00281247 0.0107964 -0.00555131
internal_weight=7.00011 5.5605 4.44712 2.27523 2.17189
internal_count=32 25 20 10 10
is_linear=0
shrinkage=0.01


Tree=17
num_leaves=5
num_cat=0
split_feature=7 3 4 0
split_gain=4.19266 3.41185 2.38291 0.506915
threshold=-0.62696000407948393 -0.28828081055780214 -0.35930230585910511 -0.8078629262066811
decision_type=2 2 2 2
left_child=-1 2 -2 -3
right_child=1 3 -4 -5
leaf_value=0.014302031728696292 -0.0053270645132902439 -0.0055787217061257178 0.014689982434429228 -0.014577917437927846
leaf_weight=2.0266928523778915 1.0709937661886217 1.082392290234566 1.3373113721609113 1.484258100390434
leaf_count=9 5 5 6 7
internal_value=0.00217804 -0.00276102 0.00578823 -0.0107828
internal_weight=7.00165 4.97496 2.40831 2.56665
internal_count=32 23 11 12
is_linear=0
shrinkage=0.01


Tree=18
num_leaves=6
num_cat=0
split_feature=9 3 1 1 9
split_gain=4.65645 2.76676 4.18796 3.19808 0.625275
threshold=0.63603883699958164 -0.67722687837199269 -0.30343162572712745 0.8532742519829436 -0.16744347392466638
decision_type=2 2 2 2 2
left_child=1 -1 -3 4 -4
right_child=-2 2 3 -5 -6
leaf_value=0.020292395429507063 -0.013981620221710154 -0.014506317148346545 0.0097826743604106214 -0.0058471122017111311 0.020239513273289697
leaf_weight=1.1243601292371748 1.4245260357856748 1.0701374858617776 1.1640904396772382 1.0972151309251783 1.1239494085311901
leaf_count=5 7 5 5 5 5
internal_value=0.0021552 0.00627497 0.00273754 0.00818862 0.0149194
internal_weight=7.00428 5.57975 4.45539 3.38525 2.28804
internal_count=32 25 20 15 10
is_linear=0
shrinkage=0.01


Tree=19
num_leaves=5
num_cat=0
split_feature=8 1 0 3
split_gain=4.1627 2.46209 1.24476 1.07823
threshold=0.10445057896026953 1.0000000180025095e-35 -0.82541928658237362 -0.28828081055780214
decision_type=2 2 2 2
left_child=1 3 -2 -1
right_child=2 -3 -4 -5
leaf_value=0.007765595002698477 -0.01459065438264304 0.019134616635336485 -0.0011525972011118299 -0.0050058041522038918
leaf_weight=1.7594654113054273 1.2872569710016253 1.4147941321134565 1.4839317202568052 1.0588815063238146
leaf_count=8 6 6 7 5
internal_value=0.00213325 0.00837068 -0.00739477 0.00296725
internal_weight=7.00433 4.23314 2.77119 2.81835
internal_count=32 19 13 13
is_linear=0
shrinkage=0.01


Tree=20
num_leaves=6
num_cat=0
split_feature=4 8 4 6 7
split_gain=4.31013 1.97882 3.25892 2.07596 0.00130692
threshold=1.0447209141942353 -0.62411011123045579 -0.13593497539607369 0.56766872671611535 0.36087290628628432
decision_type=2 2 2 2 2
left_child=1 -1 3 -3 -4
right_child=-2 2 4 -5 -6
leaf_value=0.0073489962263517143 0.017341714016955754 0.011992451958627245 -0.01451945340510963 -0.0066917043556931942 -0.01405556868145403
leaf_weight=1.3344534635543821 1.1868274956941602 1.1090525239706037 1.490596771240235 1.2821299731731413 1.0249405056238172
leaf_count=6 5 5 7 6 5
internal_value=-0.000126499 -0.00344827 -0.00638474 0.00197418 -0.0143304
internal_weight=7.428 6.24117 4.90672 2.39118 2.51554
internal_count=34 29 23 11 12
is_linear=0
shrinkage=0.01


Tree=21
num_leaves=6
num_cat=0
split_feature=4 4 6 6 9
split_gain=4.21225 1.51143 4.08424 2.13006 0.00230197
threshold=1.0447209141942353 -0.13593497539607369 0.56766872671611535 0.75960282432839665 0.36937789583047137
decision_type=2 2 2 2 2
left_child=1 2 -1 4 -3
right_child=-2 3 -4 -5 -6
leaf_value=0.014676848090722885 0.017102939285386344 -0.0145418906621348 -0.0086426812603355736 0.0029542141082264288 -0.013875367137292633
leaf_weight=1.3406359255313876 1.1913398951292036 1.0685368776321418 1.7078067064285276 1.108068600296974 1.0060103237628935
leaf_count=6 5 5 8 5 5
internal_value=-0.000125585 -0.00341957 0.00161272 -0.00823971 -0.0142187
internal_weight=7.4224 6.23106 3.04844 3.18262 2.07455
internal_count=34 29 14 15 10
is_linear=0
shrinkage=0.01


Tree=22
num_leaves=6
num_cat=0
split_feature=4 4 6 6 9
split_gain=4.11731 1.4875 3.99388 2.10439 0.0022076
threshold=1.0447209141942353 -0.13593497539607369 0.56766872671611535 0.75960282432839665 0.36937789583047137
decision_type=2 2 2 2 2
left_child=1 2 -1 4 -3
right_child=-2 3 -4 -5 -6
leaf_value=0.014462158087938118 0.01687071312844287 -0.014476617007288549 -0.0085846942007587971 0.002921830179596257 -0.013821984561406509
leaf_weight=1.3469004333019259 1.195639371871948 1.0626507401466376 1.7021773159503935 1.1091407537460325 0.99982774257659901
leaf_count=6 5 5 8 5 5
internal_value=-0.000124693 -0.00339127 0.00159603 -0.00818587 -0.0141593
internal_weight=7.41634 6.2207 3.04908 3.17162 2.06248
internal_count=34 29 14 15 10
is_linear=0
shrinkage=0.01


Tree=23
num_leaves=6
num_cat=0
split_feature=4 8 4 6 9
split_gain=4.02518 1.9353 3.15768 1.91912 0.00295473
threshold=1.0447209141942353 -0.62411011123045579 -0.13593497539607369 0.56766872671611535 0.36937789583047137
decision_type=2 2 2 2 2
left_child=1 -1 3 -3 -4
right_child=-2 2 4 -5 -6
leaf_value=0.0073031486443233505 0.016644749107264097 0.011426528181630138 -0.014473857983113677 -0.0065133879572078172 -0.01376953765551537
leaf_weight=1.3352641016244886 1.1997314393520353 1.1237916201353071 1.487033978104592 1.2703625559806822 0.99363069236278523
leaf_count=6 5 5 7 6 5
internal_value=-0.000123812 -0.00336334 -0.00628501 0.00190743 -0.0141917
internal_weight=7.40981 6.21008 4.87482 2.39415 2.48066
internal_count=34 29 23 11 12
is_linear=0
shrinkage=0.01


Tree=24
num_leaves=6
num_cat=0
split_feature=4 8 4 6 9
split_gain=3.93572 1.89938 3.11838 1.87721 0.0028341
threshold=1.0447209141942353 -0.62411011123045579 -0.13593497539607369 0.56766872671611535 0.36937789583047137
decision_type=2 2 2 2 2
left_child=1 -1 3 -3 -4
right_child=-2 2 4 -5 -6
leaf_value=0.0072131363861991718 0.016424774240181263 0.011272157516076051 -0.014409870571903799 -0.0064648195812488495 -0.013718005997945861
leaf_weight=1.3383916616439817 1.2036215364933012 1.1277697682380674 1.4787423908710486 1.2671236693859098 0.98742076754569996
leaf_count=6 5 5 7 6 5
internal_value=-0.000122928 -0.00333566 -0.00624005 0.00188763 -0.0141329
internal_weight=7.40307 6.19945 4.86106 2.39489 2.46616
internal_count=34 29 23 11 12
is_linear=0
shrinkage=0.01


Tree=25
num_leaves=6
num_cat=0
split_feature=5 0 8 5 5
split_gain=3.80622 3.90124 4.22473 3.91221 1.72069
threshold=-0.93389922740067954 -0.82541928658237362 -0.17481972943266885 0.15125934459731707 -0.36726470212093748
decision_type=2 2 2 2 2
left_child=-1 2 -2 4 -3
right_child=1 3 -4 -5 -6
leaf_value=-0.014151793774102675 0.011362136877215245 0.011777827430882036 -0.014393008428322491 0.022080659202233479 -0.0058691641771853919
leaf_weight=1.0324511379003523 1.1226947009563448 1.1108565479516981 1.4719071835279463 2.0914793908596039 1.0993492454290392
leaf_count=5 5 5 7 9 5
internal_value=0.00375501 0.00643585 -0.00324865 0.0122772 0.00300027
internal_weight=7.92874 6.89629 2.5946 4.30169 2.21021
internal_count=36 31 12 19 10
is_linear=0
shrinkage=0.01


end of trees

feature_importances:
Column_9=20
Column_4=17
Column_0=13
Column_1=11
Column_8=11
Column_6=10
Column_7=10
Column_5=8
Column_3=7
Column_2=3

parameters:
[boosting: gbdt]
[objective: binary]
[metric: auc]
[tree_learner: serial]
[device_type: cpu]
[data_sample_strategy: bagging]
[data: ]
[valid: ]
[num_iterations: 1000]
[learning_rate: 0.01]
[num_leaves: 15]
[num_threads: 0]
[seed: 42]
[deterministic: 1]
[force_col_wise: 1]
[force_row_wise: 0]
[histogram_pool_size: -1]
[max_depth: -1]
[min_data_in_leaf: 5]
[min_sum_hessian_in_leaf: 0.001]
[bagging_fraction: 0.7]
[pos_bagging_fraction: 1]
[neg_bagging_fraction: 1]
[bagging_freq: 5]
[bagging_seed: 400]
[bagging_by_query: 0]
[feature_fraction: 0.7]
[feature_fraction_bynode: 1]
[feature_fraction_seed: 30056]
[extra_trees: 0]
[extra_seed: 12879]
[early_stopping_round: 0]
[early_stopping_min_delta: 0]
[first_metric_only: 0]
[max_delta_step: 0]
[lambda_l1: 0]
[lambda_l2: 0]
[linear_lambda: 0]
[min_gain_to_split: 0]
[drop_rate: 0.1]
[max_drop: 50]
[skip_drop: 0.5]
[xgboost_dart_mode: 0]
[uniform_drop: 0]
[drop_seed: 17869]
[top_rate: 0.2]
[other_rate: 0.1]
[min_data_per_group: 100]
[max_cat_threshold: 32]
[cat_l2: 10]
[cat_smooth: 10]
[max_cat_to_onehot: 4]
[top_k: 20]
[monotone_constraints: ]
[monotone_constraints_method: basic]
[monotone_penalty: 0]
[feature_contri: ]
[forcedsplits_filename: ]
[refit_decay_rate: 0.9]
[cegb_tradeoff: 1]
[cegb_penalty_split: 0]
[cegb_penalty_feature_lazy: ]
[cegb_penalty_feature_coupled: ]
[path_smooth: 0]
[interaction_constraints: ]
[verbosity: -1]
[saved_feature_importance_type: 0]
[use_quantized_grad: 0]
[num_grad_quant_bins: 4]
[quant_train_renew_leaf: 0]
[stochastic_rounding: 1]
[linear_tree: 0]
[max_bin: 255]
[max_bin_by_feature: ]
[min_data_in_bin: 3]
[bin_construct_sample_cnt: 200000]
[data_random_seed: 175]
[is_enable_sparse: 1]
[enable_bundle: 1]
[use_missing: 1]
[zero_as_missing: 0]
[feature_pre_filter: 1]
[pre_partition: 0]
[two_round: 0]
[header: 0]
[label_column: ]
[weight_column: ]
[group_column: ]
[ignore_column: ]
[categorical_feature: ]
[forcedbins_filename: ]
[precise_float_parser: 0]
[parser_config_file: ]
[objective_seed: 16083]
[num_class: 1]
[is_unbalance: 0]
[scale_pos_weight: 1]
[sigmoid: 1]
[boost_from_average: 1]
[reg_sqrt: 0]
[alpha: 0.9]
[fair_c: 1]
[poisson_max_delta_step: 0.7]
[tweedie_variance_power: 1.5]
[lambdarank_truncation_level: 30]
[lambdarank_norm: 1]
[label_gain: ]
[lambdarank_position_bias_regularization: 0]
[eval_at: ]
[multi_error_top_k: 1]
[auc_mu_weights: ]
[num_machines: 1]
[local_listen_port: 12400]
[time_out: 120]
[machine_list_filename: ]
[machines: ]
[gpu_platform_id: -1]
[gpu_device_id: -1]
[gpu_use_dp: 0]
[num_gpu: 1]

end of parameters

pandas_categorical:null
