tree
version=v4
num_class=1
num_tree_per_iteration=1
label_index=0
max_feature_idx=8
objective=binary sigmoid:1
feature_names=Column_0 Column_1 Column_2 Column_3 Column_4 Column_5 Column_6 Column_7 Column_8
feature_infos=[-1.0168394290561711:3.0520799144994157] [-1.2852435072265382:3.7179440071051424] [-1.5799354526206366:2.8661667315291766] [-1.1069683468910279:3.8957591220666066] [-1.7538377553224795:2.0936438204162107] [-1.0344839720511658:5.4630136089127506] [-4.5492331473941379:0.97620292099344252] [-2.3691013711252142:2.3555903208684139] [-1.7413967205370187:3.2651075884595397]
tree_sizes=650 664 664 664 663 669 667 667 646 668 758

Tree=0
num_leaves=5
num_cat=0
split_feature=1 1 0 0
split_gain=6.638 7.4875 0.484442 0.215302
threshold=-0.2075557691482364 0.49171004456867218 -0.26932394123413039 0.20954438834810749
decision_type=2 2 2 2
left_child=3 -2 -3 -1
right_child=1 2 -4 -5
leaf_value=-0.64111007369371331 -0.61359917896613203 -0.63461475800406175 -0.64268925391341614 -0.64978114329455927
leaf_weight=1.1316568404436114 2.0369823127985001 1.1316568404436114 1.3579882085323332 1.5843195766210554
leaf_count=5 9 5 6 7
internal_value=-0.634868 -0.627393 -0.638722 -0.646833
internal_weight=7.2426 4.52663 2.48965 2.71598
internal_count=32 20 11 12
is_linear=0
shrinkage=1


Tree=1
num_leaves=5
num_cat=0
split_feature=1 1 2 6
split_gain=6.51702 7.2857 0.48515 0.219549
threshold=-0.2075557691482364 0.49171004456867218 1.0585250242553925 0.48557589190181111
decision_type=2 2 2 2
left_child=3 -2 -3 -1
right_child=1 2 -4 -5
leaf_value=-0.013738111575106165 0.022032664557136955 0.0014072461240656571 -0.0066808400261607163 -0.0050414438110034021
leaf_weight=1.5793737322092058 2.0508304238319397 1.1304427087306979 1.3568696826696394 1.1280368864536283
leaf_count=7 9 5 6 5
internal_value=0.00110604 0.00849197 -0.00270612 -0.0107795
internal_weight=7.24555 4.53814 2.48731 2.70741
internal_count=32 20 11 12
is_linear=0
shrinkage=0.01


Tree=2
num_leaves=5
num_cat=0
split_feature=1 1 7 7
split_gain=6.39883 7.09202 0.483144 0.226173
threshold=-0.2075557691482364 0.49171004456867218 0.40179546513924774 0.40179546513924774
decision_type=2 2 2 2
left_child=3 -2 -3 -1
right_child=1 2 -4 -5
leaf_value=-0.01369119957912617 0.021688200759960325 0.0014247639168493784 -0.0066514296220169704 -0.0049486526884992468
leaf_weight=1.5750272870063784 2.0640893876552582 1.1298008859157564 1.3551921993494032 1.1237747073173521
leaf_count=7 9 5 6 5
internal_value=0.00109135 0.00839053 -0.00267967 -0.010715
internal_weight=7.24788 4.54908 2.48499 2.6988
internal_count=32 20 11 12
is_linear=0
shrinkage=0.01


Tree=3
num_leaves=5
num_cat=0
split_feature=1 1 4 2
split_gain=6.28334 6.906 0.48385 0.225573
threshold=-0.2075557691482364 0.49171004456867218 1.1933072227265173 -0.95974843588569769
decision_type=2 2 2 2
left_child=3 -2 -3 -1
right_child=1 2 -4 -5
leaf_value=-0.0048967111577925783 0.021355537237318586 -0.0066321545410580832 0.0014575747284992393 -0.013625226777006094
leaf_weight=1.1213601231575014 2.0767731517553329 1.3540899008512499 1.1285907179117201 1.5688003003597257
leaf_count=5 9 6 5 7
internal_value=0.00107689 0.00829135 -0.00265344 -0.0106512
internal_weight=7.24961 4.55945 2.48268 2.69016
internal_count=32 20 11 12
is_linear=0
shrinkage=0.01


Tree=4
num_leaves=5
num_cat=0
split_feature=1 1 8 6
split_gain=6.17049 6.72721 0.484556 0.227403
threshold=-0.2075557691482364 0.49171004456867218 0.27064485313558384 0.48557589190181111
decision_type=2 2 2 2
left_child=3 -2 -3 -1
right_child=1 2 -4 -5
leaf_value=-0.013566878379968266 0.021034058266150329 -0.0066130721949178798 0.0014901574910024409 -0.004831738230124216
leaf_weight=1.5631433576345446 2.08889539539814 1.3529908359050753 1.1273906826972959 1.1183232516050337
leaf_count=7 9 6 5 5
internal_value=0.00106266 0.00819434 -0.00262741 -0.010588
internal_weight=7.25074 4.56928 2.48038 2.68147
internal_count=32 20 11 12
is_linear=0
shrinkage=0.01


Tree=5
num_leaves=5
num_cat=0
split_feature=7 1 4 4
split_gain=2.44681 2.20117 3.63208 1.26037
threshold=-0.59690419088149582 -0.88275233187677993 0.68808236934668909 1.6531913841363606
decision_type=2 2 2 2
left_child=-1 -2 -3 -4
right_child=1 2 3 -5
leaf_value=0.0087464937362494444 0.0061444865346980326 -0.014362854261735404 0.0090480196077953011 -0.0050390724015448411
leaf_weight=1.5838830471038816 1.3385991007089613 3.1367527693510056 1.1438532173633578 1.1279312372207639
leaf_count=7 6 14 5 5
internal_value=-0.00188052 -0.00461255 -0.00751964 0.00171465
internal_weight=8.33102 6.74714 5.40854 2.27178
internal_count=37 30 24 10
is_linear=0
shrinkage=0.01


Tree=6
num_leaves=5
num_cat=0
split_feature=0 7 0 6
split_gain=2.90845 3.17066 2.72654 1.35263
threshold=-0.26932394123413039 -0.37695560803701872 -0.94061349095081492 0.46922891128516647
decision_type=2 2 2 2
left_child=2 -2 -1 -4
right_child=1 -3 3 -5
leaf_value=-0.0068248084764797011 0.0030072214948693612 -0.014153299674305366 0.002748585329070726 0.017914973625393755
leaf_weight=1.363227531313896 1.5747786313295362 2.6759495735168457 1.5864543765783312 1.1241259276866911
leaf_count=6 7 12 7 5
internal_value=-0.00186041 -0.00764295 0.00397222 0.00980778
internal_weight=8.32454 4.25073 4.07381 2.71058
internal_count=37 19 18 12
is_linear=0
shrinkage=0.01


Tree=7
num_leaves=5
num_cat=0
split_feature=0 7 0 4
split_gain=2.85807 3.1299 2.67286 0.848458
threshold=-0.26932394123413039 -0.37695560803701872 -0.94061349095081492 0.13103958228687868
decision_type=2 2 2 2
left_child=2 -2 -1 -4
right_child=1 -3 3 -5
leaf_value=-0.006774259689452191 0.0029762857994602328 -0.014080739035991918 0.0016977836399898879 0.014275428049124279
leaf_weight=1.3604260385036466 1.5762673020362852 2.6634200066328049 1.1195384413003924 1.598685026168823
leaf_count=6 7 12 5 7
internal_value=-0.00184066 -0.00758625 0.00393109 0.00969404
internal_weight=8.31834 4.23969 4.07865 2.71822
internal_count=37 19 18 12
is_linear=0
shrinkage=0.01


Tree=8
num_leaves=5
num_cat=0
split_feature=0 0 8 6
split_gain=2.8082 2.6201 1.97264 1.32435
threshold=-0.26932394123413039 -0.94061349095081492 -0.41834273360586233 0.46922891128516647
decision_type=2 2 2 2
left_child=1 -1 -2 -3
right_child=2 3 -4 -5
leaf_value=-0.0067241282742518185 0 0.0026114971648949705 -0.013843654281565938 0.017563718887592165
leaf_weight=1.3576226532459257 2.0184856504201889 1.5926913321018221 2.210029125213623 1.1327573806047437
leaf_count=6 9 7 10 5
internal_value=-0.00182174 0.00388973 -0.00753024 0.00958158
internal_weight=8.31159 4.08307 4.22851 2.72545
internal_count=37 18 19 12
is_linear=0
shrinkage=0.01


Tree=9
num_leaves=5
num_cat=0
split_feature=0 7 0 8
split_gain=2.76146 3.07353 2.56888 1.29425
threshold=-0.26932394123413039 -0.37695560803701872 -0.94061349095081492 0.27064485313558384
decision_type=2 2 2 2
left_child=2 -2 -1 -4
right_child=1 -3 3 -5
leaf_value=-0.0066744073630558322 0.0029659134486610178 -0.013957760749457591 0.0025725583988385247 0.017341385271282216
leaf_weight=1.3548179715871809 1.5767247527837751 2.6413090080022812 1.5945166945457461 1.1381896883249281
leaf_count=6 7 12 7 5
internal_value=-0.00180457 -0.00747783 0.0038498 0.00947192
internal_weight=8.30556 4.21803 4.08752 2.73271
internal_count=37 19 18 12
is_linear=0
shrinkage=0.01


Tree=10
num_leaves=6
num_cat=0
split_feature=3 1 1 3 0
split_gain=3.30169 2.51313 3.41614 1.70338 0.130998
threshold=0.26348721314712409 -0.33106299659788935 -0.88275233187677993 -0.34525093612124974 0.10083420168644903
decision_type=2 2 2 2 2
left_child=1 2 -1 -3 -2
right_child=4 3 -4 -5 -6
leaf_value=0.009577377555045433 -0.013032373489565499 0.018668390384032021 -0.013066732897432059 0.0012147040261175964 -0.0048713798756146185
leaf_weight=1.129020228981972 1.117363974452019 1.3763259351253512 1.3161916732788084 1.1355034261941908 1.1180414259433744
leaf_count=5 5 6 6 5 5
internal_value=0 0.00461281 -0.00225294 0.0115097 -0.0097622
internal_weight=7.19245 4.95704 2.44521 2.51183 2.23541
internal_count=32 22 11 11 10
is_linear=0
shrinkage=0.01


end of trees

feature_importances:
Column_1=13
Column_0=11
Column_7=6
Column_4=4
Column_6=4
Column_8=3
Column_2=2
Column_3=2

parameters:
[boosting: gbdt]
[objective: binary]
[metric: auc]
[tree_learner: serial]
[device_type: cpu]
[data_sample_strategy: bagging]
[data: ]
[valid: ]
[num_iterations: 1000]
[learning_rate: 0.01]
[num_leaves: 15]
[num_threads: 0]
[seed: 42]
[deterministic: 1]
[force_col_wise: 1]
[force_row_wise: 0]
[histogram_pool_size: -1]
[max_depth: -1]
[min_data_in_leaf: 5]
[min_sum_hessian_in_leaf: 0.001]
[bagging_fraction: 0.7]
[pos_bagging_fraction: 1]
[neg_bagging_fraction: 1]
[bagging_freq: 5]
[bagging_seed: 400]
[bagging_by_query: 0]
[feature_fraction: 0.8]
[feature_fraction_bynode: 1]
[feature_fraction_seed: 30056]
[extra_trees: 0]
[extra_seed: 12879]
[early_stopping_round: 0]
[early_stopping_min_delta: 0]
[first_metric_only: 0]
[max_delta_step: 0]
[lambda_l1: 0.1]
[lambda_l2: 0.1]
[linear_lambda: 0]
[min_gain_to_split: 0.01]
[drop_rate: 0.1]
[max_drop: 50]
[skip_drop: 0.5]
[xgboost_dart_mode: 0]
[uniform_drop: 0]
[drop_seed: 17869]
[top_rate: 0.2]
[other_rate: 0.1]
[min_data_per_group: 100]
[max_cat_threshold: 32]
[cat_l2: 10]
[cat_smooth: 10]
[max_cat_to_onehot: 4]
[top_k: 20]
[monotone_constraints: ]
[monotone_constraints_method: basic]
[monotone_penalty: 0]
[feature_contri: ]
[forcedsplits_filename: ]
[refit_decay_rate: 0.9]
[cegb_tradeoff: 1]
[cegb_penalty_split: 0]
[cegb_penalty_feature_lazy: ]
[cegb_penalty_feature_coupled: ]
[path_smooth: 0]
[interaction_constraints: ]
[verbosity: -1]
[saved_feature_importance_type: 0]
[use_quantized_grad: 0]
[num_grad_quant_bins: 4]
[quant_train_renew_leaf: 0]
[stochastic_rounding: 1]
[linear_tree: 0]
[max_bin: 255]
[max_bin_by_feature: ]
[min_data_in_bin: 3]
[bin_construct_sample_cnt: 200000]
[data_random_seed: 175]
[is_enable_sparse: 1]
[enable_bundle: 1]
[use_missing: 1]
[zero_as_missing: 0]
[feature_pre_filter: 1]
[pre_partition: 0]
[two_round: 0]
[header: 0]
[label_column: ]
[weight_column: ]
[group_column: ]
[ignore_column: ]
[categorical_feature: ]
[forcedbins_filename: ]
[precise_float_parser: 0]
[parser_config_file: ]
[objective_seed: 16083]
[num_class: 1]
[is_unbalance: 0]
[scale_pos_weight: 1]
[sigmoid: 1]
[boost_from_average: 1]
[reg_sqrt: 0]
[alpha: 0.9]
[fair_c: 1]
[poisson_max_delta_step: 0.7]
[tweedie_variance_power: 1.5]
[lambdarank_truncation_level: 30]
[lambdarank_norm: 1]
[label_gain: ]
[lambdarank_position_bias_regularization: 0]
[eval_at: ]
[multi_error_top_k: 1]
[auc_mu_weights: ]
[num_machines: 1]
[local_listen_port: 12400]
[time_out: 120]
[machine_list_filename: ]
[machines: ]
[gpu_platform_id: -1]
[gpu_device_id: -1]
[gpu_use_dp: 0]
[num_gpu: 1]

end of parameters

pandas_categorical:null
