tree
version=v4
num_class=1
num_tree_per_iteration=1
label_index=0
max_feature_idx=8
objective=binary sigmoid:1
feature_names=Column_0 Column_1 Column_2 Column_3 Column_4 Column_5 Column_6 Column_7 Column_8
feature_infos=[-0.88588770630523472:3.1088242388506653] [-1.183407855719641:3.2981155884742011] [-1.7962854922153955:2.4682655999244978] [-1.0497101164015681:3.8632024976493726] [-1.5240033861306257:2.161557566509392] [-1.7464317542169139:2.4488019763447997] [-1.5274437083327048:1.0689933401986158] [-2.0819011250665094:2.4958611424821724] [-1.4346326694769052:3.8170232233828183]
tree_sizes=644 661 666 664 773 564 668 663 766 668 563 668 672 564 671 663 666 661 662 664 772 666 771 665 780 762 862 762 766 765 772 668 771

Tree=0
num_leaves=5
num_cat=0
split_feature=1 5 2 1
split_gain=3.69304 5.36152 1.70307 4.13603
threshold=-0.2204573793717555 0.18760948395488528 -0.50141057509812537 -0.91679264811563221
decision_type=2 2 2 2
left_child=2 -2 3 -1
right_child=1 -3 -4 -5
leaf_value=-0.76847768420565377 -0.7569887137697352 -0.73018111608592529 -0.76847768420565377 -0.7409041551594493
leaf_weight=1.0880000144243243 1.7408000230789187 1.3056000173091886 1.5232000201940534 1.0880000144243243
leaf_count=5 8 6 7 5
internal_value=-0.753653 -0.7455 -0.760368 -0.754691
internal_weight=6.7456 3.0464 3.6992 2.176
internal_count=31 14 17 10
is_linear=0
shrinkage=1


Tree=1
num_leaves=5
num_cat=0
split_feature=1 1 2 1
split_gain=3.61733 2.91606 1.68269 4.058
threshold=-0.2204573793717555 0.8532742519829436 -0.50141057509812537 -0.91679264811563221
decision_type=2 2 2 2
left_child=2 -2 3 -1
right_child=1 -3 -4 -5
leaf_value=-0.01463718427844321 0.017920975718340424 -0.001617806425957956 -0.014637184278443219 0.012680257518628613
leaf_weight=1.0822043567895892 1.5297598540782931 1.5255967080593107 1.5150860995054243 1.0930122435092928
leaf_count=5 7 7 7 5
internal_value=0.000117013 0.0081649 -0.00654617 -0.000910598
internal_weight=6.74566 3.05536 3.6903 2.17522
internal_count=31 14 17 10
is_linear=0
shrinkage=0.01


Tree=2
num_leaves=5
num_cat=0
split_feature=4 5 6 5
split_gain=5.99631 2.79929 2.40282 0.572513
threshold=0.72562472781847609 -0.28280408420188152 0.56766872671611535 0.18760948395488528
decision_type=2 2 2 2
left_child=1 2 -1 -3
right_child=-2 3 -4 -5
leaf_value=0.011498390742431244 0.021463435344986365 -0.01466428072271083 -0.0069963574056710852 -0.0053951638801503282
leaf_weight=1.5252494812011721 1.1009891927242277 1.7349705845117571 1.3021989017724989 1.0818862318992613
leaf_count=7 5 8 6 5
internal_value=0.000115522 -0.00404864 0.00298052 -0.0111042
internal_weight=6.74529 5.64431 2.82745 2.81686
internal_count=31 26 13 13
is_linear=0
shrinkage=0.01


Tree=3
num_leaves=5
num_cat=0
split_feature=4 5 6 5
split_gain=5.8419 2.7559 2.34875 0.567608
threshold=0.72562472781847609 -0.28280408420188152 0.56766872671611535 0.18760948395488528
decision_type=2 2 2 2
left_child=1 2 -1 -3
right_child=-2 3 -4 -5
leaf_value=0.011336717463319353 0.021093295536483914 -0.014596390534694447 -0.0069441648584238217 -0.0053518688670397456
leaf_weight=1.5314993113279345 1.1090647131204603 1.7256565093994143 1.2988831698894499 1.0797428786754606
leaf_count=7 5 8 6 5
internal_value=0.000114064 -0.00401444 0.00294749 -0.0110384
internal_weight=6.74485 5.63578 2.83038 2.8054
internal_count=31 26 13 13
is_linear=0
shrinkage=0.01


Tree=4
num_leaves=6
num_cat=0
split_feature=4 0 3 6 1
split_gain=5.69313 2.54301 2.01159 3.94572 4.4054e-05
threshold=0.72562472781847609 0.53421678749873569 -0.57543612185282544 0.56766872671611535 -0.39242011716977748
decision_type=2 2 2 2 2
left_child=1 2 3 -1 -4
right_child=-2 -3 4 -5 -6
leaf_value=0.012414611290113302 0.020736312729319858 0.0082447042181033811 -0.014495793120333736 -0.014536890685286288 -0.014586379044455731
leaf_weight=1.1000177562236784 1.1168363839387891 1.3064370006322858 1.0697529762983324 1.0731181502342222 1.0777315050363543
leaf_count=5 5 6 5 5 5
internal_value=0.000112639 -0.00398067 -0.00767728 -0.000894334 -0.0145413
internal_weight=6.74389 5.62706 4.32062 2.17314 2.14748
internal_count=31 26 20 10 10
is_linear=0
shrinkage=0.01


Tree=5
num_leaves=4
num_cat=0
split_feature=5 8 3
split_gain=4.9936 4.05562 6.21691
threshold=-0.93389922740067954 -0.42268906240166115 -0.40353824964625012
decision_type=2 2 2
left_child=-1 -2 -3
right_child=1 2 -4
leaf_value=-0.014605393451760698 0.015579062444813989 0.010514630998160716 -0.014664014980962712
leaf_weight=1.9417656213045118 1.9729807078838346 1.9733311533927915 1.9493763297796252
leaf_count=9 9 9 9
internal_value=-0.000696642 0.00388425 -0.00199781
internal_weight=7.83745 5.89569 3.92271
internal_count=36 27 18
is_linear=0
shrinkage=0.01


Tree=6
num_leaves=5
num_cat=0
split_feature=5 4 7 2
split_gain=4.91531 2.41336 6.06246 4.59562
threshold=-0.93389922740067954 -0.13593497539607369 0.043415782395120998 0.33911841324891751
decision_type=2 2 2 2
left_child=-1 -2 3 -3
right_child=1 2 -4 -5
leaf_value=-0.014538659084825439 0.013671572857769683 -0.0054219120755868398 -0.014627486245699395 0.02228961574466589
leaf_weight=1.9312246441841123 1.7546896785497663 1.0827285647392275 1.7277098447084425 1.3379556238651273
leaf_count=9 8 5 8 6
internal_value=-0.000690303 0.00384026 -0.000318194 0.00989475
internal_weight=7.83431 5.90308 4.14839 2.42068
internal_count=36 27 19 11
is_linear=0
shrinkage=0.01


Tree=7
num_leaves=5
num_cat=0
split_feature=5 3 7 5
split_gain=4.83864 3.32025 4.80663 1.69718
threshold=-0.93389922740067954 -0.28828081055780214 -0.24400932068966238 0.18760948395488528
decision_type=2 2 2 2
left_child=-1 3 -3 -2
right_child=1 2 -4 -5
leaf_value=-0.014473190275318539 0.0053908302309036028 0.01221982170421476 -0.0145329353708621 0.020822911145975249
leaf_weight=1.9206140488386152 1.9766239672899248 1.1041377931833269 1.7143243402242658 1.1144668161869047
leaf_count=9 9 5 8 5
internal_value=-0.000684165 0.00379729 -0.00405249 0.0109547
internal_weight=7.83017 5.90955 2.81846 3.09109
internal_count=36 27 13 14
is_linear=0
shrinkage=0.01


Tree=8
num_leaves=6
num_cat=0
split_feature=1 1 8 6 8
split_gain=3.73084 7.61489 2.0985 1.68042 2.00503
threshold=0.11160394764682745 0.8532742519829436 0.10445057896026953 0.56766872671611535 -0.62411011123045579
decision_type=2 2 2 2 2
left_child=2 -2 3 -1 -5
right_child=1 -3 -4 4 -6
leaf_value=0.0079918663335258565 0.028451697873702064 -0.0069659750470579098 -0.014483554157696414 0.003953435204018356 -0.014536882997034562
leaf_weight=1.3147855252027514 1.1395457535982134 1.2990883141756056 1.708042725920677 1.0774567574262621 1.2868977636098859
leaf_count=6 5 6 8 5 6
internal_value=-0.000678034 0.0095843 -0.00532352 -0.00107097 -0.00611069
internal_weight=7.82582 2.43863 5.38718 3.67914 2.36435
internal_count=36 11 25 17 11
is_linear=0
shrinkage=0.01


Tree=9
num_leaves=5
num_cat=0
split_feature=5 8 4 7
split_gain=4.71591 3.68333 5.77988 0.518602
threshold=-0.93389922740067954 -0.42268906240166115 -0.13593497539607369 0.14335284598245132
decision_type=2 2 2 2
left_child=-1 -2 -3 -4
right_child=1 2 3 -5
leaf_value=-0.014366194604432423 0.014732188739449479 0.014966073753498475 -0.0053972757518178528 -0.01449469994816307
leaf_weight=1.9028788954019544 2.0098865479230881 1.3340276777744295 1.0786659270524981 1.4951777309179304
leaf_count=9 9 6 5 7
internal_value=-0.000672062 0.00373134 -0.00192659 -0.0106821
internal_weight=7.82064 5.91776 3.90787 2.57384
internal_count=36 27 18 12
is_linear=0
shrinkage=0.01


Tree=10
num_leaves=4
num_cat=0
split_feature=4 0 6
split_gain=5.13762 3.41011 0.573983
threshold=0.72562472781847609 0.53421678749873569 -1.2293675450992951
decision_type=2 2 2
left_child=1 2 -1
right_child=-2 -3 -4
leaf_value=-0.0054759174531122745 0.016012896416398269 0.0056353061709174066 -0.014567616454475536
leaf_weight=1.0836410224437711 1.591317757964134 1.961721748113632 1.9331882148981097
leaf_count=5 7 9 9
internal_value=0.000371489 -0.00462805 -0.0113019
internal_weight=6.56987 4.97855 3.01683
internal_count=30 23 14
is_linear=0
shrinkage=0.01


Tree=11
num_leaves=5
num_cat=0
split_feature=2 8 0 7
split_gain=5.13054 5.91255 1.76777 0.430048
threshold=0.13459184081117642 -0.42268906240166115 1.0000000180025095e-35 0.14335284598245132
decision_type=2 2 2 2
left_child=2 -2 -1 -4
right_child=1 -3 3 -5
leaf_value=-0.014547621242673959 0.028245722697397259 -0.0018099802822342428 -0.0054423398892090094 0.0034451382063654134
leaf_weight=1.716039374470711 1.1427488476037981 1.5319555103778837 1.0834375470876696 1.0944274812936781
leaf_count=8 5 7 5 5
internal_value=0.00036761 0.0110311 -0.0069571 -0.000976177
internal_weight=6.56861 2.6747 3.8939 2.17787
internal_count=30 12 18 10
is_linear=0
shrinkage=0.01


Tree=12
num_leaves=5
num_cat=0
split_feature=2 8 0 7
split_gain=5.02336 5.7329 1.74746 0.421958
threshold=0.13459184081117642 -0.42268906240166115 1.0000000180025095e-35 0.14335284598245132
decision_type=2 2 2 2
left_child=2 -2 -1 -4
right_child=1 -3 3 -5
leaf_value=-0.014482045940229232 0.027738745084866193 -0.0017930140173289661 -0.0053986774307641051 0.0034065680270375619
leaf_weight=1.7066188156604769 1.1519511938095095 1.5309916734695432 1.0812888294458392 1.0957440286874769
leaf_count=8 5 7 5 5
internal_value=0.000363728 0.0108868 -0.00690591 -0.000966822
internal_weight=6.56659 2.68294 3.88365 2.17703
internal_count=30 12 18 10
is_linear=0
shrinkage=0.01


Tree=13
num_leaves=4
num_cat=0
split_feature=4 0 7
split_gain=4.85889 3.25066 0.571561
threshold=0.72562472781847609 0.53421678749873569 0.14335284598245132
decision_type=2 2 2
left_child=1 2 -1
right_child=-2 -3 -4
leaf_value=-0.014415263235650384 0.015465963653132834 0.0054148959807683332 -0.0052978462181118438
leaf_weight=1.9073309004306795 1.6077570021152494 1.9737687855958936 1.0751543194055555
leaf_count=9 7 9 5
internal_value=0.00035993 -0.00454031 -0.0111285
internal_weight=6.56401 4.95625 2.98249
internal_count=30 23 14
is_linear=0
shrinkage=0.01


Tree=14
num_leaves=5
num_cat=0
split_feature=2 8 0 1
split_gain=4.83362 5.5285 1.71464 0.416917
threshold=0.13459184081117642 -0.42268906240166115 1.0000000180025095e-35 -0.51599835148040352
decision_type=2 2 2 2
left_child=2 -2 -1 -4
right_child=1 -3 3 -5
leaf_value=-0.014370182390678537 0.027061487942472068 -0.001844940758357638 -0.0053535395344239383 0.003403317812011088
leaf_weight=1.6898380070924761 1.1639710962772372 1.5330842435359953 1.0793143510818484 1.0955740660428999
leaf_count=8 5 7 5 5
internal_value=0.000356229 0.0106302 -0.00681364 -0.000942377
internal_weight=6.56178 2.69706 3.86473 2.17489
internal_count=30 12 18 10
is_linear=0
shrinkage=0.01


Tree=15
num_leaves=5
num_cat=0
split_feature=7 3 8 8
split_gain=4.29504 3.44683 2.327 0.528894
threshold=-0.62696000407948393 -0.28828081055780214 0.10445057896026953 0.21810372421581564
decision_type=2 2 2 2
left_child=-1 2 -2 -3
right_child=1 3 -4 -5
leaf_value=0.014721358852390022 0.014784283408573658 -0.014542775031900719 -0.0050542262536251437 -0.0053424446515631619
leaf_weight=2.0052145421504974 1.3355663418769839 1.4874543994665148 1.0609450191259382 1.0774166882038114
leaf_count=9 6 7 5 5
internal_value=0.00237058 -0.00262117 0.0060017 -0.010678
internal_weight=6.9666 4.96138 2.39651 2.56487
internal_count=32 23 11 12
is_linear=0
shrinkage=0.01


Tree=16
num_leaves=5
num_cat=0
split_feature=7 2 4 4
split_gain=4.19033 2.20486 1.94706 2.80557
threshold=-0.62696000407948393 -0.66752600603871459 -0.048183524142739929 0.72562472781847609
decision_type=2 2 2 2
left_child=-1 -2 -3 -4
right_child=1 2 3 -5
leaf_value=0.014506128690344452 -0.014142979085943669 0.012433573651418757 -0.01424669712635882 0.0064803072446818011
leaf_weight=2.0145690739154816 1.2402714490890501 1.0978450179100039 1.2517330199480059 1.3654152154922483
leaf_count=9 6 5 6 6
internal_value=0.00234552 -0.0025984 0.00125583 -0.00343303
internal_weight=6.96983 4.95526 3.71499 2.61715
internal_count=32 23 17 12
is_linear=0
shrinkage=0.01


Tree=17
num_leaves=5
num_cat=0
split_feature=7 2 4 4
split_gain=4.08888 2.17496 1.90179 2.76273
threshold=-0.62696000407948393 -0.66752600603871459 -0.048183524142739929 0.72562472781847609
decision_type=2 2 2 2
left_child=-1 -2 -3 -4
right_child=1 2 3 -5
leaf_value=0.014296374428979968 -0.014084895183877412 0.012256794733298453 -0.01418678191992799 0.0064033246075083415
leaf_weight=2.0236391574144363 1.2329688519239423 1.102518677711487 1.2444856315851214 1.367999345064163
leaf_count=9 6 5 6 6
internal_value=0.00232117 -0.00257649 0.00124303 -0.003405
internal_weight=6.97161 4.94797 3.715 2.61248
internal_count=32 23 17 12
is_linear=0
shrinkage=0.01


Tree=18
num_leaves=5
num_cat=0
split_feature=7 3 4 1
split_gain=3.99052 3.36566 2.15294 0.512368
threshold=-0.62696000407948393 -0.28828081055780214 -0.35930230585910511 0.8532742519829436
decision_type=2 2 2 2
left_child=-1 2 -2 -3
right_child=1 3 -4 -5
leaf_value=0.014091871772025673 -0.0048170192764225 -0.014414281427681934 0.014288759507766128 -0.005328777508884378
leaf_weight=2.032431498169899 1.0470487773418429 1.466764569282532 1.3505626171827314 1.0760736316442487
leaf_count=9 5 7 6 5
internal_value=0.00229725 -0.00255489 0.00594517 -0.0105695
internal_weight=6.97288 4.94045 2.39761 2.54284
internal_count=32 23 11 12
is_linear=0
shrinkage=0.01


Tree=19
num_leaves=5
num_cat=0
split_feature=7 3 1 6
split_gain=3.89508 3.30843 2.12872 0.514778
threshold=-0.62696000407948393 -0.28828081055780214 -0.51599835148040352 0.56766872671611535
decision_type=2 2 2 2
left_child=-1 2 -2 -3
right_child=1 3 -4 -5
leaf_value=0.013892411924228059 -0.0048238548524620192 -0.014339845879478747 0.014160349539199986 -0.0052033568123580351
leaf_weight=2.040952667593956 1.0479713231325152 1.47008952498436 1.3535302132368086 1.0623039901256559
leaf_count=9 5 7 6 5
internal_value=0.00227339 -0.00253293 0.00587599 -0.0105072
internal_weight=6.97485 4.9339 2.4015 2.53239
internal_count=32 23 11 12
is_linear=0
shrinkage=0.01


Tree=20
num_leaves=6
num_cat=0
split_feature=4 8 4 6 5
split_gain=4.49353 2.02903 3.25037 2.11471 0.000863315
threshold=1.0447209141942353 -0.62411011123045579 -0.13593497539607369 0.56766872671611535 0.15125934459731707
decision_type=2 2 2 2 2
left_child=1 -1 3 -3 -4
right_child=-2 2 4 -5 -6
leaf_value=0.0075340577025323156 0.017885605001715283 0.012063664890282105 -0.014511397551720829 -0.0067791846340192813 -0.014141159794894914
leaf_weight=1.3268878459930418 1.1739494353532789 1.1084086298942564 1.282760918140412 1.2873703986406324 1.2372903078794477
leaf_count=6 5 5 6 6 6
internal_value=-6.38534e-05 -0.00343927 -0.0064012 0.00193847 -0.0143296
internal_weight=7.41667 6.24272 4.91583 2.39578 2.52005
internal_count=34 29 23 11 12
is_linear=0
shrinkage=0.01


Tree=21
num_leaves=5
num_cat=0
split_feature=5 0 7 5
split_gain=2.52126 1.55834 1.9964 1.374
threshold=-0.82698705281959606 -0.82541928658237362 0.14335284598245132 0.18760948395488528
decision_type=2 2 2 2
left_child=-1 2 -2 -3
right_child=1 3 -4 -5
leaf_value=-0.014378338432569301 0.0035119690550675041 0.00067116273668210399 -0.014295252286855228 0.012822016504266922
leaf_weight=1.0552235990762708 1.5789400190114977 1.9509633630514147 1.0471074134111402 1.7794085890054701
leaf_count=5 7 9 5 8
internal_value=-6.35241e-05 0.00231287 -0.00358846 0.00646719
internal_weight=7.41164 6.35642 2.62605 3.73037
internal_count=34 29 12 17
is_linear=0
shrinkage=0.01


Tree=22
num_leaves=6
num_cat=0
split_feature=1 2 8 3 6
split_gain=1.52921 3.68081 2.12931 1.08491 2.17262
threshold=0.39360275217079038 1.5918115775076105 0.21810372421581564 -0.67722687837199269 0.75960282432839665
decision_type=2 2 2 2 2
left_child=2 -2 3 -1 -5
right_child=1 -3 -4 4 -6
leaf_value=0.0080076889547903256 0.019416605602185926 -0.0062071838293737344 -0.014337568406427413 -0.014305893867005787 0.0043666985685459694
leaf_weight=1.3115347027778628 1.1413990408182146 1.1017239391803739 1.2638793140649793 1.0434362739324572 1.5469203293323515
leaf_count=6 5 5 6 5 7
internal_value=-6.30939e-05 0.00683132 -0.00305684 0.000597148 -0.00315491
internal_weight=7.40889 2.24312 5.16577 3.90189 2.59036
internal_count=34 10 24 18 12
is_linear=0
shrinkage=0.01


Tree=23
num_leaves=5
num_cat=0
split_feature=5 8 5 2
split_gain=2.46698 1.99205 2.50721 2.11393
threshold=-0.82698705281959606 -0.42268906240166115 -0.28280408420188152 1.0221156122717767
decision_type=2 2 2 2
left_child=-1 -2 -3 -4
right_child=1 2 3 -5
leaf_value=-0.01428853463918762 0.010999592594645835 0.0080549150905157036 -0.014298384029053922 0.0036366963881579147
leaf_weight=1.0467244386672971 1.8551957905292509 1.7479864954948419 1.673611223697663 1.0820865482091901
leaf_count=5 8 8 8 5
internal_value=-6.27354e-05 0.00227895 -0.00131333 -0.00725577
internal_weight=7.4056 6.35888 4.50368 2.7557
internal_count=34 29 21 13
is_linear=0
shrinkage=0.01


Tree=24
num_leaves=6
num_cat=0
split_feature=4 8 4 8 2
split_gain=4.24018 1.92054 3.17589 0.0819693 0.000589517
threshold=1.0447209141942353 -0.62411011123045579 -0.13593497539607369 -0.17481972943266885 1.0000000180025095e-35
decision_type=2 2 2 2 2
left_child=1 -1 3 -3 -4
right_child=-2 2 4 -5 -6
leaf_value=0.0072569547557589931 0.017263589264170553 0.0039967354543496746 -0.014370087724784998 0.00027590043835507754 -0.014058612890536518
leaf_weight=1.3354882150888441 1.1861412823200224 1.0745848715305331 1.0565539449453361 1.3185513764619821 1.4301592409610746
leaf_count=6 5 5 5 6 7
internal_value=-6.23624e-05 -0.00336886 -0.00627688 0.00194666 -0.014191
internal_weight=7.40148 6.21534 4.87985 2.39314 2.48671
internal_count=34 29 23 11 12
is_linear=0
shrinkage=0.01


Tree=25
num_leaves=6
num_cat=0
split_feature=5 0 8 5 5
split_gain=3.71974 4.25266 4.0893 4.0655 1.72455
threshold=-0.93389922740067954 -0.82541928658237362 -0.17481972943266885 0.15125934459731707 -0.36726470212093748
decision_type=2 2 2 2 2
left_child=-1 2 -2 4 -3
right_child=1 3 -4 -5 -6
leaf_value=-0.013987554893630929 0.010731600515812807 0.011974803258520229 -0.01445514877554366 0.022704847657110651 -0.0057118153725179968
leaf_weight=1.0167761445045469 1.1390467286109927 1.1109022200107572 1.4850616753101347 2.0723014920949936 1.094415992498398
leaf_count=5 5 5 7 9 5
internal_value=0.00386914 0.00649983 -0.00352234 0.0126479 0.0031976
internal_weight=7.9185 6.90173 2.62411 4.27762 2.20532
internal_count=36 31 12 19 10
is_linear=0
shrinkage=0.01


Tree=26
num_leaves=7
num_cat=0
split_feature=5 6 1 8 6 7
split_gain=3.65415 2.14359 3.15286 2.0757 1.82108 1.61296
threshold=-0.93389922740067954 -1.3847890695240366 0.11160394764682745 -0.17481972943266885 0.54667673556387786 -1.1902724847415154
decision_type=2 2 2 2 2 2
left_child=-1 -2 3 5 -4 -3
right_child=1 2 4 -5 -6 -7
leaf_value=-0.013932264919840077 0.018922630931952181 -0.0057159671331552643 0.0028486230531837059 -0.014211574203505956 0.019999118903643035 0.011331917057056757
leaf_weight=1.0106339007616041 1.1451299935579298 1.0960835814476011 1.1147294491529467 1.038545295596123 1.3925396502017973 1.1242219954729082
leaf_count=5 5 5 5 5 6 5
internal_value=0.00382845 0.0064256 0.00394374 -0.00254229 0.012374 0.002916
internal_weight=7.92188 6.91125 5.76612 3.25885 2.50727 2.22031
internal_count=36 31 26 15 11 10
is_linear=0
shrinkage=0.01


Tree=27
num_leaves=6
num_cat=0
split_feature=5 6 8 4 4
split_gain=3.58996 2.08478 1.57505 2.1419 4.12428
threshold=-0.93389922740067954 -1.3847890695240366 -0.42268906240166115 -0.35930230585910511 1.0447209141942353
decision_type=2 2 2 2 2
left_child=-1 -2 -3 -4 -5
right_child=1 2 3 4 -6
leaf_value=-0.013877954230039895 0.018643088790816581 0.011553904361278827 0.012131010631695709 -0.014296565160152951 0.010274180216715327
leaf_weight=1.0044739246368406 1.1506493985652921 1.8344992548227304 1.106417655944824 1.6756540536880504 1.1533493995666502
leaf_count=5 5 8 5 8 5
internal_value=0.00378835 0.00635249 0.00390148 0.000334294 -0.00427938
internal_weight=7.92504 6.92057 5.76992 3.93542 2.829
internal_count=36 31 26 18 13
is_linear=0
shrinkage=0.01


Tree=28
num_leaves=6
num_cat=0
split_feature=5 0 5 6 4
split_gain=3.5271 4.08142 3.89037 3.04013 1.72723
threshold=-0.93389922740067954 -0.82541928658237362 0.15125934459731707 -1.2293675450992951 -0.35930230585910511
decision_type=2 2 2 2 2
left_child=-1 3 4 -2 -3
right_child=1 2 -4 -5 -6
leaf_value=-0.013824601077799613 0.0069803597186404677 0.011798294408913513 0.022045548469482298 -0.014559591244394056 -0.0058633889363700455
leaf_weight=0.99829795956611622 1.3395603001117709 1.1154541969299316 2.0925734788179398 1.2826481163501737 1.0995143204927444
leaf_count=5 6 5 9 6 5
internal_value=0.00374874 0.00628035 0.0122681 -0.00355587 0.003031
internal_weight=7.92805 6.92975 4.30754 2.62221 2.21497
internal_count=36 31 19 12 10
is_linear=0
shrinkage=0.01


Tree=29
num_leaves=6
num_cat=0
split_feature=5 6 8 4 4
split_gain=3.46558 2.02086 1.50114 2.08042 4.0149
threshold=-0.93389922740067954 -1.3847890695240366 -0.42268906240166115 -0.35930230585910511 1.0447209141942353
decision_type=2 2 2 2 2
left_child=-1 -2 -3 -4 -5
right_child=1 2 3 4 -6
leaf_value=-0.013772182164762774 0.018269404507293443 0.011233956569257993 0.011883908019701701 -0.01421688471946489 0.010028903292896716
leaf_weight=0.99210770428180683 1.1576202064752577 1.8460833728313439 1.1127220541238783 1.6633915305137645 1.1587348878383634
leaf_count=5 5 8 5 8 5
internal_value=0.00370971 0.00620936 0.00379435 0.000303971 -0.00426182
internal_weight=7.93066 6.93855 5.78093 3.93485 2.82213
internal_count=36 31 26 18 13
is_linear=0
shrinkage=0.01


Tree=30
num_leaves=6
num_cat=0
split_feature=1 3 2 2 7
split_gain=2.63008 1.82352 1.67777 2.73072 1.35757
threshold=-0.30343162572712745 -0.49550206865752472 -0.50141057509812537 -1.030337127433848 1.0000000180025095e-35
decision_type=2 2 2 2 2
left_child=2 -2 3 -1 -3
right_child=1 4 -4 -5 -6
leaf_value=-0.013566894474192237 0.017661958646812841 0.0097978649472429489 -0.014087793727393749 0.0073000525628849032 -0.005797066383599626
leaf_weight=0.96723307669162784 1.1767774224281313 1.1583492606878283 1.2298056781291959 1.7835336774587633 1.0774023830890653
leaf_count=5 5 5 6 8 5
internal_value=0.00114432 0.0075861 -0.00437819 -3.72476e-05 0.00228271
internal_weight=7.3931 3.41253 3.98057 2.75077 2.23575
internal_count=34 15 19 13 10
is_linear=0
shrinkage=0.01


Tree=31
num_leaves=5
num_cat=0
split_feature=4 0 8 5
split_gain=3.10837 2.91844 1.92795 0.949072
threshold=0.72562472781847609 0.53421678749873569 0.10445057896026953 1.0000000180025095e-35
decision_type=2 2 2 2
left_child=1 2 3 -1
right_child=-2 -3 -4 -5
leaf_value=0.0047508227347918212 0.015761889126573041 0.010023109770190093 -0.013866427059651971 -0.0069091376745972592
leaf_weight=1.5230391174554827 1.2139059305191038 1.5716915875673292 1.7916774302721021 1.288794621825218
leaf_count=7 5 7 9 6
internal_value=0.00113326 -0.0017424 -0.00575929 -0.000593481
internal_weight=7.38911 6.1752 4.60351 2.81183
internal_count=34 29 22 13
is_linear=0
shrinkage=0.01


Tree=32
num_leaves=6
num_cat=0
split_feature=4 0 6 7 0
split_gain=3.03919 2.8594 3.36923 0.00165511 0.000895831
threshold=0.72562472781847609 0.53421678749873569 0.54667673556387786 -0.24400932068966238 -0.7872611044533967
decision_type=2 2 2 2 2
left_child=1 2 4 -4 -1
right_child=-2 -3 3 -5 -6
leaf_value=0.0030525283279044702 0.015564529523681005 0.0098929318959380882 -0.014198080638736959 -0.013668059000673452 0.003457031860645473
leaf_weight=1.1019797772169115 1.216989681124687 1.5764251947402952 1.0366259366273878 1.3649378567934038 1.0880952626466749
leaf_count=5 5 7 5 7 5
internal_value=0.00112235 -0.00172717 -0.00571664 -0.0138968 0.0032535
internal_weight=7.38505 6.16806 4.59164 2.40156 2.19008
internal_count=34 29 22 12 10
is_linear=0
shrinkage=0.01


end of trees

feature_importances:
Column_5=24
Column_4=23
Column_8=19
Column_7=15
Column_1=14
Column_6=14
Column_2=13
Column_0=12
Column_3=8

parameters:
[boosting: gbdt]
[objective: binary]
[metric: auc]
[tree_learner: serial]
[device_type: cpu]
[data_sample_strategy: bagging]
[data: ]
[valid: ]
[num_iterations: 1000]
[learning_rate: 0.01]
[num_leaves: 15]
[num_threads: 0]
[seed: 42]
[deterministic: 1]
[force_col_wise: 1]
[force_row_wise: 0]
[histogram_pool_size: -1]
[max_depth: -1]
[min_data_in_leaf: 5]
[min_sum_hessian_in_leaf: 0.001]
[bagging_fraction: 0.7]
[pos_bagging_fraction: 1]
[neg_bagging_fraction: 1]
[bagging_freq: 5]
[bagging_seed: 400]
[bagging_by_query: 0]
[feature_fraction: 0.7]
[feature_fraction_bynode: 1]
[feature_fraction_seed: 30056]
[extra_trees: 0]
[extra_seed: 12879]
[early_stopping_round: 0]
[early_stopping_min_delta: 0]
[first_metric_only: 0]
[max_delta_step: 0]
[lambda_l1: 0]
[lambda_l2: 0]
[linear_lambda: 0]
[min_gain_to_split: 0]
[drop_rate: 0.1]
[max_drop: 50]
[skip_drop: 0.5]
[xgboost_dart_mode: 0]
[uniform_drop: 0]
[drop_seed: 17869]
[top_rate: 0.2]
[other_rate: 0.1]
[min_data_per_group: 100]
[max_cat_threshold: 32]
[cat_l2: 10]
[cat_smooth: 10]
[max_cat_to_onehot: 4]
[top_k: 20]
[monotone_constraints: ]
[monotone_constraints_method: basic]
[monotone_penalty: 0]
[feature_contri: ]
[forcedsplits_filename: ]
[refit_decay_rate: 0.9]
[cegb_tradeoff: 1]
[cegb_penalty_split: 0]
[cegb_penalty_feature_lazy: ]
[cegb_penalty_feature_coupled: ]
[path_smooth: 0]
[interaction_constraints: ]
[verbosity: -1]
[saved_feature_importance_type: 0]
[use_quantized_grad: 0]
[num_grad_quant_bins: 4]
[quant_train_renew_leaf: 0]
[stochastic_rounding: 1]
[linear_tree: 0]
[max_bin: 255]
[max_bin_by_feature: ]
[min_data_in_bin: 3]
[bin_construct_sample_cnt: 200000]
[data_random_seed: 175]
[is_enable_sparse: 1]
[enable_bundle: 1]
[use_missing: 1]
[zero_as_missing: 0]
[feature_pre_filter: 1]
[pre_partition: 0]
[two_round: 0]
[header: 0]
[label_column: ]
[weight_column: ]
[group_column: ]
[ignore_column: ]
[categorical_feature: ]
[forcedbins_filename: ]
[precise_float_parser: 0]
[parser_config_file: ]
[objective_seed: 16083]
[num_class: 1]
[is_unbalance: 0]
[scale_pos_weight: 1]
[sigmoid: 1]
[boost_from_average: 1]
[reg_sqrt: 0]
[alpha: 0.9]
[fair_c: 1]
[poisson_max_delta_step: 0.7]
[tweedie_variance_power: 1.5]
[lambdarank_truncation_level: 30]
[lambdarank_norm: 1]
[label_gain: ]
[lambdarank_position_bias_regularization: 0]
[eval_at: ]
[multi_error_top_k: 1]
[auc_mu_weights: ]
[num_machines: 1]
[local_listen_port: 12400]
[time_out: 120]
[machine_list_filename: ]
[machines: ]
[gpu_platform_id: -1]
[gpu_device_id: -1]
[gpu_use_dp: 0]
[num_gpu: 1]

end of parameters

pandas_categorical:null
