tree
version=v4
num_class=1
num_tree_per_iteration=1
label_index=0
max_feature_idx=37
objective=binary sigmoid:1
feature_names=Column_0 Column_1 Column_2 Column_3 Column_4 Column_5 Column_6 Column_7 Column_8 Column_9 Column_10 Column_11 Column_12 Column_13 Column_14 Column_15 Column_16 Column_17 Column_18 Column_19 Column_20 Column_21 Column_22 Column_23 Column_24 Column_25 Column_26 Column_27 Column_28 Column_29 Column_30 Column_31 Column_32 Column_33 Column_34 Column_35 Column_36 Column_37
feature_infos=[-1.0680733826001796:3.1463617842290668] [-2.3060601003889345:1.918598728746636] [-2.0865195170524156:2.1900539682652531] [-2.1265814686707518:2.0142913504216908] [-1.8467110775263658:1.9469972048207906] [-2.5374794622789203:1.992879529372807] [-1.7511310256284551:2.6503411650070086] [-1.8003732560496881:2.311325857963924] [-3.0618684207754394:2.3994706832441128] [-2.2311152923852218:1.9230144941422074] [-2.6701605360131366:2.2270169167895166] [-1.7867311176932261:1.8923834221362881] [-2.2890259348796449:1.9041996821586484] [-3.2576694083333266:2.6867832527521203] [-2.1471728013837605:2.1704072984855105] [-2.0593157107250648:2.2688417521021185] [-2.4001953222414807:2.2050975444669447] [-2.441427882189994:3.3423297590648655] [-2.451307468851637:3.0334238090125623] [-2.590038263045527:2.3652560522517168] [-2.1077757068591483:1.8649437383623062] [-2.523800766374185:2.1809712781628128] [-2.0467137688372392:1.9977230442642064] [-2.5533527164009446:2.9162116402325031] [-2.1808214628356821:3.0639238789906464] [-2.0486014588519561:2.580333289304976] [-2.3985311667305931:3.1932935365648598] [-2.3656462889178349:2.5703184061526496] [-2.5009332726584832:2.128267225047745] [-2.0183651585930669:2.1807004594042141] [-2.3442618076609927:3.5762879764023658] [-2.1508197034533305:2.3474601324451272] [-2.622991856773309:2.0422570728858109] [-1.832311544735596:2.3231883563767588] [-3.3811227035952678:1.8472383707649707] [-2.0489588760471924:2.2046123790361709] [-2.7441394216068304:2.01158355407253] [-2.5277890496802211:2.3775787745412722]
tree_sizes=352 362 364 363 361 358 358 361 358 359 361 361 363 361 365 360 363 362 360 363 363 361 363 363 364 364 364 364 363 365 351 354 352 353 352 359 360 360 360 357 353 354 354 351 352 362 365 365 363

Tree=0
num_leaves=2
num_cat=0
split_feature=7
split_gain=1.37255
threshold=-0.23145239076811705
decision_type=2
left_child=-1
right_child=-2
leaf_value=-0.72233394825438335 -0.73023154127251799
leaf_weight=3.298625573515892 3.298625573515892
leaf_count=15 15
internal_value=-0.725745
internal_weight=6.59725
internal_count=30
is_linear=0
shrinkage=1


Tree=1
num_leaves=2
num_cat=0
split_feature=9
split_gain=1.3731
threshold=-0.047927812750844338
decision_type=2
left_child=-1
right_child=-2
leaf_value=0.0016089488298256949 -0.0062984944689816235
leaf_weight=3.2956072390079498 3.2962110936641693
leaf_count=15 15
internal_value=-0.00180539
internal_weight=6.59182
internal_count=30
is_linear=0
shrinkage=0.01


Tree=2
num_leaves=2
num_cat=0
split_feature=37
split_gain=1.37113
threshold=1.0000000180025095e-35
decision_type=2
left_child=-1
right_child=-2
leaf_value=0.001628021003917514 -0.0062808372666416151
leaf_weight=3.2932074964046478 3.2932126075029373
leaf_count=15 15
internal_value=-0.00178498
internal_weight=6.58642
internal_count=30
is_linear=0
shrinkage=0.01


Tree=3
num_leaves=2
num_cat=0
split_feature=23
split_gain=1.36915
threshold=-0.083901626134746582
decision_type=2
left_child=-1
right_child=-2
leaf_value=-0.0062632804334780967 0.0016469134160438568
leaf_weight=3.290232926607132 3.2908174693584442
leaf_count=15 15
internal_value=-0.00176473
internal_weight=6.58105
internal_count=30
is_linear=0
shrinkage=0.01


Tree=4
num_leaves=2
num_cat=0
split_feature=18
split_gain=1.3647
threshold=-0.22452048064175725
decision_type=2
left_child=-1
right_child=-2
leaf_value=-0.0062423729596263727 0.0016608482691525353
leaf_weight=3.2866347283124924 3.289074644446373
leaf_count=15 15
internal_value=-0.00174463
internal_weight=6.57571
internal_count=30
is_linear=0
shrinkage=0.01


Tree=5
num_leaves=2
num_cat=0
split_feature=9
split_gain=5.64987
threshold=0.205969828080899
decision_type=2
left_child=-1
right_child=-2
leaf_value=0.0092782665402017187 -0.0066953786041276057
leaf_weight=4.1663813591003418 3.5030263811349869
leaf_count=19 16
internal_value=0.00140698
internal_weight=7.66941
internal_count=35
is_linear=0
shrinkage=0.01


Tree=6
num_leaves=2
num_cat=0
split_feature=9
split_gain=5.54377
threshold=0.205969828080899
decision_type=2
left_child=-1
right_child=-2
leaf_value=0.0091687838595355727 -0.0066506324754122626
leaf_weight=4.1798721104860306 3.4947348982095718
leaf_count=19 16
internal_value=0.00138737
internal_weight=7.67461
internal_count=35
is_linear=0
shrinkage=0.01


Tree=7
num_leaves=2
num_cat=0
split_feature=6
split_gain=4.06094
threshold=-0.15664079690521496
decision_type=2
left_child=-1
right_child=-2
leaf_value=-0.0040581570084267026 0.0094743713566703986
leaf_weight=4.3803649246692657 3.2991762757301331
leaf_count=20 15
internal_value=0.00136799
internal_weight=7.67954
internal_count=35
is_linear=0
shrinkage=0.01


Tree=8
num_leaves=2
num_cat=0
split_feature=9
split_gain=5.41754
threshold=0.205969828080899
decision_type=2
left_child=-1
right_child=-2
leaf_value=0.0090253102185016906 -0.0066074600725697531
leaf_weight=4.1974165737628937 3.4866418540477753
leaf_count=19 16
internal_value=0.00135068
internal_weight=7.68406
internal_count=35
is_linear=0
shrinkage=0.01


Tree=9
num_leaves=2
num_cat=0
split_feature=6
split_gain=3.96096
threshold=-0.15664079690521496
decision_type=2
left_child=-1
right_child=-2
leaf_value=-0.0040308882618458712 0.0093216012939905998
leaf_weight=4.3745449334383011 3.31409852206707
leaf_count=20 15
internal_value=0.00133169
internal_weight=7.68864
internal_count=35
is_linear=0
shrinkage=0.01


Tree=10
num_leaves=2
num_cat=0
split_feature=9
split_gain=5.56859
threshold=0.205969828080899
decision_type=2
left_child=-1
right_child=-2
leaf_value=0.0067267548372526645 -0.0093634946728891697
leaf_weight=3.7654725611209869 3.6946539431810379
leaf_count=17 17
internal_value=-0.000701475
internal_weight=7.46013
internal_count=34
is_linear=0
shrinkage=0.01


Tree=11
num_leaves=2
num_cat=0
split_feature=9
split_gain=5.47856
threshold=0.205969828080899
decision_type=2
left_child=-1
right_child=-2
leaf_value=0.0066540126307648587 -0.0093090185337380144
leaf_weight=3.7739935517311096 3.6821012794971466
leaf_count=17 17
internal_value=-0.000690295
internal_weight=7.45609
internal_count=34
is_linear=0
shrinkage=0.01


Tree=12
num_leaves=2
num_cat=0
split_feature=28
split_gain=2.146
threshold=-0.11931359504893042
decision_type=2
left_child=-1
right_child=-2
leaf_value=0.0042299196421318316 -0.0056826355392814989
leaf_weight=3.2959693968296051 4.1559229493141174
leaf_count=15 19
internal_value=-0.000679243
internal_weight=7.45189
internal_count=34
is_linear=0
shrinkage=0.01


Tree=13
num_leaves=2
num_cat=0
split_feature=9
split_gain=5.38158
threshold=0.205969828080899
decision_type=2
left_child=-1
right_child=-2
leaf_value=0.0065869753426449056 -0.0092424447323659915
leaf_weight=3.7818208783864975 3.6665499061346054
leaf_count=17 17
internal_value=-0.000667415
internal_weight=7.44837
internal_count=34
is_linear=0
shrinkage=0.01


Tree=14
num_leaves=2
num_cat=0
split_feature=28
split_gain=2.10071
threshold=-0.11931359504893042
decision_type=2
left_child=-1
right_child=-2
leaf_value=0.0041846426358734074 -0.0056254625801367506
leaf_weight=3.3007248193025589 4.1432833075523376
leaf_count=15 19
internal_value=-0.000656588
internal_weight=7.44401
internal_count=34
is_linear=0
shrinkage=0.01


Tree=15
num_leaves=2
num_cat=0
split_feature=10
split_gain=4.4394
threshold=0.059788885086318314
decision_type=2
left_child=-1
right_child=-2
leaf_value=-0.011468245704447728 0.0031048840847741348
leaf_weight=3.2721602469682693 3.5244967192411423
leaf_count=15 16
internal_value=-0.003531
internal_weight=6.79666
internal_count=31
is_linear=0
shrinkage=0.01


Tree=16
num_leaves=2
num_cat=0
split_feature=10
split_gain=4.38162
threshold=0.059788885086318314
decision_type=2
left_child=-1
right_child=-2
leaf_value=-0.011409607264485111 0.0030748139418000303
leaf_weight=3.2587244361639023 3.5282458662986755
leaf_count=15 16
internal_value=-0.00349932
internal_weight=6.78697
internal_count=31
is_linear=0
shrinkage=0.01


Tree=17
num_leaves=2
num_cat=0
split_feature=10
split_gain=4.32475
threshold=0.059788885086318314
decision_type=2
left_child=-1
right_child=-2
leaf_value=-0.011351653403948994 0.003045069903076189
leaf_weight=3.2452281266450882 3.5319478064775467
leaf_count=15 16
internal_value=-0.00346796
internal_weight=6.77718
internal_count=31
is_linear=0
shrinkage=0.01


Tree=18
num_leaves=2
num_cat=0
split_feature=10
split_gain=4.2688
threshold=0.059788885086318314
decision_type=2
left_child=-1
right_child=-2
leaf_value=-0.01129436756130703 0.0030156474989822745
leaf_weight=3.2316752523183823 3.535603255033493
leaf_count=15 16
internal_value=-0.00343691
internal_weight=6.76728
internal_count=31
is_linear=0
shrinkage=0.01


Tree=19
num_leaves=2
num_cat=0
split_feature=10
split_gain=4.21372
threshold=0.059788885086318314
decision_type=2
left_child=-1
right_child=-2
leaf_value=-0.011237734977147744 0.0029865424812729768
leaf_weight=3.2180697023868561 3.5392128080129623
leaf_count=15 16
internal_value=-0.00340615
internal_weight=6.75728
internal_count=31
is_linear=0
shrinkage=0.01


Tree=20
num_leaves=2
num_cat=0
split_feature=32
split_gain=4.85578
threshold=0.32916782207519041
decision_type=2
left_child=-1
right_child=-2
leaf_value=-0.0078847328095136265 0.0071249873822452833
leaf_weight=4.3088810592889786 3.266253724694252
leaf_count=20 15
internal_value=-0.000753205
internal_weight=7.57513
internal_count=35
is_linear=0
shrinkage=0.01


Tree=21
num_leaves=2
num_cat=0
split_feature=32
split_gain=4.77462
threshold=0.32916782207519041
decision_type=2
left_child=-1
right_child=-2
leaf_value=-0.00783474444964289 0.0070476197206271116
leaf_weight=4.2962630838155746 3.2745360285043716
leaf_count=20 15
internal_value=-0.000740447
internal_weight=7.5708
internal_count=35
is_linear=0
shrinkage=0.01


Tree=22
num_leaves=2
num_cat=0
split_feature=32
split_gain=4.69494
threshold=0.32916782207519041
decision_type=2
left_child=-1
right_child=-2
leaf_value=-0.0077851430559915018 0.0069713660673189496
leaf_weight=4.2836484313011169 3.282677561044693
leaf_count=20 15
internal_value=-0.000727835
internal_weight=7.56633
internal_count=35
is_linear=0
shrinkage=0.01


Tree=23
num_leaves=2
num_cat=0
split_feature=32
split_gain=4.61671
threshold=0.32916782207519041
decision_type=2
left_child=-1
right_child=-2
leaf_value=-0.0077359224548088678 0.006896203218047724
leaf_weight=4.2710393220186234 3.2906806468963623
leaf_count=20 15
internal_value=-0.000715367
internal_weight=7.56172
internal_count=35
is_linear=0
shrinkage=0.01


Tree=24
num_leaves=2
num_cat=0
split_feature=32
split_gain=4.53988
threshold=0.32916782207519041
decision_type=2
left_child=-1
right_child=-2
leaf_value=-0.0076870761443199121 0.0068221073343647425
leaf_weight=4.2584375739097595 3.2985476106405258
leaf_count=20 15
internal_value=-0.000703039
internal_weight=7.55699
internal_count=35
is_linear=0
shrinkage=0.01


Tree=25
num_leaves=2
num_cat=0
split_feature=10
split_gain=2.74047
threshold=1.0000000180025095e-35
decision_type=2
left_child=-1
right_child=-2
leaf_value=-0.0087275414855870048 0.002396669382183077
leaf_weight=3.3976653069257736 3.7128336131572723
leaf_count=16 17
internal_value=-0.00248607
internal_weight=7.1105
internal_count=33
is_linear=0
shrinkage=0.01


Tree=26
num_leaves=2
num_cat=0
split_feature=11
split_gain=2.96502
threshold=0.053453884015996871
decision_type=2
left_child=-1
right_child=-2
leaf_value=-0.0089040648179202087 0.0027137129209622956
leaf_weight=3.4336373656988144 3.6684975475072861
leaf_count=16 17
internal_value=-0.00246158
internal_weight=7.10213
internal_count=33
is_linear=0
shrinkage=0.01


Tree=27
num_leaves=2
num_cat=0
split_feature=11
split_gain=2.92381
threshold=0.053453884015996871
decision_type=2
left_child=-1
right_child=-2
leaf_value=-0.0088522681154642631 0.0026874634190113319
leaf_weight=3.4221742451190948 3.6721512675285339
leaf_count=16 17
internal_value=-0.00243703
internal_weight=7.09433
internal_count=33
is_linear=0
shrinkage=0.01


Tree=28
num_leaves=2
num_cat=0
split_feature=11
split_gain=2.88324
threshold=0.053453884015996871
decision_type=2
left_child=-1
right_child=-2
leaf_value=-0.008800903797975785 0.0026614945267920335
leaf_weight=3.4107012897729874 3.6757617443799973
leaf_count=16 17
internal_value=-0.00241271
internal_weight=7.08646
internal_count=33
is_linear=0
shrinkage=0.01


Tree=29
num_leaves=2
num_cat=0
split_feature=10
split_gain=2.68728
threshold=1.0000000180025095e-35
decision_type=2
left_child=-1
right_child=-2
leaf_value=-0.0086116576553178954 0.0024322057733721621
leaf_weight=3.3710046112537384 3.7075456529855728
leaf_count=16 17
internal_value=-0.0023886
internal_weight=7.07855
internal_count=33
is_linear=0
shrinkage=0.01


Tree=30
num_leaves=2
num_cat=0
split_feature=1
split_gain=4.55331
threshold=0.41627948578095081
decision_type=2
left_child=-1
right_child=-2
leaf_value=0.0061994477186581021 -0.0085070028420607732
leaf_weight=4.3747626841068268 3.2029380202293396
leaf_count=20 15
internal_value=0
internal_weight=7.5777
internal_count=35
is_linear=0
shrinkage=0.01


Tree=31
num_leaves=2
num_cat=0
split_feature=13
split_gain=5.37375
threshold=-0.29092530276186285
decision_type=2
left_child=-1
right_child=-2
leaf_value=0.0083270732297933119 -0.0075382753315221922
leaf_weight=3.4945639073848724 4.0822902619838715
leaf_count=16 19
internal_value=0
internal_weight=7.57685
internal_count=35
is_linear=0
shrinkage=0.01


Tree=32
num_leaves=2
num_cat=0
split_feature=1
split_gain=4.45086
threshold=0.41627948578095081
decision_type=2
left_child=-1
right_child=-2
leaf_value=0.0061100650925245831 -0.0084382950513918354
leaf_weight=4.3871188908815384 3.1884549856185913
leaf_count=20 15
internal_value=0
internal_weight=7.57557
internal_count=35
is_linear=0
shrinkage=0.01


Tree=33
num_leaves=2
num_cat=0
split_feature=13
split_gain=5.25089
threshold=-0.29092530276186285
decision_type=2
left_child=-1
right_child=-2
leaf_value=0.008204988972475593 -0.0074766218260198291
leaf_weight=3.5075623244047165 4.0669539272785187
leaf_count=16 19
internal_value=0
internal_weight=7.57452
internal_count=35
is_linear=0
shrinkage=0.01


Tree=34
num_leaves=2
num_cat=0
split_feature=13
split_gain=5.15834
threshold=-0.29092530276186285
decision_type=2
left_child=-1
right_child=-2
leaf_value=0.0081129219666065764 -0.0074287967321893114
leaf_weight=3.5175169259309769 4.0554813891649246
leaf_count=16 19
internal_value=0
internal_weight=7.573
internal_count=35
is_linear=0
shrinkage=0.01


Tree=35
num_leaves=2
num_cat=0
split_feature=9
split_gain=8.61341
threshold=0.205969828080899
decision_type=2
left_child=-1
right_child=-2
leaf_value=0.0089661710770825333 -0.011295960621125372
leaf_weight=3.773006796836853 3.5650136917829514
leaf_count=17 17
internal_value=-0.000332447
internal_weight=7.33802
internal_count=34
is_linear=0
shrinkage=0.01


Tree=36
num_leaves=2
num_cat=0
split_feature=9
split_gain=8.47453
threshold=0.205969828080899
decision_type=2
left_child=-1
right_child=-2
leaf_value=0.0088636841608634789 -0.011241892853875347
leaf_weight=3.7841906696557999 3.5488240569829941
leaf_count=17 17
internal_value=-0.000324617
internal_weight=7.33301
internal_count=34
is_linear=0
shrinkage=0.01


Tree=37
num_leaves=2
num_cat=0
split_feature=9
split_gain=8.33833
threshold=0.205969828080899
decision_type=2
left_child=-1
right_child=-2
leaf_value=0.0087628703751933407 -0.011188419997289216
leaf_weight=3.7951460778713226 3.5325981378555298
leaf_count=17 17
internal_value=-0.000316898
internal_weight=7.32774
internal_count=34
is_linear=0
shrinkage=0.01


Tree=38
num_leaves=2
num_cat=0
split_feature=9
split_gain=8.20475
threshold=0.205969828080899
decision_type=2
left_child=-1
right_child=-2
leaf_value=0.0086636878028333898 -0.011135528941251549
leaf_weight=3.8058770895004272 3.5163398236036301
leaf_count=17 17
internal_value=-0.000309285
internal_weight=7.32222
internal_count=34
is_linear=0
shrinkage=0.01


Tree=39
num_leaves=2
num_cat=0
split_feature=9
split_gain=8.07372
threshold=0.205969828080899
decision_type=2
left_child=-1
right_child=-2
leaf_value=0.0085660950050796096 -0.011083206505326
leaf_weight=3.8163877725601196 3.5000527948141098
leaf_count=17 17
internal_value=-0.000301777
internal_weight=7.31644
internal_count=34
is_linear=0
shrinkage=0.01


Tree=40
num_leaves=2
num_cat=0
split_feature=24
split_gain=2.25567
threshold=-0.33366266940158501
decision_type=2
left_child=-1
right_child=-2
leaf_value=-0.0055206162183120168 0.004958046762314614
leaf_weight=3.1425519436597824 4.1599545329809189
leaf_count=15 19
internal_value=0
internal_weight=7.30251
internal_count=34
is_linear=0
shrinkage=0.01


Tree=41
num_leaves=2
num_cat=0
split_feature=24
split_gain=2.21658
threshold=-0.33366266940158501
decision_type=2
left_child=-1
right_child=-2
leaf_value=-0.0054833925188315915 0.0049062474762720642
leaf_weight=3.1356748044490814 4.1670785844326019
leaf_count=15 19
internal_value=0
internal_weight=7.30275
internal_count=34
is_linear=0
shrinkage=0.01


Tree=42
num_leaves=2
num_cat=0
split_feature=24
split_gain=2.17821
threshold=-0.33366266940158501
decision_type=2
left_child=-1
right_child=-2
leaf_value=-0.0054464207730521835 0.0048551041253003099
leaf_weight=3.1288196742534637 4.1740961819887161
leaf_count=15 19
internal_value=0
internal_weight=7.30292
internal_count=34
is_linear=0
shrinkage=0.01


Tree=43
num_leaves=2
num_cat=0
split_feature=24
split_gain=2.14054
threshold=-0.33366266940158501
decision_type=2
left_child=-1
right_child=-2
leaf_value=-0.0054096982437367418 0.0048046052236700339
leaf_weight=3.121986985206604 4.1810088306665421
leaf_count=15 19
internal_value=0
internal_weight=7.303
internal_count=34
is_linear=0
shrinkage=0.01


Tree=44
num_leaves=2
num_cat=0
split_feature=24
split_gain=2.10356
threshold=-0.33366266940158501
decision_type=2
left_child=-1
right_child=-2
leaf_value=-0.0053732222735344759 0.0047547393608491032
leaf_weight=3.1151772737503052 4.1878183037042618
leaf_count=15 19
internal_value=0
internal_weight=7.303
internal_count=34
is_linear=0
shrinkage=0.01


Tree=45
num_leaves=2
num_cat=0
split_feature=27
split_gain=1.59473
threshold=-0.23445667657458283
decision_type=2
left_child=-1
right_child=-2
leaf_value=-0.0056607447500250999 0.00302585035342543
leaf_weight=3.1697179973125458 4.1193838566541672
leaf_count=15 19
internal_value=-0.000230549
internal_weight=7.2891
internal_count=34
is_linear=0
shrinkage=0.01


Tree=46
num_leaves=2
num_cat=0
split_feature=11
split_gain=4.40299
threshold=0.053453884015996871
decision_type=2
left_child=-1
right_child=-2
leaf_value=-0.0074095916649079222 0.0071486944699422714
leaf_weight=4.0320740193128586 3.2544708549976349
leaf_count=19 15
internal_value=-0.000223623
internal_weight=7.28654
internal_count=34
is_linear=0
shrinkage=0.01


Tree=47
num_leaves=2
num_cat=0
split_feature=11
split_gain=4.32812
threshold=0.053453884015996871
decision_type=2
left_child=-1
right_child=-2
leaf_value=-0.0073622403805415253 0.0070711621852031434
leaf_weight=4.0206998586654663 3.2626938074827194
leaf_count=19 15
internal_value=-0.000215312
internal_weight=7.28339
internal_count=34
is_linear=0
shrinkage=0.01


Tree=48
num_leaves=2
num_cat=0
split_feature=11
split_gain=4.25464
threshold=0.053453884015996871
decision_type=2
left_child=-1
right_child=-2
leaf_value=-0.0073152376628663621 0.0069947447320202333
leaf_weight=4.0093385130167007 3.2707769423723221
leaf_count=19 15
internal_value=-0.0002071
internal_weight=7.28012
internal_count=34
is_linear=0
shrinkage=0.01


end of trees

feature_importances:
Column_9=12
Column_10=7
Column_11=6
Column_24=5
Column_32=5
Column_13=3
Column_1=2
Column_6=2
Column_28=2
Column_7=1
Column_18=1
Column_23=1
Column_27=1
Column_37=1

parameters:
[boosting: gbdt]
[objective: binary]
[metric: auc]
[tree_learner: serial]
[device_type: cpu]
[data_sample_strategy: bagging]
[data: ]
[valid: ]
[num_iterations: 1000]
[learning_rate: 0.01]
[num_leaves: 3]
[num_threads: 0]
[seed: 42]
[deterministic: 1]
[force_col_wise: 1]
[force_row_wise: 0]
[histogram_pool_size: -1]
[max_depth: 2]
[min_data_in_leaf: 15]
[min_sum_hessian_in_leaf: 0.001]
[bagging_fraction: 0.7]
[pos_bagging_fraction: 1]
[neg_bagging_fraction: 1]
[bagging_freq: 5]
[bagging_seed: 400]
[bagging_by_query: 0]
[feature_fraction: 0.7]
[feature_fraction_bynode: 1]
[feature_fraction_seed: 30056]
[extra_trees: 0]
[extra_seed: 12879]
[early_stopping_round: 0]
[early_stopping_min_delta: 0]
[first_metric_only: 0]
[max_delta_step: 0]
[lambda_l1: 0.5]
[lambda_l2: 0.5]
[linear_lambda: 0]
[min_gain_to_split: 0.05]
[drop_rate: 0.1]
[max_drop: 50]
[skip_drop: 0.5]
[xgboost_dart_mode: 0]
[uniform_drop: 0]
[drop_seed: 17869]
[top_rate: 0.2]
[other_rate: 0.1]
[min_data_per_group: 100]
[max_cat_threshold: 32]
[cat_l2: 10]
[cat_smooth: 10]
[max_cat_to_onehot: 4]
[top_k: 20]
[monotone_constraints: ]
[monotone_constraints_method: basic]
[monotone_penalty: 0]
[feature_contri: ]
[forcedsplits_filename: ]
[refit_decay_rate: 0.9]
[cegb_tradeoff: 1]
[cegb_penalty_split: 0]
[cegb_penalty_feature_lazy: ]
[cegb_penalty_feature_coupled: ]
[path_smooth: 0]
[interaction_constraints: ]
[verbosity: -1]
[saved_feature_importance_type: 0]
[use_quantized_grad: 0]
[num_grad_quant_bins: 4]
[quant_train_renew_leaf: 0]
[stochastic_rounding: 1]
[linear_tree: 0]
[max_bin: 255]
[max_bin_by_feature: ]
[min_data_in_bin: 3]
[bin_construct_sample_cnt: 200000]
[data_random_seed: 175]
[is_enable_sparse: 1]
[enable_bundle: 1]
[use_missing: 1]
[zero_as_missing: 0]
[feature_pre_filter: 1]
[pre_partition: 0]
[two_round: 0]
[header: 0]
[label_column: ]
[weight_column: ]
[group_column: ]
[ignore_column: ]
[categorical_feature: ]
[forcedbins_filename: ]
[precise_float_parser: 0]
[parser_config_file: ]
[objective_seed: 16083]
[num_class: 1]
[is_unbalance: 0]
[scale_pos_weight: 1]
[sigmoid: 1]
[boost_from_average: 1]
[reg_sqrt: 0]
[alpha: 0.9]
[fair_c: 1]
[poisson_max_delta_step: 0.7]
[tweedie_variance_power: 1.5]
[lambdarank_truncation_level: 30]
[lambdarank_norm: 1]
[label_gain: ]
[lambdarank_position_bias_regularization: 0]
[eval_at: ]
[multi_error_top_k: 1]
[auc_mu_weights: ]
[num_machines: 1]
[local_listen_port: 12400]
[time_out: 120]
[machine_list_filename: ]
[machines: ]
[gpu_platform_id: -1]
[gpu_device_id: -1]
[gpu_use_dp: 0]
[num_gpu: 1]

end of parameters

pandas_categorical:null
