tree
version=v4
num_class=1
num_tree_per_iteration=1
label_index=0
max_feature_idx=38
objective=binary sigmoid:1
feature_names=Column_0 Column_1 Column_2 Column_3 Column_4 Column_5 Column_6 Column_7 Column_8 Column_9 Column_10 Column_11 Column_12 Column_13 Column_14 Column_15 Column_16 Column_17 Column_18 Column_19 Column_20 Column_21 Column_22 Column_23 Column_24 Column_25 Column_26 Column_27 Column_28 Column_29 Column_30 Column_31 Column_32 Column_33 Column_34 Column_35 Column_36 Column_37 Column_38
feature_infos=[-2.9060388627577023:1.6173369560001651] [-4.2259132050583874:1.5044517225256104] [-3.9979453374754574:2.0608617326255065] [-2.4366500661807682:2.068261283881335] [-2.6589959951268831:1.9126688182334879] [-2.1126782102604418:1.6113967982519708] [-1.8831629336062581:2.9520556948492644] [-2.8021039231140361:2.5324591963549588] [-2.5040985550106662:1.854313224134339] [-2.6005789705572964:2.8675792285901545] [-3.108717163224223:1.9833188613045101] [-4.0470777850123048:2.4060558088632735] [-2.5788245304952513:3.8513122564897437] [-1.7053408160494123:2.3975264609580202] [-2.1848027908020828:2.576157715504932] [-2.0052371965588778:2.885292062021541] [-1.7729256463874734:2.9972087551296016] [-2.4760080628500658:2.4816270612751392] [-2.3057767259906834:3.6916281112033804] [-2.5045911997598225:3.2108346380131767] [-2.5141921008843258:2.9449409809057054] [-2.1335849706488448:2.6594239742419941] [-2.6053794731653475:2.815508741330389] [-2.4155494600962077:2.1129982050837364] [-1.8091704362166967:2.7537768023257869] [-2.6764560356188656:4.4188775431462171] [-2.8278453958408121:3.3144733556451005] [-2.2613017928673291:2.4308773120805913] [-2.3350135474067506:3.1850021784165992] [-1.6410712590880332:2.257020717824608] [-2.1830204097782495:2.9334124000207344] [-1.9079186767873832:2.2551768969767898] [-2.6821538188470728:2.4448250555499831] [-2.5779493114344039:1.9049573099348176] [-2.8116977037229383:2.9823859302371702] [-2.8615450424130007:1.9479785361391662] [-2.131524621481764:3.047751682410857] [-2.2247322455917087:2.6490515666281969] [-2.2101663534519278:2.1843064433776944]
tree_sizes=655 662 665 664 660 665 663 670 665 643 563 565 571 571 565 564 565 563 563 563

Tree=0
num_leaves=5
num_cat=0
split_feature=1 31 4 16
split_gain=7.82133 9.82651 1.41654 1.41403
threshold=-0.2493750483741026 -0.0202395683210033 -0.19119108539401108 -0.13455989768600538
decision_type=2 2 2 2
left_child=-1 2 -2 -3
right_child=1 3 -4 -5
leaf_value=-0.70681581994001219 -0.69122057498650258 -0.66527735742487004 -0.70608296069816168 -0.68296369406292246
leaf_weight=1.7777777910232542 1.1111111193895342 1.7777777910232542 1.1111111193895338 1.1111111193895342
leaf_count=8 5 8 5 5
internal_value=-0.689475 -0.683105 -0.698458 -0.671177
internal_weight=6.88889 5.11111 2.22222 2.88889
internal_count=31 23 10 13
is_linear=0
shrinkage=1


Tree=1
num_leaves=5
num_cat=0
split_feature=1 31 20 16
split_gain=7.67594 9.5667 1.42243 1.34967
threshold=-0.2493750483741026 -0.0202395683210033 0.42297289060003979 -0.13455989768600538
decision_type=2 2 2 2
left_child=-1 2 -2 -3
right_child=1 3 -4 -5
leaf_value=-0.013598584012998389 0.0019948805146055605 0.027367454953080964 -0.012915026369007645 0.010058737436835637
leaf_weight=1.7696229219436643 1.108503192663193 1.7940595149993894 1.1096101254224775 1.114863455295563
leaf_count=8 5 8 5 5
internal_value=0.00363317 0.00991848 -0.00526779 0.0216209
internal_weight=6.89666 5.12704 2.21811 2.90892
internal_count=31 23 10 13
is_linear=0
shrinkage=0.01


Tree=2
num_leaves=5
num_cat=0
split_feature=1 31 33 16
split_gain=7.5343 9.31729 1.41225 1.28987
threshold=-0.2493750483741026 -0.0202395683210033 -0.2420490995583082 -0.13455989768600538
decision_type=2 2 2 2
left_child=-1 2 -2 -3
right_child=1 3 -4 -5
leaf_value=-0.013529658103167932 0.0020045486911264209 0.026886794050018786 -0.012863518177236282 0.0099362761877372103
leaf_weight=1.7614024877548216 1.1081184148788454 1.8095793724060056 1.1059053689241407 1.1185315251350405
leaf_count=8 5 8 5 5
internal_value=0.00359469 0.00979747 -0.00522486 0.0212839
internal_weight=6.90354 5.14213 2.21402 2.92811
internal_count=31 23 10 13
is_linear=0
shrinkage=0.01


Tree=3
num_leaves=5
num_cat=0
split_feature=1 31 23 6
split_gain=7.39628 9.07767 1.41016 1.35764
threshold=-0.2493750483741026 -0.0202395683210033 0.15181089270648077 -0.42619270790368552
decision_type=2 2 2 2
left_child=-1 2 -2 -3
right_child=1 3 -4 -5
leaf_value=-0.013461830099378982 -0.012828193597318988 0.0095670118173908844 0.0020430838244107634 0.026648915087321878
leaf_weight=1.7531199455261228 1.1032845675945284 1.1293589770793915 1.1066272407770155 1.8171132802963257
leaf_count=8 5 5 5 8
internal_value=0.00355705 0.00967957 -0.00518233 0.0209588
internal_weight=6.9095 5.15638 2.20991 2.94647
internal_count=31 23 10 13
is_linear=0
shrinkage=0.01


Tree=4
num_leaves=5
num_cat=0
split_feature=1 31 14 6
split_gain=7.26159 8.8467 1.40793 1.3006
threshold=-0.2493750483741026 -0.0202395683210033 1.0000000180025095e-35 -0.42619270790368552
decision_type=2 2 2 2
left_child=-1 2 -2 -3
right_child=1 3 -4 -5
leaf_value=-0.013395073363156327 -0.012792668974744761 0.0094533495120435688 0.0020810380674313278 0.026198610258529095
leaf_weight=1.7447786331176756 1.1006882190704348 1.1326938271522522 1.105111092329025 1.8315077126026154
leaf_count=8 5 5 5 8
internal_value=0.00352012 0.00956428 -0.00514014 0.0206435
internal_weight=6.91478 5.17 2.2058 2.9642
internal_count=31 23 10 13
is_linear=0
shrinkage=0.01


Tree=5
num_leaves=5
num_cat=0
split_feature=14 21 30 24
split_gain=9.07156 6.27966 3.61397 0.449558
threshold=0.39419472592959764 -0.68910603765525302 0.62273208856001672 0.36256757784426191
decision_type=2 2 2 2
left_child=1 -1 -2 -3
right_child=2 3 -4 -5
leaf_value=0.012315827920591669 0.026114683849504897 -0.013990025279075329 0.0017382311263522002 -0.0042160443985215946
leaf_weight=1.3635420799255369 1.5968255847692492 2.853039532899857 1.1166594475507734 1.0883473008871076
leaf_count=6 7 13 5 5
internal_value=0.002233 -0.00523568 0.016857 -0.0117096
internal_weight=8.01841 5.30493 2.71349 3.94139
internal_count=36 24 12 18
is_linear=0
shrinkage=0.01


Tree=6
num_leaves=5
num_cat=0
split_feature=14 1 30 3
split_gain=8.87078 4.91731 3.49776 0.405391
threshold=0.39419472592959764 0.5972155810477181 0.62273208856001672 0.7746579110415176
decision_type=2 2 2 2
left_child=1 3 -2 -1
right_child=2 -3 -4 -5
leaf_value=-0.013866484146607466 0.025685396075960321 0.0088683740699546029 0.001721384449335131 -0.0043180899595708878
leaf_weight=2.6230679452419285 1.6088882982730868 1.5785995721817014 1.1172871142625806 1.0926079005002973
leaf_count=12 7 7 5 5
internal_value=0.00221246 -0.0051949 0.0166263 -0.0115076
internal_weight=8.02045 5.29428 2.72618 3.71568
internal_count=36 24 12 17
is_linear=0
shrinkage=0.01


Tree=7
num_leaves=5
num_cat=0
split_feature=14 21 30 29
split_gain=8.67666 6.10707 3.38764 0.449762
threshold=0.39419472592959764 -0.68910603765525302 0.62273208856001672 -0.83533856727532585
decision_type=2 2 2 2
left_child=1 -1 -2 -3
right_child=2 3 -4 -5
leaf_value=0.012075100619599616 0.025273245530840011 -0.0041051717609296382 0.0017047123793006336 -0.013877538936782006
leaf_weight=1.3711985945701597 1.6203466653823855 1.0826694220304491 1.1179075092077253 2.8301117867231369
leaf_count=6 7 5 5 13
internal_value=0.00219176 -0.00515472 0.0164027 -0.0115924
internal_weight=8.02223 5.28398 2.73825 3.91278
internal_count=36 24 12 18
is_linear=0
shrinkage=0.01


Tree=8
num_leaves=5
num_cat=0
split_feature=1 23 31 9
split_gain=7.71408 5.69682 5.41125 4.37208
threshold=-0.2493750483741026 -0.46523722109492438 0.45021965164158101 0.57343275538509231
decision_type=2 2 2 2
left_child=-1 -2 3 -3
right_child=1 2 -4 -5
leaf_value=-0.013469347384283537 0.025301601464792024 -0.01372228240690399 0.018133161701758781 0.0099217776315708543
leaf_weight=2.1508008539676666 1.3791309893131254 1.9834363460540774 1.3909579217433927 1.1183812618255613
leaf_count=10 6 9 6 5
internal_value=0.00217198 0.00819825 0.00229377 -0.00484131
internal_weight=8.02271 5.87191 4.49278 3.10182
internal_count=36 26 20 14
is_linear=0
shrinkage=0.01


Tree=9
num_leaves=5
num_cat=0
split_feature=1 23 10 9
split_gain=7.58356 5.53545 5.1155 4.10547
threshold=-0.2493750483741026 -0.46523722109492438 0.31689844326902866 0.57343275538509231
decision_type=2 2 2 2
left_child=-1 -2 -3 -4
right_child=1 2 3 -5
leaf_value=-0.013405763094347479 0.024903390162561531 -0.0091127876164122778 0 0.024846681290937304
leaf_weight=2.1399210840463638 1.3887218236923216 2.0008385330438614 1.3433188647031786 1.1494789123535154
leaf_count=10 6 9 6 5
internal_value=0.00215318 0.00810994 0.00227322 0.0117968
internal_weight=8.02228 5.88236 4.49364 2.4928
internal_count=36 26 20 11
is_linear=0
shrinkage=0.01


Tree=10
num_leaves=4
num_cat=0
split_feature=14 31 1
split_gain=5.99952 5.18756 5.6068
threshold=0.54841034906079311 -0.0202395683210033 -0.13221810654110563
decision_type=2 2 2
left_child=1 -1 -3
right_child=-2 2 -4
leaf_value=-0.013793024056490435 0.018256203743009229 -0.012313900964209437 0.015239398735087877
leaf_weight=2.8119102418422699 1.3870347589254377 1.0622658878564837 1.854222923517227
leaf_count=13 6 5 8
internal_value=0.000201335 -0.00423699 0.00479669
internal_weight=7.11543 5.7284 2.91649
internal_count=32 26 13
is_linear=0
shrinkage=0.01


Tree=11
num_leaves=4
num_cat=0
split_feature=14 31 1
split_gain=5.86766 5.11069 5.49456
threshold=0.54841034906079311 -0.0202395683210033 -0.13221810654110563
decision_type=2 2 2
left_child=1 -1 -3
right_child=-2 2 -4
leaf_value=-0.013727541987931127 0.018003614216786003 -0.012255303815110965 0.015036588257260055
leaf_weight=2.7976189106702805 1.3937983959913252 1.0571752041578295 1.861750468611717
leaf_count=13 6 5 8
internal_value=0.000198754 -0.00420536 0.00474225
internal_weight=7.11034 5.71654 2.91893
internal_count=32 26 13
is_linear=0
shrinkage=0.01


Tree=12
num_leaves=4
num_cat=0
split_feature=26 16 18
split_gain=5.74919 5.11644 2.13501
threshold=-0.074354043730458952 -0.13455989768600538 0.33510666599491196
decision_type=2 2 2
left_child=2 -2 -1
right_child=1 -3 -4
leaf_value=-0.013839727595985896 0.020280285096538495 -0.0027044703859143192 0.0019954415655023439
leaf_weight=2.3996874392032628 1.8529846370220187 1.7486875355243681 1.1032465845346449
leaf_count=11 8 8 5
internal_value=0.000196177 0.00907897 -0.00865794
internal_weight=7.10461 3.60167 3.50293
internal_count=32 16 16
is_linear=0
shrinkage=0.01


Tree=13
num_leaves=4
num_cat=0
split_feature=26 16 18
split_gain=5.63801 4.98889 2.11015
threshold=-0.074354043730458952 -0.13455989768600538 0.33510666599491196
decision_type=2 2 2
left_child=2 -2 -1
right_child=1 -3 -4
leaf_value=-0.013771740393860848 0.019987700117629684 -0.0026812881222307832 0.0019759370053954194
leaf_weight=2.3879711031913762 1.8627221882343294 1.7470412403345106 1.1039784252643583
leaf_count=11 8 8 5
internal_value=0.000193446 0.00897034 -0.00859831
internal_weight=7.10171 3.60976 3.49195
internal_count=32 16 16
is_linear=0
shrinkage=0.01


Tree=14
num_leaves=4
num_cat=0
split_feature=14 31 1
split_gain=5.53836 5.03151 5.31616
threshold=0.54841034906079311 -0.0202395683210033 -0.13221810654110563
decision_type=2 2 2
left_child=1 -1 -3
right_child=-2 2 -4
leaf_value=-0.013623862559767346 0.017377055393637455 -0.012110861947264222 0.014802929456094993
leaf_weight=2.7746105790138245 1.4094127714633939 1.0441470295190813 1.8701307922601698
leaf_count=13 6 5 8
internal_value=0.000190733 -0.00412103 0.00474644
internal_weight=7.0983 5.68889 2.91428
internal_count=32 26 13
is_linear=0
shrinkage=0.01


Tree=15
num_leaves=4
num_cat=0
split_feature=13 35 3
split_gain=7.35361 6.15632 2.97489
threshold=-0.3469466658551093 0.66061874985051716 -0.11269941935643994
decision_type=2 2 2
left_child=-1 2 -2
right_child=1 -3 -4
leaf_value=-0.013877277409919501 0.02406025192615957 -0.012695873656272076 0.0032211610131557249
leaf_weight=3.0152351707220078 1.4096553772687912 1.0894826352596281 1.5553109645843506
leaf_count=14 6 5 7
internal_value=-0.00218668 0.00639151 0.0139169
internal_weight=7.06968 4.05445 2.96497
internal_count=32 18 13
is_linear=0
shrinkage=0.01


Tree=16
num_leaves=4
num_cat=0
split_feature=13 6 38
split_gain=7.24023 5.95846 3.04038
threshold=-0.3469466658551093 -0.46542906679666285 -0.063798548785242201
decision_type=2 2 2
left_child=-1 -2 -3
right_child=1 2 -4
leaf_value=-0.013811532181007171 -0.012567621962406303 0.02391356238819305 0.0029578649826112677
leaf_weight=2.999845489859581 1.0790418684482572 1.4132953435182571 1.5668761283159256
leaf_count=14 5 6 7
internal_value=-0.00216686 0.00632353 0.0136741
internal_weight=7.05906 4.05921 2.98017
internal_count=32 18 13
is_linear=0
shrinkage=0.01


Tree=17
num_leaves=4
num_cat=0
split_feature=5 9 28
split_gain=3.45653 4.87922 4.67043
threshold=0.48835859254306152 0.57343275538509231 0.36490387383786227
decision_type=2 2 2
left_child=1 2 -1
right_child=-2 -3 -4
leaf_value=-0.013427005573541253 -0.013308517324121734 0.017306319456066283 0.0084737821123458852
leaf_weight=2.1305462867021565 1.91835480928421 1.4118535816669462 1.5871828794479368
leaf_count=10 9 6 7
internal_value=-0.00214739 0.00201008 -0.00383808
internal_weight=7.04794 5.12958 3.71773
internal_count=32 23 17
is_linear=0
shrinkage=0.01


Tree=18
num_leaves=4
num_cat=0
split_feature=13 35 3
split_gain=7.07968 5.8533 2.77909
threshold=-0.3469466658551093 0.66061874985051716 -0.11269941935643994
decision_type=2 2 2
left_child=-1 2 -2
right_child=1 -3 -4
leaf_value=-0.013712175580759819 0.023231050961070154 -0.012519112525967675 0.0031267398632422627
leaf_weight=2.974987804889679 1.4285146296024323 1.0755536407232282 1.5578716397285461
leaf_count=14 6 5 7
internal_value=-0.00212822 0.00624128 0.0135086
internal_weight=7.03693 4.06194 2.98639
internal_count=32 18 13
is_linear=0
shrinkage=0.01


Tree=19
num_leaves=4
num_cat=0
split_feature=13 35 35
split_gain=6.97175 5.74174 2.76097
threshold=-0.3469466658551093 0.66061874985051716 -0.25223222692448205
decision_type=2 2 2
left_child=-1 2 -2
right_child=1 -3 -4
leaf_value=-0.013649153985413439 0.0030190740682258638 -0.01245787489745424 0.023016668445359146
leaf_weight=2.9593768715858459 1.5614764988422394 1.070548892021179 1.4334624856710434
leaf_count=14 7 5 6
internal_value=-0.00210939 0.00617665 0.013348
internal_weight=7.02486 4.06549 2.99494
internal_count=32 18 13
is_linear=0
shrinkage=0.01


end of trees

feature_importances:
Column_1=11
Column_31=9
Column_14=7
Column_16=5
Column_13=4
Column_35=4
Column_3=3
Column_6=3
Column_9=3
Column_23=3
Column_30=3
Column_18=2
Column_21=2
Column_26=2
Column_4=1
Column_5=1
Column_10=1
Column_20=1
Column_24=1
Column_28=1
Column_29=1
Column_33=1
Column_38=1

parameters:
[boosting: gbdt]
[objective: binary]
[metric: auc]
[tree_learner: serial]
[device_type: cpu]
[data_sample_strategy: bagging]
[data: ]
[valid: ]
[num_iterations: 1000]
[learning_rate: 0.01]
[num_leaves: 15]
[num_threads: 0]
[seed: 42]
[deterministic: 1]
[force_col_wise: 1]
[force_row_wise: 0]
[histogram_pool_size: -1]
[max_depth: -1]
[min_data_in_leaf: 5]
[min_sum_hessian_in_leaf: 0.001]
[bagging_fraction: 0.7]
[pos_bagging_fraction: 1]
[neg_bagging_fraction: 1]
[bagging_freq: 5]
[bagging_seed: 400]
[bagging_by_query: 0]
[feature_fraction: 0.8]
[feature_fraction_bynode: 1]
[feature_fraction_seed: 30056]
[extra_trees: 0]
[extra_seed: 12879]
[early_stopping_round: 0]
[early_stopping_min_delta: 0]
[first_metric_only: 0]
[max_delta_step: 0]
[lambda_l1: 0.1]
[lambda_l2: 0.1]
[linear_lambda: 0]
[min_gain_to_split: 0.01]
[drop_rate: 0.1]
[max_drop: 50]
[skip_drop: 0.5]
[xgboost_dart_mode: 0]
[uniform_drop: 0]
[drop_seed: 17869]
[top_rate: 0.2]
[other_rate: 0.1]
[min_data_per_group: 100]
[max_cat_threshold: 32]
[cat_l2: 10]
[cat_smooth: 10]
[max_cat_to_onehot: 4]
[top_k: 20]
[monotone_constraints: ]
[monotone_constraints_method: basic]
[monotone_penalty: 0]
[feature_contri: ]
[forcedsplits_filename: ]
[refit_decay_rate: 0.9]
[cegb_tradeoff: 1]
[cegb_penalty_split: 0]
[cegb_penalty_feature_lazy: ]
[cegb_penalty_feature_coupled: ]
[path_smooth: 0]
[interaction_constraints: ]
[verbosity: -1]
[saved_feature_importance_type: 0]
[use_quantized_grad: 0]
[num_grad_quant_bins: 4]
[quant_train_renew_leaf: 0]
[stochastic_rounding: 1]
[linear_tree: 0]
[max_bin: 255]
[max_bin_by_feature: ]
[min_data_in_bin: 3]
[bin_construct_sample_cnt: 200000]
[data_random_seed: 175]
[is_enable_sparse: 1]
[enable_bundle: 1]
[use_missing: 1]
[zero_as_missing: 0]
[feature_pre_filter: 1]
[pre_partition: 0]
[two_round: 0]
[header: 0]
[label_column: ]
[weight_column: ]
[group_column: ]
[ignore_column: ]
[categorical_feature: ]
[forcedbins_filename: ]
[precise_float_parser: 0]
[parser_config_file: ]
[objective_seed: 16083]
[num_class: 1]
[is_unbalance: 0]
[scale_pos_weight: 1]
[sigmoid: 1]
[boost_from_average: 1]
[reg_sqrt: 0]
[alpha: 0.9]
[fair_c: 1]
[poisson_max_delta_step: 0.7]
[tweedie_variance_power: 1.5]
[lambdarank_truncation_level: 30]
[lambdarank_norm: 1]
[label_gain: ]
[lambdarank_position_bias_regularization: 0]
[eval_at: ]
[multi_error_top_k: 1]
[auc_mu_weights: ]
[num_machines: 1]
[local_listen_port: 12400]
[time_out: 120]
[machine_list_filename: ]
[machines: ]
[gpu_platform_id: -1]
[gpu_device_id: -1]
[gpu_use_dp: 0]
[num_gpu: 1]

end of parameters

pandas_categorical:null
