tree
version=v4
num_class=1
num_tree_per_iteration=1
label_index=0
max_feature_idx=13
objective=binary sigmoid:1
feature_names=Column_0 Column_1 Column_2 Column_3 Column_4 Column_5 Column_6 Column_7 Column_8 Column_9 Column_10 Column_11 Column_12 Column_13
feature_infos=[-0.88588770630523472:3.1088242388506653] [-1.183407855719641:3.2981155884742011] [-1.7962854922153955:2.4682655999244978] [-1.0497101164015681:3.8632024976493726] [-1.5240033861306257:2.161557566509392] [-1.7464317542169139:2.4488019763447997] [-1.5274437083327048:1.0689933401986158] [-2.0819011250665094:2.4958611424821724] [-1.4346326694769052:3.8170232233828183] [-1.7530406080628456:2.729165492097839] [-2.1343747458109497:0.46852128566581813] [-0.65465367070797709:1.5275252316519465] [-1.2773327473170102:0.78288136125881269] none
tree_sizes=649 656 655 657 657 648 668 672 672 561 673 671 563 675 672 672 673 668 662 668 760 656 638 657 759 768 766 764 765 766 671 646 665 666 771 672 666 668 657 663 669 647 668 668 669 666 770 667 765 669 641 768 669 778 771 562 562 563 563 561 667 668 663 665 670 663 663 566 668 543 646

Tree=0
num_leaves=5
num_cat=0
split_feature=4 5 1 7
split_gain=5.30884 2.52807 1.98904 0.300844
threshold=0.72562472781847609 -0.28280408420188152 -0.60097458891140576 -0.62696000407948393
decision_type=2 2 2 2
left_child=1 2 -1 -3
right_child=-2 3 -4 -5
leaf_value=-0.75960560962585932 -0.7344115329501435 -0.75798055623299931 -0.74354508952881959 -0.76713555678716583
leaf_weight=1.3056000173091886 1.0880000144243238 1.0880000144243243 1.5232000201940539 1.7408000230789182
leaf_count=6 5 5 7 8
internal_value=-0.753772 -0.757628 -0.751245 -0.76422
internal_weight=6.7456 5.6576 2.8288 2.8288
internal_count=31 26 13 13
is_linear=0
shrinkage=1


Tree=1
num_leaves=5
num_cat=0
split_feature=4 5 5 4
split_gain=5.18575 2.49104 1.97186 0.307279
threshold=0.72562472781847609 -0.28280408420188152 -0.82698705281959606 0.26293525757362529
decision_type=2 2 2 2
left_child=1 2 -1 -3
right_child=-2 3 -4 -5
leaf_value=-0.0058304268407056402 0.019061689582936272 -0.013320866229753574 0.010154446360079094 -0.0041191224685538114
leaf_weight=1.3053627610206602 1.095519959926605 1.7352678775787356 1.526271849870682 1.0834587216377256
leaf_count=6 5 8 7 5
internal_value=0 -0.00382622 0.00249691 -0.0103888
internal_weight=6.74588 5.65036 2.83163 2.81873
internal_count=31 26 13 13
is_linear=0
shrinkage=0.01


Tree=2
num_leaves=5
num_cat=0
split_feature=4 5 6 5
split_gain=5.06656 2.45462 1.9429 0.311196
threshold=0.72562472781847609 -0.28280408420188152 0.56766872671611535 0.18760948395488528
decision_type=2 2 2 2
left_child=1 2 -1 -3
right_child=-2 3 -4 -5
leaf_value=0.010053855957329499 0.018772158980363413 -0.013272944638071977 -0.0058071181497202588 -0.0040441191077450521
leaf_weight=1.5305384993553164 1.1027977615594862 1.7290180921554568 1.3038647621870039 1.0796211212873457
leaf_count=7 5 8 6 5
internal_value=0 -0.00379698 0.00246755 -0.0103303
internal_weight=6.74584 5.64304 2.8344 2.80864
internal_count=31 26 13 13
is_linear=0
shrinkage=0.01


Tree=3
num_leaves=5
num_cat=0
split_feature=4 5 5 0
split_gain=4.95112 2.4188 1.91451 0.312619
threshold=0.72562472781847609 -0.28280408420188152 -0.82698705281959606 0.37361344009713199
decision_type=2 2 2 2
left_child=1 2 -1 -3
right_child=-2 3 -4 -5
leaf_value=-0.0057840392691553841 0.018491252590343215 -0.01322018964424811 0.0099548725088953165 -0.0039838425040062773
leaf_weight=1.3023521453142164 1.1098384112119672 1.7220128923654558 1.5347307622432711 1.0765198022127149
leaf_count=6 5 8 7 5
internal_value=0 -0.00376806 0.00243857 -0.0102722
internal_weight=6.74545 5.63562 2.83708 2.79853
internal_count=31 26 13 13
is_linear=0
shrinkage=0.01


Tree=4
num_leaves=5
num_cat=0
split_feature=4 5 6 5
split_gain=4.83925 2.38356 1.88659 0.314024
threshold=0.72562472781847609 -0.28280408420188152 0.56766872671611535 0.18760948395488528
decision_type=2 2 2 2
left_child=1 2 -1 -3
right_child=-2 3 -4 -5
leaf_value=0.0098573448129543866 0.018218577154223974 -0.013168132572297594 -0.0057609101639262252 -0.0039241227862883967
leaf_weight=1.5388370752334597 1.1166468262672422 1.7149725556373598 1.3008382767438886 1.0734293311834333
leaf_count=7 5 8 6 5
internal_value=0 -0.00373947 0.00240995 -0.0102148
internal_weight=6.74472 5.62808 2.83968 2.7884
internal_count=31 26 13 13
is_linear=0
shrinkage=0.01


Tree=5
num_leaves=5
num_cat=0
split_feature=11 9 7 8
split_gain=4.87717 4.0735 1.99588 1.33207
threshold=1.0000000180025095e-35 0.82007770869606611 -0.24400932068966238 -0.42268906240166115
decision_type=2 2 2 2
left_child=1 2 -1 -2
right_child=3 -3 -4 -5
leaf_value=0 0.019172199236996836 0.010644774105097515 -0.013926645726204777 0.0023769571331738217
leaf_weight=1.3015138357877729 1.0920934528112414 1.096620127558708 3.2498437762260437 1.0935044586658476
leaf_count=6 5 5 15 5
internal_value=-0.000545384 -0.00557045 -0.00983725 0.0116783
internal_weight=7.83358 5.64798 4.55136 2.1856
internal_count=36 26 21 10
is_linear=0
shrinkage=0.01


Tree=6
num_leaves=5
num_cat=0
split_feature=11 9 6 8
split_gain=4.77904 4.00488 2.50841 1.29021
threshold=1.0000000180025095e-35 0.82007770869606611 0.75960282432839665 -0.42268906240166115
decision_type=2 2 2 2
left_child=1 2 -1 -2
right_child=3 -3 -4 -5
leaf_value=-0.013903471295380321 0.018879743699512008 0.010511421625555708 0.0025556453436390452 0.0023533617783311304
leaf_weight=3.4485211372375488 1.0994320064783099 1.1006751805543897 1.0862544476985929 1.094421714544296
leaf_count=16 5 5 5 5
internal_value=-0.000533267 -0.00552429 -0.00977504 0.0115334
internal_weight=7.8293 5.63545 4.53478 2.19385
internal_count=36 26 21 10
is_linear=0
shrinkage=0.01


Tree=7
num_leaves=5
num_cat=0
split_feature=11 6 6 1
split_gain=4.68302 2.90904 2.48546 1.20539
threshold=1.0000000180025095e-35 0.71749750848358052 -1.3387478482713413 1.0000000180025095e-35
decision_type=2 2 2 2
left_child=1 2 -1 -2
right_child=3 -3 -4 -5
leaf_value=0.0027059776429246515 0.0024227587214389851 0.0067557068167473601 -0.013843350038833526 0.018458294485527084
leaf_weight=1.0797227621078489 1.0918763875961306 1.313396632671356 3.2294372916221619 1.1099838018417356
leaf_count=5 5 6 15 5
internal_value=-0.000520909 -0.00547828 -0.00950255 0.0113916
internal_weight=7.82442 5.62256 4.30916 2.20186
internal_count=36 26 20 10
is_linear=0
shrinkage=0.01


Tree=8
num_leaves=5
num_cat=0
split_feature=11 9 8 8
split_gain=4.58956 3.93093 1.97541 1.25872
threshold=1.0000000180025095e-35 0.82007770869606611 -0.56982367914159981 -0.42268906240166115
decision_type=2 2 2 2
left_child=1 2 -1 -2
right_child=3 -3 -4 -5
leaf_value=4.7216845463787281e-05 0.018466216341221333 0.010419102706486492 -0.013776269085179982 0.0022110197472398545
leaf_weight=1.2948683798313139 1.1096023768186571 1.1032939553260801 3.2118568569421768 1.0999500453472135
leaf_count=6 5 5 15 5
internal_value=-0.000509123 -0.00543289 -0.00967263 0.0112532
internal_weight=7.81957 5.61002 4.50673 2.20955
internal_count=36 26 21 10
is_linear=0
shrinkage=0.01


Tree=9
num_leaves=4
num_cat=0
split_feature=5 8 3
split_gain=4.35191 3.40854 5.28429
threshold=-0.93389922740067954 -0.42268906240166115 -0.40353824964625012
decision_type=2 2 2
left_child=-1 -2 -3
right_child=1 2 -4
leaf_value=-0.0132793379091914 0.014033066478039202 0.0093561630433177719 -0.013276097738361447
leaf_weight=1.9235475361347196 1.9874304383993147 1.9818839728832243 1.9214121699333193
leaf_count=9 9 9 9
internal_value=-0.000497372 0.0036615 -0.0015882
internal_weight=7.81427 5.89073 3.9033
internal_count=36 27 18
is_linear=0
shrinkage=0.01


Tree=10
num_leaves=5
num_cat=0
split_feature=2 8 0 7
split_gain=4.84485 5.23212 1.48164 0.281969
threshold=0.13459184081117642 -0.42268906240166115 1.0000000180025095e-35 0.14335284598245132
decision_type=2 2 2 2
left_child=2 -2 -1 -4
right_child=1 -3 3 -5
leaf_value=-0.013184950197940483 0.026226623576684111 -0.00091154086613433089 -0.0041878073707114719 0.0025607669444110592
leaf_weight=1.7154859900474551 1.1206244975328448 1.5243446230888364 1.086244121193886 1.0856373906135557
leaf_count=8 5 7 5 5
internal_value=0.000401591 0.0107587 -0.00648767 -0.000410066
internal_weight=6.53234 2.64497 3.88737 2.17188
internal_count=30 12 18 10
is_linear=0
shrinkage=0.01


Tree=11
num_leaves=5
num_cat=0
split_feature=2 8 4 5
split_gain=4.74739 5.08582 1.16304 0.458801
threshold=0.13459184081117642 -0.42268906240166115 -0.13593497539607369 -0.82698705281959606
decision_type=2 2 2 2
left_child=2 -2 3 -1
right_child=1 -3 -4 -5
leaf_value=-0.0055405863509628605 0.025789010068113211 -0.00090326414174284682 -0.013097520419971181 0.0026645024338603773
leaf_weight=1.2855560034513476 1.1298934966325762 1.5238485336303709 1.5108079463243482 1.081809461116791
leaf_count=6 5 7 7 5
internal_value=0.000395892 0.0106223 -0.00644151 -0.00142981
internal_weight=6.53192 2.65374 3.87817 2.36737
internal_count=30 12 18 11
is_linear=0
shrinkage=0.01


Tree=12
num_leaves=4
num_cat=0
split_feature=4 0 6
split_gain=4.58063 3.0644 0.304719
threshold=0.72562472781847609 0.53421678749873569 -1.2293675450992951
decision_type=2 2 2
left_child=1 2 -1
right_child=-2 -3 -4
leaf_value=-0.0041794545955127224 0.014832775877415992 0.0050493782344541672 -0.013242855622292365
leaf_weight=1.0846022963523863 1.5782422274351118 1.951283663511276 1.9171814322471621
leaf_count=5 7 9 9
internal_value=0.000390038 -0.00421655 -0.0105308
internal_weight=6.53131 4.95307 3.00178
internal_count=30 23 14
is_linear=0
shrinkage=0.01


Tree=13
num_leaves=5
num_cat=0
split_feature=2 8 0 1
split_gain=4.57487 4.91785 1.45515 0.268128
threshold=0.13459184081117642 -0.42268906240166115 1.0000000180025095e-35 -0.51599835148040352
decision_type=2 2 2 2
left_child=2 -2 -1 -4
right_child=1 -3 3 -5
leaf_value=-0.013041445192495088 0.025195269270697689 -0.00095845789400873999 -0.0040570021707087003 0.0025409711982480516
leaf_weight=1.6956737339496615 1.1422870606184008 1.5266843289136884 1.0795546323060992 1.0864516198635099
leaf_count=8 5 7 5 5
internal_value=0.000384842 0.0103795 -0.00635814 -0.000340121
internal_weight=6.53065 2.66897 3.86168 2.16601
internal_count=30 12 18 10
is_linear=0
shrinkage=0.01


Tree=14
num_leaves=5
num_cat=0
split_feature=2 8 0 7
split_gain=4.48408 4.78643 1.43855 0.267503
threshold=0.13459184081117642 -0.42268906240166115 1.0000000180025095e-35 0.14335284598245132
decision_type=2 2 2 2
left_child=2 -2 -1 -4
right_child=1 -3 3 -5
leaf_value=-0.012981102161421221 0.024798059626876819 -0.00094976709930885532 -0.0040478125804688367 0.002544671540359345
leaf_weight=1.6870287805795672 1.1505377590656283 1.5261654853820799 1.0791752934455874 1.0862084478139875
leaf_count=8 5 7 5 5
internal_value=0.000379275 0.0102519 -0.00631315 -0.000333087
internal_weight=6.52912 2.6767 3.85241 2.16538
internal_count=30 12 18 10
is_linear=0
shrinkage=0.01


Tree=15
num_leaves=5
num_cat=0
split_feature=8 7 0 0
split_gain=4.01674 2.41497 1.89273 0.925493
threshold=0.10445057896026953 -0.45372444903251546 -1.0000000180025095e-35 -0.82541928658237362
decision_type=2 2 2 2
left_child=1 -1 -3 -2
right_child=3 2 -4 -5
leaf_value=0.017055386556569775 -0.012676966452087062 0.010929712434499882 -0.0060712917274381639 -0.00050944436197671375
leaf_weight=1.7793004661798475 1.2758903950452807 1.0851602256298065 1.3160963803529739 1.4991939961910246
leaf_count=8 6 5 6 7
internal_value=0.00228913 0.00850546 0.0013417 -0.00669783
internal_weight=6.95564 4.18056 2.40126 2.77508
internal_count=32 19 11 13
is_linear=0
shrinkage=0.01


Tree=16
num_leaves=5
num_cat=0
split_feature=8 2 0 0
split_gain=3.93924 1.93912 0.920623 0.914246
threshold=0.10445057896026953 0.13459184081117642 1.0000000180025095e-35 -0.82541928658237362
decision_type=2 2 2 2
left_child=1 2 -1 -2
right_child=3 -3 -4 -5
leaf_value=0.0075456632528156384 -0.012616967940918615 0.015949079858686332 -0.0042306399085934553 -0.00050475947153197224
leaf_weight=1.2809605598449709 1.2696450352668764 1.8229720741510389 1.0877846926450727 1.4989071339368818
leaf_count=6 6 8 5 7
internal_value=0.00226294 0.00840335 0.00178033 -0.00665417
internal_weight=6.96027 4.19172 2.36875 2.76855
internal_count=32 19 11 13
is_linear=0
shrinkage=0.01


Tree=17
num_leaves=5
num_cat=0
split_feature=8 2 0 0
split_gain=3.8636 1.88844 0.903195 0.902322
threshold=0.10445057896026953 0.13459184081117642 -0.82541928658237362 1.0000000180025095e-35
decision_type=2 2 2 2
left_child=1 3 -2 -1
right_child=2 -3 -4 -5
leaf_value=0.0074558123187188031 -0.012557791594820901 0.015729423043864328 -0.000500117417911375 -0.0041977619950494868
leaf_weight=1.2846201658248904 1.2633744031190874 1.8312991410493848 1.4986227750778196 1.0861330032348631
leaf_count=6 6 8 7 5
internal_value=0.00223698 0.00830361 -0.00661093 0.00175832
internal_weight=6.96405 4.20205 2.762 2.37075
internal_count=32 19 13 11
is_linear=0
shrinkage=0.01


Tree=18
num_leaves=5
num_cat=0
split_feature=8 7 3 8
split_gain=3.7897 2.3144 4.29389 0.86818
threshold=0.10445057896026953 -0.45372444903251546 -0.28828081055780214 0.49001972095322271
decision_type=2 2 2 2
left_child=1 -1 -3 -2
right_child=3 2 -4 -5
leaf_value=0.016516879392437969 -0.012445714971208258 0.013106521989925219 -0.012583914148105248 -0.00057648231848581651
leaf_weight=1.7994397580623624 1.252317473292351 1.3358462154865263 1.076758146286011 1.5031038373708723
leaf_count=8 6 6 5 7
internal_value=0.00221138 0.00820575 0.00119825 -0.00656811
internal_weight=6.96747 4.21204 2.4126 2.75542
internal_count=32 19 11 13
is_linear=0
shrinkage=0.01


Tree=19
num_leaves=5
num_cat=0
split_feature=8 7 0 0
split_gain=3.71723 2.2531 1.78297 0.890665
threshold=0.10445057896026953 -0.45372444903251546 1.0000000180025095e-35 -0.82541928658237362
decision_type=2 2 2 2
left_child=1 -1 -3 -2
right_child=3 2 -4 -5
leaf_value=0.016282735245481267 -0.012460869647286377 0.010420457636609506 -0.0060372391243478738 -0.00045987055269870774
leaf_weight=1.8084544688463209 1.2527657151222231 1.0998972505331042 1.3133978098630903 1.4959947168827055
leaf_count=8 6 5 6 7
internal_value=0.0021858 0.00810906 0.0011819 -0.00652585
internal_weight=6.97051 4.22175 2.4133 2.74876
internal_count=32 19 11 13
is_linear=0
shrinkage=0.01


Tree=20
num_leaves=6
num_cat=0
split_feature=9 5 8 5 1
split_gain=2.79416 3.37753 5.09524 2.30135 1.5754
threshold=-0.83999862469677999 -0.82698705281959606 -0.42268906240166115 -0.28280408420188152 0.39360275217079038
decision_type=2 2 2 2 2
left_child=-1 -2 -3 -4 -5
right_child=1 2 3 4 -6
leaf_value=-0.012854443470705934 -0.012333154289026434 0.023815231899988971 0.0098350010694815641 -0.012684568753309733 0.0026567769272147555
leaf_weight=1.2882001549005506 1.0632735341787336 1.1687162816524499 1.5391002446413038 1.2772663831710827 1.0796582251787183
leaf_count=6 5 5 7 6 5
internal_value=0 0.00283438 0.00638936 0.000446597 -0.0054279
internal_weight=7.41621 6.12801 5.06474 3.89602 2.35692
internal_count=34 28 23 18 11
is_linear=0
shrinkage=0.01


Tree=21
num_leaves=5
num_cat=0
split_feature=4 4 6 6
split_gain=3.85443 1.45411 3.65878 1.89396
threshold=1.0447209141942353 -0.13593497539607369 0.56766872671611535 0.75960282432839665
decision_type=2 2 2 2
left_child=1 2 -1 -3
right_child=-2 3 -4 -5
leaf_value=0.013743501252382075 0.015877774032428724 -0.013262047241884669 -0.0076294905078528189 0.0019222625903974259
leaf_weight=1.3156555444002154 1.1697674095630644 2.1104906201362614 1.7104014754295347 1.1054100841283796
leaf_count=6 5 10 8 5
internal_value=0 -0.00320956 0.00148546 -0.00784056
internal_weight=7.41173 6.24196 3.02606 3.2159
internal_count=34 29 14 15
is_linear=0
shrinkage=0.01


Tree=22
num_leaves=5
num_cat=0
split_feature=4 8 4 9
split_gain=3.77225 1.71759 2.9885 0.0309665
threshold=1.0447209141942353 -0.62411011123045579 -0.13593497539607369 -0.34197572467892617
decision_type=2 2 2 2
left_child=1 -1 3 -3
right_child=-2 2 -4 -5
leaf_value=0.0062194012686722687 0.015675855833522531 0.0029392157554865191 -0.013412895466657811 0
leaf_weight=1.331001281738281 1.174251928925514 1.0703731477260592 2.5255039632320408 1.3060100227594369
leaf_count=6 5 5 12 6
internal_value=0 -0.00318148 -0.00600731 0.00168298
internal_weight=7.40714 6.23289 4.90189 2.37638
internal_count=34 29 23 11
is_linear=0
shrinkage=0.01


Tree=23
num_leaves=5
num_cat=0
split_feature=4 8 4 6
split_gain=3.69115 1.68723 2.95336 1.67923
threshold=1.0447209141942353 -0.62411011123045579 -0.13593497539607369 0.56766872671611535
decision_type=2 2 2 2
left_child=1 -1 3 -3
right_child=-2 2 -4 -5
leaf_value=0.006149889605459165 0.015478797531119083 0.010568041779753469 -0.013352648217332301 -0.0054537838100141758
leaf_weight=1.3337016254663465 1.1785603016614912 1.0979736894369123 2.5120487064123158 1.2795929759740827
leaf_count=6 5 5 12 6
internal_value=0 -0.00315095 -0.00596069 0.00166947
internal_weight=7.40188 6.22332 4.88962 2.37757
internal_count=34 29 23 11
is_linear=0
shrinkage=0.01


Tree=24
num_leaves=6
num_cat=0
split_feature=9 5 8 5 2
split_gain=2.75245 3.30565 4.7642 2.23813 1.54108
threshold=-0.83999862469677999 -0.82698705281959606 -0.42268906240166115 -0.28280408420188152 0.45041357451337433
decision_type=2 2 2 2 2
left_child=-1 -2 -3 -4 -5
right_child=1 2 3 4 -6
leaf_value=-0.012797875851652537 -0.01224274534317716 0.023060357921557324 0.0097602901049642816 -0.012540504566093935 0.002680964460251737
leaf_weight=1.2786590456962583 1.0553170293569563 1.1827805638313287 1.5415968298912046 1.2619573622941982 1.0761591643095014
leaf_count=6 5 5 7 6 5
internal_value=0 0.00281983 0.00632978 0.000526689 -0.00530179
internal_weight=7.39647 6.11781 5.06249 3.87971 2.33812
internal_count=34 28 23 18 11
is_linear=0
shrinkage=0.01


Tree=25
num_leaves=6
num_cat=0
split_feature=5 0 5 8 4
split_gain=3.48893 3.91318 3.54023 3.43785 1.40073
threshold=-0.93389922740067954 -0.82541928658237362 0.15125934459731707 -0.17481972943266885 -0.35930230585910511
decision_type=2 2 2 2 2
left_child=-1 3 4 -2 -3
right_child=1 2 -4 -5 -6
leaf_value=-0.012128041106778871 0.0094213240993966628 0.010574115172656799 0.021548509411899223 -0.012764614184082984 -0.0044398195377929016
leaf_weight=1.0446542948484419 1.1263949573040011 1.0990067422389982 2.0639942735433578 1.4690418690443037 1.0980281382799151
leaf_count=5 5 5 9 7 5
internal_value=0.0038287 0.00654302 0.0123802 -0.00277282 0.00276853
internal_weight=7.90112 6.85647 4.26103 2.59544 2.19703
internal_count=36 31 19 12 10
is_linear=0
shrinkage=0.01


Tree=26
num_leaves=6
num_cat=0
split_feature=5 0 5 8 4
split_gain=3.4293 3.82136 3.43817 3.38383 1.37175
threshold=-0.93389922740067954 -0.82541928658237362 0.15125934459731707 -0.17481972943266885 -0.35930230585910511
decision_type=2 2 2 2 2
left_child=-1 3 4 -2 -3
right_child=1 2 -4 -5 -6
leaf_value=-0.012071844573892529 0.0093108237569461301 0.010442078132233655 0.021222916521975166 -0.012706103379850136 -0.004405381459484296
leaf_weight=1.0395134985446928 1.1295362412929537 1.1030184179544447 2.0761745870113373 1.4615467488765714 1.096335753798485
leaf_count=5 5 5 9 7 5
internal_value=0.00378801 0.00647134 0.0122217 -0.00274729 0.00273629
internal_weight=7.90613 6.86661 4.27553 2.59108 2.19935
internal_count=36 31 19 12 10
is_linear=0
shrinkage=0.01


Tree=27
num_leaves=6
num_cat=0
split_feature=2 0 8 0 9
split_gain=2.27732 3.90601 3.33087 2.47091 2.48496
threshold=-0.89834036736877565 -0.82541928658237362 -0.17481972943266885 0.2010317493085573 0.32205480867821229
decision_type=2 2 2 2 2
left_child=-1 2 -2 -3 -5
right_child=1 3 -4 4 -6
leaf_value=-0.0067395513468554184 0.0092022015073575276 0.024772727218043532 -0.012648403519007388 0.014275678457955328 -0.004264906562855538
leaf_weight=1.4949420243501661 1.132605314254761 1.1510101109743121 1.4540258347988126 1.5918805599212649 1.0859234035015104
leaf_count=7 5 5 7 7 5
internal_value=0.00374805 0.00641131 -0.00272209 0.0127483 0.0065141
internal_weight=7.91039 6.41545 2.58663 3.82881 2.6778
internal_count=36 29 12 17 12
is_linear=0
shrinkage=0.01


Tree=28
num_leaves=6
num_cat=0
split_feature=5 0 5 6 4
split_gain=3.33369 3.65604 3.30531 2.53228 1.33539
threshold=-0.93389922740067954 -0.82541928658237362 0.15125934459731707 -1.2293675450992951 -0.35930230585910511
decision_type=2 2 2 2 2
left_child=-1 3 4 -2 -3
right_child=1 2 -4 -5 -6
leaf_value=-0.011987763364283668 0.0063168958160770786 0.010214261855193561 0.020713618873267788 -0.01258331684590234 -0.0044155176060103165
leaf_weight=1.0316802561283109 1.3165800571441653 1.1097148358821867 2.0948013067245483 1.2655048966407774 1.09637126326561
leaf_count=5 6 5 9 6 5
internal_value=0.00371014 0.00634427 0.0119376 -0.00269723 0.00263379
internal_weight=7.91465 6.88297 4.30089 2.58208 2.20609
internal_count=36 31 19 12 10
is_linear=0
shrinkage=0.01


Tree=29
num_leaves=6
num_cat=0
split_feature=5 0 5 6 4
split_gain=3.27711 3.57274 3.21409 2.49458 1.30809
threshold=-0.93389922740067954 -0.82541928658237362 0.15125934459731707 -1.2293675450992951 -0.35930230585910511
decision_type=2 2 2 2 2
left_child=-1 3 4 -2 -3
right_child=1 2 -4 -5 -6
leaf_value=-0.011933301623227911 0.0062463109025751185 0.010089002134510265 0.02041532466982391 -0.012524599599010507 -0.0043812602539235876
leaf_weight=1.0265071243047712 1.3192597478628161 1.1134799420833585 2.1055611819028854 1.2592236995697019 1.0946848690509798
leaf_count=5 6 5 9 6 5
internal_value=0.0036707 0.00627516 0.0117895 -0.00267263 0.00260318
internal_weight=7.91872 6.89221 4.31373 2.57848 2.20816
internal_count=36 31 19 12 10
is_linear=0
shrinkage=0.01


Tree=30
num_leaves=5
num_cat=0
split_feature=4 8 9 11
split_gain=2.93224 2.41286 1.21458 0.272689
threshold=0.72562472781847609 0.10445057896026953 0.32205480867821229 1.0000000180025095e-35
decision_type=2 2 2 2
left_child=1 2 -1 -3
right_child=-2 3 -4 -5
leaf_value=0.0083411455278679016 0.014769453390191298 -0.012422966471725902 -0.002509709896271352 -0.0034078131063975006
leaf_weight=2.0276244133710866 1.1952831745147703 1.4239669144153595 1.736119672656059 1.0422187000513077
leaf_count=9 5 7 8 5
internal_value=0.000989296 -0.00168816 0.00314169 -0.00928407
internal_weight=7.42521 6.22993 3.76374 2.46619
internal_count=34 29 17 12
is_linear=0
shrinkage=0.01


Tree=31
num_leaves=5
num_cat=0
split_feature=4 9 9 6
split_gain=2.87169 2.13686 3.64355 1.35932
threshold=0.72562472781847609 0.32205480867821229 -0.34197572467892617 -1.3387478482713413
decision_type=2 2 2 2
left_child=1 2 -1 -3
right_child=-2 3 -4 -5
leaf_value=-0.0066238323215628402 0.014592916733728369 0 0.014289230827771898 -0.012793160919043063
leaf_weight=1.4858589172363283 1.1988372802734373 1.3112178444862366 1.5904702246189115 1.8368541896343231
leaf_count=7 5 6 7 9
internal_value=0.000977504 -0.00167602 0.00398292 -0.00746624
internal_weight=7.42324 6.2244 3.07633 3.14807
internal_count=34 29 14 15
is_linear=0
shrinkage=0.01


Tree=32
num_leaves=5
num_cat=0
split_feature=4 0 6 2
split_gain=2.81174 2.68701 3.1816 1.17946
threshold=0.72562472781847609 0.53421678749873569 0.54667673556387786 -0.50141057509812537
decision_type=2 2 2 2
left_child=1 2 3 -1
right_child=-2 -3 -4 -5
leaf_value=0.009829815979861569 0.014420295085735205 0.0091121066642603672 -0.013207874738080936 -0.0039290034429304461
leaf_weight=1.1188821643590929 1.2022361904382703 1.5569020360708234 2.4730381816625595 1.0681846141815183
leaf_count=5 5 7 12 5
internal_value=0.000968677 -0.00166137 -0.0055866 0.00279467
internal_weight=7.41924 6.21701 4.6601 2.18707
internal_count=34 29 22 10
is_linear=0
shrinkage=0.01


Tree=33
num_leaves=5
num_cat=0
split_feature=4 0 3 1
split_gain=2.75276 2.63625 2.68941 1.51674
threshold=0.72562472781847609 0.53421678749873569 -0.63924978657965681 -0.60097458891140576
decision_type=2 2 2 2
left_child=1 2 3 -1
right_child=-2 -3 -4 -5
leaf_value=-0.0053139799552766355 0.014251446858314507 0.0090025543933998694 -0.013134781216768199 0.009894712774563991
leaf_weight=1.2600659281015394 1.2054834514856336 1.5612842589616773 2.2714542597532277 1.1168759763240812
leaf_count=6 5 7 11 5
internal_value=0.000961466 -0.001645 -0.00554614 0.00153951
internal_weight=7.41516 6.20968 4.6484 2.37694
internal_count=34 29 22 11
is_linear=0
shrinkage=0.01


Tree=34
num_leaves=6
num_cat=0
split_feature=5 8 7 0 8
split_gain=2.703 2.18345 2.11484 1.12019 0.423142
threshold=-0.93389922740067954 0.25342377361409096 -1.1902724847415154 -1.0000000180025095e-35 -0.38857860373620356
decision_type=2 2 2 2 2
left_child=-1 2 -2 -4 -5
right_child=1 -3 3 4 -6
leaf_value=-0.012013114676144517 -0.0042202668773547612 -0.0062886486366459391 0.017970608795063098 0.00016089048212195928 0.0095779936425810144
leaf_weight=1.1995942294597624 1.084042772650718 1.4579611420631406 1.3819386661052702 1.1619238704442976 1.1256005614995968
leaf_count=6 5 7 6 5 5
internal_value=0.000954132 0.00376754 0.00712396 0.0107636 0.0054206
internal_weight=7.41106 6.21147 4.75351 3.66946 2.28752
internal_count=34 28 21 16 10
is_linear=0
shrinkage=0.01


Tree=35
num_leaves=5
num_cat=0
split_feature=5 0 5 12
split_gain=4.10377 2.87661 1.82177 1.34904
threshold=-0.82698705281959606 -0.82541928658237362 0.27955395409461703 1.0000000180025095e-35
decision_type=2 2 2 2
left_child=-1 -2 3 -3
right_child=1 2 -4 -5
leaf_value=-0.012574763868036834 -0.0064624411993934976 -0.0044502399037047438 0.017065962721061586 0.0091864151276494863
leaf_weight=1.6177151352167127 1.4676810204982755 1.0995199829339981 1.6868753433227537 1.5554303377866745
leaf_count=8 7 5 7 7
internal_value=0.000881223 0.00494678 0.00908727 0.00321941
internal_weight=7.42722 5.80951 4.34183 2.65495
internal_count=34 26 19 12
is_linear=0
shrinkage=0.01


Tree=36
num_leaves=5
num_cat=0
split_feature=5 0 5 8
split_gain=4.03887 2.81966 1.77831 1.45472
threshold=-0.82698705281959606 -0.82541928658237362 0.27955395409461703 -0.38857860373620356
decision_type=2 2 2 2
left_child=-1 -2 3 -3
right_child=1 2 -4 -5
leaf_value=-0.012521056801239643 -0.006417287908963544 -0.0047686326283354575 0.016855430772345265 0.0094010608219237384
leaf_weight=1.6088807582855222 1.4639501273632047 1.1061287075281139 1.6920882165431974 1.5515904575586323
leaf_count=8 7 5 7 7
internal_value=0.000870469 0.00489456 0.008985 0.00318202
internal_weight=7.42264 5.81376 4.34981 2.65772
internal_count=34 26 19 12
is_linear=0
shrinkage=0.01


Tree=37
num_leaves=5
num_cat=0
split_feature=5 0 5 12
split_gain=3.97514 2.76389 1.73662 1.31144
threshold=-0.82698705281959606 -0.82541928658237362 0.27955395409461703 1.0000000180025095e-35
decision_type=2 2 2 2
left_child=-1 -2 3 -3
right_child=1 2 -4 -5
leaf_value=-0.012468063856411589 -0.0063724539546073343 -0.0044238626015947417 0.016650238157700926 0.0090108293390437841
leaf_weight=1.6000311970710752 1.460229694843292 1.0980735123157501 1.6970188021659849 1.562649205327034
leaf_count=8 7 5 7 7
internal_value=0.000859795 0.00484288 0.00888399 0.00314473
internal_weight=7.418 5.81797 4.35774 2.66072
internal_count=34 26 19 12
is_linear=0
shrinkage=0.01


Tree=38
num_leaves=5
num_cat=0
split_feature=4 6 4 6
split_gain=2.65839 1.17302 1.76659 4.56227
threshold=0.72562472781847609 0.75960282432839665 -0.13593497539607369 0.56766872671611535
decision_type=2 2 2 2
left_child=1 2 3 -1
right_child=-2 -3 -4 -5
leaf_value=0.012771242330411901 0.011652161190473707 0.0052365164336463958 -0.012752571716073706 -0.012186446698760194
leaf_weight=1.3443920463323591 1.6747417747974394 1.3602277040481565 1.6476446241140368 1.3856995850801466
leaf_count=6 7 6 8 7
internal_value=0.000849282 -0.00227805 -0.00490107 0
internal_weight=7.41271 5.73796 4.37774 2.73009
internal_count=34 27 21 13
is_linear=0
shrinkage=0.01


Tree=39
num_leaves=5
num_cat=0
split_feature=5 0 5 9
split_gain=3.86451 2.6844 1.66856 1.26532
threshold=-0.82698705281959606 -0.82541928658237362 0.27955395409461703 0.48806244201749688
decision_type=2 2 2 2
left_child=-1 -2 3 -3
right_child=1 2 -4 -5
leaf_value=-0.012375888127313201 -0.0063211666342737503 0.008823615327296655 0.016320259498968905 -0.0043700064354255594
leaf_weight=1.5838654190301893 1.4549053311347959 1.5712646245956423 1.7046584933996198 1.092504948377609
leaf_count=8 7 7 7 5
internal_value=0.000841817 0.00475391 0.00872518 0.0030883
internal_weight=7.4072 5.82333 4.36843 2.66377
internal_count=34 26 19 12
is_linear=0
shrinkage=0.01


Tree=40
num_leaves=5
num_cat=0
split_feature=1 2 3 2
split_gain=4.10124 2.84323 1.88674 0.269286
threshold=0.11160394764682745 1.0221156122717767 -0.67722687837199269 0.13459184081117642
decision_type=2 2 2 2
left_child=2 -2 -1 -4
right_child=1 -3 3 -5
leaf_value=0.001679346139034175 0.018530905898506981 -0.00078597000592927821 -0.013190981974252365 -0.0044348852143762446
leaf_weight=1.7189324200153349 1.3680394887924197 1.3741177171468733 2.083082422614098 1.0779537260532377
leaf_count=8 6 6 10 5
internal_value=-0.000637258 0.00881214 -0.00621821 -0.0107393
internal_weight=7.62213 2.74216 4.87997 3.16104
internal_count=35 12 23 15
is_linear=0
shrinkage=0.01


Tree=41
num_leaves=5
num_cat=0
split_feature=1 3 1 3
split_gain=4.02253 1.86318 1.70372 0.255469
threshold=0.11160394764682745 -0.67722687837199269 0.8532742519829436 0.64444140173461684
decision_type=2 2 2 2
left_child=1 -1 -2 -3
right_child=2 3 -4 -5
leaf_value=0.0016625787426517798 0.015831273355060169 -0.013113778832807121 0 -0.0044773995527913873
leaf_weight=1.719908609986305 1.4414208233356478 2.0661187916994099 1.3071045130491254 1.0822191089391706
leaf_count=8 6 10 6 5
internal_value=-0.00063127 -0.00617391 0.00870702 -0.0106822
internal_weight=7.61677 4.86825 2.74853 3.14834
internal_count=35 23 12 15
is_linear=0
shrinkage=0.01


Tree=42
num_leaves=5
num_cat=0
split_feature=1 2 5 0
split_gain=3.94949 2.75348 1.86726 0.440366
threshold=0.11160394764682745 1.0221156122717767 0.27955395409461703 -0.7872611044533967
decision_type=2 2 2 2
left_child=2 -2 3 -1
right_child=1 -3 -4 -5
leaf_value=-0.0031107927791109631 0.018135635012935251 -0.00083121012906181232 0.0021641721354258405 -0.013029775473385612
leaf_weight=1.0185290127992632 1.3777255862951281 1.3747677356004713 1.5920747071504591 2.2458517849445343
leaf_count=5 6 6 7 11
internal_value=-0.00062393 0.0086148 -0.00613008 -0.0104166
internal_weight=7.60895 2.75249 4.85646 3.26438
internal_count=35 12 23 16
is_linear=0
shrinkage=0.01


Tree=43
num_leaves=5
num_cat=0
split_feature=1 2 3 2
split_gain=3.87429 2.68821 1.84529 0.269276
threshold=0.11160394764682745 1.0221156122717767 -0.67722687837199269 0.13459184081117642
decision_type=2 2 2 2
left_child=2 -2 -1 -4
right_child=1 -3 3 -5
leaf_value=0.0017105726404621317 0.017891013660518883 -0.0008236221259247217 -0.013056212177727155 -0.0043084387604152355
leaf_weight=1.71608629822731 1.3839330375194552 1.3744819611310957 2.0565017312765126 1.0710227489471433
leaf_count=8 6 6 10 5
internal_value=-0.000617997 0.00851334 -0.00608755 -0.0105967
internal_weight=7.60203 2.75841 4.84361 3.12752
internal_count=35 12 23 15
is_linear=0
shrinkage=0.01


Tree=44
num_leaves=5
num_cat=0
split_feature=1 2 5 0
split_gain=3.80052 2.62518 1.84829 0.436079
threshold=0.11160394764682745 1.0221156122717767 0.27955395409461703 -0.7872611044533967
decision_type=2 2 2 2
left_child=2 -2 3 -1
right_child=1 -3 -4 -5
leaf_value=-0.0030572138198169648 0.017653023318141843 -0.00081610230849333155 0.0022036389623634411 -0.012946691668874983
leaf_weight=1.015602305531502 1.3898826241493227 1.3741984367370603 1.5895893424749372 2.2266612648963928
leaf_count=5 6 6 7 11
internal_value=-0.000612287 0.00841381 -0.00604437 -0.0103323
internal_weight=7.59593 2.76408 4.83185 3.24226
internal_count=35 12 23 16
is_linear=0
shrinkage=0.01


Tree=45
num_leaves=5
num_cat=0
split_feature=4 3 6 5
split_gain=3.41326 2.88352 3.6586 0.450802
threshold=0.72562472781847609 -0.40353824964625012 0.56766872671611535 -0.28280408420188152
decision_type=2 2 2 2
left_child=1 2 -1 -3
right_child=-2 3 -4 -5
leaf_value=0.014429930032707495 0.01279350217674774 -0.0026644938798306666 -0.0065897026890454347 -0.013012282246286247
leaf_weight=1.5873938202857973 1.9144063293933866 0.99848540127277408 1.4689605832099912 1.679443225264549
leaf_count=7 8 5 7 8
internal_value=0.0015099 -0.00224047 0.00412184 -0.00974882
internal_weight=7.64869 5.73428 3.05635 2.67793
internal_count=35 27 14 13
is_linear=0
shrinkage=0.01


Tree=46
num_leaves=6
num_cat=0
split_feature=1 3 8 3 0
split_gain=5.69937 2.91457 2.05785 1.45777 1.19696
threshold=0.11160394764682745 -0.11599843613193127 -0.17481972943266885 -0.63924978657965681 0.64178287143053181
decision_type=2 2 2 2 2
left_child=2 -2 3 -1 -5
right_child=1 -3 -4 4 -6
leaf_value=0.0090512285076883494 0.022403134927982071 0.00032766391579058677 -0.012732613032242903 -0.011926798691705874 0.0020093516060047337
leaf_weight=1.1279520690441134 1.4402984976768496 1.1368650943040846 1.8198139071464536 1.025130093097687 1.0956537723541258
leaf_count=5 6 5 9 5 5
internal_value=0.00149325 0.0134145 -0.00451703 2.91941e-05 -0.00451044
internal_weight=7.64571 2.57716 5.06855 3.24874 2.12078
internal_count=35 11 24 15 10
is_linear=0
shrinkage=0.01


Tree=47
num_leaves=5
num_cat=0
split_feature=1 2 7 12
split_gain=5.5864 2.59521 1.49578 1.27262
threshold=0.11160394764682745 1.0221156122717767 0.14335284598245132 1.0000000180025095e-35
decision_type=2 2 2 2
left_child=2 -2 3 -1
right_child=1 -3 -4 -5
leaf_value=-0.0072686631925883254 0.021708784650523914 0.00074709385949054351 -0.012292364522559008 0.0045112162053277888
leaf_weight=1.5300210267305374 1.4507634043693545 1.132187485694885 1.5711937695741651 1.9556094408035278
leaf_count=7 6 5 8 9
internal_value=0.0014817 0.0132637 -0.00448293 -0.000439191
internal_weight=7.63978 2.58295 5.05682 3.48563
internal_count=35 11 24 16
is_linear=0
shrinkage=0.01


Tree=48
num_leaves=6
num_cat=0
split_feature=1 3 8 3 0
split_gain=5.47826 2.79606 2.01929 1.42663 1.1862
threshold=0.11160394764682745 -0.11599843613193127 -0.17481972943266885 -0.63924978657965681 0.64178287143053181
decision_type=2 2 2 2 2
left_child=2 -2 3 -1 -5
right_child=1 -3 -4 4 -6
leaf_value=0.0089510092402861011 0.02187761007003294 0.00027535907745722155 -0.012639614888802457 -0.011870734816172086 0.0020212623909372767
leaf_weight=1.1305955797433855 1.4504948705434801 1.1373425424098966 1.8017962723970411 1.0199124366045 1.0946802794933317
leaf_count=5 6 5 9 5 5
internal_value=0.00146862 0.013119 -0.00444966 4.05511e-05 -0.00446106
internal_weight=7.63482 2.58784 5.04698 3.24519 2.11459
internal_count=35 11 24 15 10
is_linear=0
shrinkage=0.01


Tree=49
num_leaves=5
num_cat=0
split_feature=4 3 6 2
split_gain=3.19483 2.75712 3.45301 0.452647
threshold=0.72562472781847609 -0.40353824964625012 0.56766872671611535 -0.50141057509812537
decision_type=2 2 2 2
left_child=1 2 -1 -3
right_child=-2 3 -4 -5
leaf_value=0.013945479097654728 0.012339122578543813 -0.0025022112630656841 -0.0064674641220430207 -0.012874544166623978
leaf_weight=1.6009272634983065 1.9235070794820783 0.98844379186630282 1.4575598835945127 1.6576280295848844
leaf_count=7 8 5 7 8
internal_value=0.0014574 -0.00218886 0.00400406 -0.00959632
internal_weight=7.62807 5.70456 3.05849 2.64607
internal_count=35 27 14 13
is_linear=0
shrinkage=0.01


Tree=50
num_leaves=5
num_cat=0
split_feature=1 6 0 4
split_gain=5.34284 1.36748 1.66731 0.106556
threshold=0.11160394764682745 -1.3847890695240366 0.64178287143053181 1.6669584776269657
decision_type=2 2 2 2
left_child=1 -1 -3 -2
right_child=3 2 -4 -5
leaf_value=0.00276648994960916 0.014516823530513012 -0.01303140088426738 0 0.0062904705442657907
leaf_weight=1.0690034180879591 1.1875100731849673 2.9708956331014633 1.2949008643627165 1.2041819244623182
leaf_count=5 5 15 6 5
internal_value=-0.000795559 -0.00646223 -0.00901438 0.011195
internal_weight=7.72649 5.3348 4.2658 2.39169
internal_count=36 26 21 10
is_linear=0
shrinkage=0.01


Tree=51
num_leaves=6
num_cat=0
split_feature=4 5 4 2 0
split_gain=2.96191 1.6571 2.87395 0.301239 0.176605
threshold=1.0447209141942353 -0.28280408420188152 -1.1012009391827449 0.13459184081117642 1.0000000180025095e-35
decision_type=2 2 2 2 2
left_child=1 2 -1 -3 -4
right_child=-2 3 4 -5 -6
leaf_value=-0.011642143148948167 0.01033339658156099 -0.012843560690626747 0.002559352866626436 -0.0036531203176201335 0.010360048742864832
leaf_weight=1.1464850157499311 1.7028436511754987 1.6509384810924532 1.0736633390188224 1.041718393564224 1.0987533330917356
leaf_count=6 7 8 5 5 5
internal_value=-0.000782967 -0.00421299 0.00026652 -0.00990423 0.00722709
internal_weight=7.7144 6.01156 3.3189 2.69266 2.17242
internal_count=36 29 16 13 10
is_linear=0
shrinkage=0.01


Tree=52
num_leaves=5
num_cat=0
split_feature=1 6 6 5
split_gain=5.17738 1.34148 1.29238 0.266676
threshold=0.11160394764682745 -1.3847890695240366 0.75960282432839665 1.2492473775450441
decision_type=2 2 2 2
left_child=1 -1 -3 -2
right_child=3 2 -4 -5
leaf_value=0.0027397092235067538 0.015009405849758442 -0.012904037919681097 -0.00060424546083897516 0.0054732881709716784
leaf_weight=1.0697084218263624 1.1843941509723666 2.7491662204265594 1.4879767298698423 1.2135111242532728
leaf_count=5 5 14 7 5
internal_value=-0.000775604 -0.00638461 -0.00892875 0.0109961
internal_weight=7.70476 5.30685 4.23714 2.39791
internal_count=36 26 21 10
is_linear=0
shrinkage=0.01


Tree=53
num_leaves=6
num_cat=0
split_feature=2 7 3 2 3
split_gain=1.63773 1.16401 1.59106 1.42211 0.272029
threshold=0.67345309534595932 -0.68939945976732309 -0.28828081055780214 -0.58889858071168377 0.64444140173461684
decision_type=2 2 2 2 2
left_child=1 -1 3 -3 -4
right_child=-2 2 4 -5 -6
leaf_value=-0.012301183526940056 0.0082558479127722538 -0.0045897144444896195 -0.0023221710173350319 0.0084330651374587961 -0.011683903060193384
leaf_weight=1.052465960383415 1.4587526172399519 1.2082881480455392 0.97697369754314445 1.9979479759931567 0.99922055006027222
leaf_count=5 6 6 5 9 5
internal_value=-0.000765304 -0.00313081 -0.000881534 0.00323252 -0.00787215
internal_weight=7.69365 6.2349 5.18243 3.20624 1.97619
internal_count=36 30 25 15 10
is_linear=0
shrinkage=0.01


Tree=54
num_leaves=6
num_cat=0
split_feature=4 5 4 3 9
split_gain=2.81748 1.63051 2.7944 0.192558 0.132706
threshold=1.0447209141942353 -0.28280408420188152 -1.1012009391827449 -0.63924978657965681 0.48806244201749688
decision_type=2 2 2 2 2
left_child=1 2 -1 -4 -3
right_child=-2 4 3 -5 -6
leaf_value=-0.011528393247141069 0.010048263082193427 -0.0050457712158399797 0.0024401489706243088 0.010378698001537623 -0.012633218193156619
leaf_weight=1.1306982487440107 1.7084433138370512 1.2323761731386187 1.0828797668218615 1.0922464281320574 1.439691975712776
leaf_count=6 7 6 5 5 7
internal_value=-0.000761593 -0.00413001 0.000314871 0.00714702 -0.00980284
internal_weight=7.68634 5.97789 3.30582 2.17513 2.67207
internal_count=36 29 16 10 13
is_linear=0
shrinkage=0.01


Tree=55
num_leaves=4
num_cat=0
split_feature=1 1 0
split_gain=4.41369 4.01972 2.13412
threshold=0.39360275217079038 0.8532742519829436 0.64178287143053181
decision_type=2 2 2
left_child=2 -2 -1
right_child=1 -3 -4
leaf_value=-0.013072159537261589 0.020124275175489408 -0.0047760502984261766 0.0024175825939972747
leaf_weight=2.9398519992828369 1.2272270172834399 1.1090717166662214 1.0769630074501035
leaf_count=15 5 5 5
internal_value=-0.00231782 0.00818245 -0.0087184
internal_weight=6.35311 2.3363 4.01682
internal_count=30 10 20
is_linear=0
shrinkage=0.01


Tree=56
num_leaves=4
num_cat=0
split_feature=1 1 0
split_gain=4.33854 3.93817 2.11199
threshold=0.39360275217079038 0.8532742519829436 0.64178287143053181
decision_type=2 2 2
left_child=2 -2 -1
right_child=1 -3 -4
leaf_value=-0.013020293461981825 0.019900103095172084 -0.0047390605446930266 0.0023936378692189196
leaf_weight=2.9225324243307114 1.2297545969486239 1.107340410351753 1.0778546333312986
leaf_count=15 5 5 5
internal_value=-0.00229815 0.00810005 -0.00866623
internal_weight=6.33748 2.3371 4.00039
internal_count=30 10 20
is_linear=0
shrinkage=0.01


Tree=57
num_leaves=4
num_cat=0
split_feature=1 1 0
split_gain=4.26488 3.85915 2.0902
threshold=0.39360275217079038 0.8532742519829436 0.64178287143053181
decision_type=2 2 2
left_child=2 -2 -1
right_child=1 -3 -4
leaf_value=-0.012969171274894626 0.019682350132716228 -0.0047023519989402565 0.0023699518804733487
leaf_weight=2.9051931649446492 1.2320209145545962 1.1056142151355741 1.0787355601787565
leaf_count=15 5 5 5
internal_value=-0.00227877 0.00801928 -0.00861458
internal_weight=6.32156 2.33764 3.98393
internal_count=30 10 20
is_linear=0
shrinkage=0.01


Tree=58
num_leaves=4
num_cat=0
split_feature=1 1 0
split_gain=4.19268 3.78256 2.06875
threshold=0.39360275217079038 0.8532742519829436 0.64178287143053181
decision_type=2 2 2
left_child=2 -2 -1
right_child=1 -3 -4
leaf_value=-0.012918775840122503 0.019470744149342661 -0.0046659224849085537 0.002346522311837062
leaf_weight=2.8878380507230763 1.2340327054262163 1.1038932949304578 1.0796058923006056
leaf_count=15 5 5 5
internal_value=-0.00225965 0.00794008 -0.00856342
internal_weight=6.30537 2.33793 3.96744
internal_count=30 10 20
is_linear=0
shrinkage=0.01


Tree=59
num_leaves=4
num_cat=0
split_feature=1 1 0
split_gain=4.12189 3.70828 2.04763
threshold=0.39360275217079038 0.8532742519829436 0.64178287143053181
decision_type=2 2 2
left_child=2 -2 -1
right_child=1 -3 -4
leaf_value=-0.012869090207564061 0.019265026944576234 -0.0046297692732647213 0.0023233439819952688
leaf_weight=2.87047091126442 1.2357966005802157 1.1021778285503385 1.0804657936096189
leaf_count=15 5 5 5
internal_value=-0.0022408 0.00786241 -0.00851275
internal_weight=6.28891 2.33797 3.95094
internal_count=30 10 20
is_linear=0
shrinkage=0.01


Tree=60
num_leaves=5
num_cat=0
split_feature=7 2 6 7
split_gain=3.60209 2.96358 2.21659 0.482719
threshold=0.36087290628628432 0.33911841324891751 -1.2293675450992951 -0.62696000407948393
decision_type=2 2 2 2
left_child=1 2 -1 -4
right_child=-2 -3 3 -5
leaf_value=0.0062077028622569844 -0.012956310631940368 0.011184322693642793 -0.01245910542072185 -0.0017941319529026446
leaf_weight=1.3210439383983614 2.3666629195213318 1.9525934457778928 1.5873899459838869 0.94380709528923024
leaf_count=6 12 8 8 5
internal_value=-0.0027899 0.00133487 -0.00356119 -0.00908183
internal_weight=8.1715 5.80483 3.85224 2.5312
internal_count=39 27 19 13
is_linear=0
shrinkage=0.01


Tree=61
num_leaves=5
num_cat=0
split_feature=8 2 6 5
split_gain=5.58546 3.12616 2.68033 0.353148
threshold=0.10445057896026953 0.33911841324891751 -1.2293675450992951 -0.52228735526350833
decision_type=2 2 2 2
left_child=1 2 -1 -4
right_child=-2 -3 3 -5
leaf_value=0.0098127061408722609 -0.013122416825299826 0.014130356539427161 -0.0022505360882097694 -0.012169933788305847
leaf_weight=1.108880862593651 3.1251498907804489 1.7365444451570509 0.97299475967884097 1.2093079686164854
leaf_count=5 16 7 5 6
internal_value=-0.00276962 0.0036009 -0.00191279 -0.00847784
internal_weight=8.15288 5.02773 3.29118 2.1823
internal_count=39 23 16 11
is_linear=0
shrinkage=0.01


Tree=62
num_leaves=5
num_cat=0
split_feature=8 7 5 3
split_gain=5.50778 3.46213 2.65916 0.540084
threshold=0.10445057896026953 -1.1902724847415154 -0.36726470212093748 -0.28828081055780214
decision_type=2 2 2 2
left_child=1 -1 -3 -4
right_child=-2 2 3 -5
leaf_value=-0.011859701167197534 -0.013070480709070628 -0.0039735469984508408 0.017067643280423334 0.005750411267022899
leaf_weight=1.0087054073810575 3.106682151556015 1.1662283092737196 1.6601672172546384 1.1898327916860583
leaf_count=5 16 6 7 5
internal_value=-0.00274967 0.00356661 0.00787798 0.0130369
internal_weight=8.13162 5.02493 4.01623 2.85
internal_count=39 23 18 12
is_linear=0
shrinkage=0.01


Tree=63
num_leaves=5
num_cat=0
split_feature=8 7 5 3
split_gain=5.43104 3.40415 2.60539 0.522937
threshold=0.10445057896026953 -1.1902724847415154 -0.36726470212093748 -0.28828081055780214
decision_type=2 2 2 2
left_child=1 -1 -3 -4
right_child=-2 2 3 -5
leaf_value=-0.011806950416863846 -0.013019294604708345 -0.0039436202098166355 0.016862608508883763 0.0056937179273553531
leaf_weight=1.0035525709390638 3.0881931185722351 1.1640972197055814 1.664742514491081 1.1906549632549288
leaf_count=5 16 6 7 5
internal_value=-0.00272991 0.00353151 0.00779748 0.012894
internal_weight=8.11124 5.02305 4.01949 2.8554
internal_count=39 23 18 12
is_linear=0
shrinkage=0.01


Tree=64
num_leaves=5
num_cat=0
split_feature=8 7 5 0
split_gain=5.35561 3.34737 2.55304 0.286344
threshold=0.10445057896026953 -1.1902724847415154 -0.36726470212093748 -1.0000000180025095e-35
decision_type=2 2 2 2
left_child=1 -1 -3 -4
right_child=-2 2 3 -5
leaf_value=-0.011754812560205821 -0.012968841734196457 -0.0039138947785859329 0.016049367160662225 0.0064514045448096384
leaf_weight=0.9983931928873061 3.0696869641542435 1.1619790643453596 1.6725950986146925 1.1879143863916399
leaf_count=5 16 6 7 5
internal_value=-0.00271043 0.0034969 0.00771831 0.0127538
internal_weight=8.09057 5.02088 4.02249 2.86051
internal_count=39 23 18 12
is_linear=0
shrinkage=0.01


Tree=65
num_leaves=5
num_cat=0
split_feature=1 1 7 4
split_gain=2.57455 3.7327 1.88345 1.06839
threshold=0.97448770201226398 0.39360275217079038 0.36087290628628432 -0.048183524142739929
decision_type=2 2 2 2
left_child=1 2 3 -1
right_child=-2 -3 -4 -5
leaf_value=0.010985700940598206 -0.011795658751192727 0.016720743585715365 -0.011278463592029078 -0.0011944845124010667
leaf_weight=1.0761566162109375 1.0082956254482267 1.680224224925041 1.0999864190816877 1.5020897835493092
leaf_count=5 5 7 6 7
internal_value=0.00188144 0.0048072 -0.00066877 0.00373649
internal_weight=6.36675 5.35846 3.67823 2.57825
internal_count=30 25 18 12
is_linear=0
shrinkage=0.01


Tree=66
num_leaves=5
num_cat=0
split_feature=1 1 7 4
split_gain=2.53386 3.65179 1.85604 1.0452
threshold=0.97448770201226398 0.39360275217079038 0.36087290628628432 -0.048183524142739929
decision_type=2 2 2 2
left_child=1 2 3 -1
right_child=-2 -3 -4 -5
leaf_value=0.010847405806015051 -0.011743533452443743 0.016521966388438187 -0.011235175958610923 -0.0011837246751355
leaf_weight=1.0802321434020996 1.0031132251024244 1.6846154481172559 1.0935996323823927 1.5014978498220448
leaf_count=5 5 7 6 7
internal_value=0.00186094 0.00475862 -0.000663141 0.00369415
internal_weight=6.36306 5.35995 3.67533 2.58173
internal_count=30 25 18 12
is_linear=0
shrinkage=0.01


Tree=67
num_leaves=4
num_cat=0
split_feature=1 1 4
split_gain=2.49395 3.57579 1.34226
threshold=0.97448770201226398 1.0000000180025095e-35 -0.13593497539607369
decision_type=2 2 2
left_child=1 2 -1
right_child=-2 -3 -4
leaf_value=0.0048656873691353764 -0.011692010704422693 0.01455328389204256 -0.0075213415689981689
leaf_weight=1.4631191641092303 0.99792498350143422 2.1171452850103378 1.7808351516723631
leaf_count=7 5 9 9
internal_value=0.00184069 0.00471077 -0.00165695
internal_weight=6.35902 5.3611 3.24395
internal_count=30 25 16
is_linear=0
shrinkage=0.01


Tree=68
num_leaves=5
num_cat=0
split_feature=6 4 8 0
split_gain=2.61476 2.52449 0.453533 0.192631
threshold=0.68162887539249184 -0.13593497539607369 0.25342377361409096 -0.8078629262066811
decision_type=2 2 2 2
left_child=1 2 -1 -3
right_child=-2 3 -4 -5
leaf_value=0.009551205684010685 0.012455210769081532 -0.012008855748371232 9.7321063557573293e-05 -0.0036172435902190759
leaf_weight=1.1068479120731356 1.6226928085088728 1.3423731029033659 1.2682668715715406 1.0157309621572497
leaf_count=5 7 7 6 5
internal_value=0.00182149 -0.00179944 0.00511492 -0.00909527
internal_weight=6.35591 4.73322 2.37511 2.3581
internal_count=30 23 11 12
is_linear=0
shrinkage=0.01


Tree=69
num_leaves=4
num_cat=0
split_feature=6 3 6
split_gain=2.55949 4.71756 1.55385
threshold=0.68162887539249184 -0.49550206865752472 -1.2293675450992951
decision_type=2 2 2
left_child=1 2 -1
right_child=-2 -3 -4
leaf_value=0.014917584028971068 0.012309302346530172 -0.012646509943126476 0
leaf_weight=1.1802064776420593 1.6266732960939405 2.1358911693096165 1.4111847132444377
leaf_count=5 7 11 7
internal_value=0.00180469 -0.00178294 0.00693674
internal_weight=6.35396 4.72728 2.59139
internal_count=30 23 12
is_linear=0
shrinkage=0.01


Tree=70
num_leaves=5
num_cat=0
split_feature=1 1 6 9
split_gain=2.2291 3.51879 2.08689 1.53287
threshold=-0.2204573793717555 0.97448770201226398 0.54667673556387786 -0.67399099135749541
decision_type=2 2 2 2
left_child=2 3 -1 -2
right_child=1 -3 -4 -5
leaf_value=0.0011203730492036347 0 -0.011563856002534203 -0.012551890053005426 0.013831084176902162
leaf_weight=1.8463075906038282 1.1649254113435747 0.98460896313190449 2.276568666100502 2.1176111698150635
leaf_count=9 5 5 12 9
internal_value=-0.00105052 0.00383108 -0.00631083 0.00894984
internal_weight=8.39002 4.26715 4.12288 3.28254
internal_count=40 19 21 14
is_linear=0
shrinkage=0.01


end of trees

feature_importances:
Column_5=42
Column_0=39
Column_4=35
Column_1=34
Column_8=33
Column_6=26
Column_2=22
Column_3=19
Column_7=17
Column_9=13
Column_11=5
Column_12=3

parameters:
[boosting: gbdt]
[objective: binary]
[metric: auc]
[tree_learner: serial]
[device_type: cpu]
[data_sample_strategy: bagging]
[data: ]
[valid: ]
[num_iterations: 1000]
[learning_rate: 0.01]
[num_leaves: 15]
[num_threads: 0]
[seed: 42]
[deterministic: 1]
[force_col_wise: 1]
[force_row_wise: 0]
[histogram_pool_size: -1]
[max_depth: -1]
[min_data_in_leaf: 5]
[min_sum_hessian_in_leaf: 0.001]
[bagging_fraction: 0.7]
[pos_bagging_fraction: 1]
[neg_bagging_fraction: 1]
[bagging_freq: 5]
[bagging_seed: 400]
[bagging_by_query: 0]
[feature_fraction: 0.8]
[feature_fraction_bynode: 1]
[feature_fraction_seed: 30056]
[extra_trees: 0]
[extra_seed: 12879]
[early_stopping_round: 0]
[early_stopping_min_delta: 0]
[first_metric_only: 0]
[max_delta_step: 0]
[lambda_l1: 0.1]
[lambda_l2: 0.1]
[linear_lambda: 0]
[min_gain_to_split: 0.01]
[drop_rate: 0.1]
[max_drop: 50]
[skip_drop: 0.5]
[xgboost_dart_mode: 0]
[uniform_drop: 0]
[drop_seed: 17869]
[top_rate: 0.2]
[other_rate: 0.1]
[min_data_per_group: 100]
[max_cat_threshold: 32]
[cat_l2: 10]
[cat_smooth: 10]
[max_cat_to_onehot: 4]
[top_k: 20]
[monotone_constraints: ]
[monotone_constraints_method: basic]
[monotone_penalty: 0]
[feature_contri: ]
[forcedsplits_filename: ]
[refit_decay_rate: 0.9]
[cegb_tradeoff: 1]
[cegb_penalty_split: 0]
[cegb_penalty_feature_lazy: ]
[cegb_penalty_feature_coupled: ]
[path_smooth: 0]
[interaction_constraints: ]
[verbosity: -1]
[saved_feature_importance_type: 0]
[use_quantized_grad: 0]
[num_grad_quant_bins: 4]
[quant_train_renew_leaf: 0]
[stochastic_rounding: 1]
[linear_tree: 0]
[max_bin: 255]
[max_bin_by_feature: ]
[min_data_in_bin: 3]
[bin_construct_sample_cnt: 200000]
[data_random_seed: 175]
[is_enable_sparse: 1]
[enable_bundle: 1]
[use_missing: 1]
[zero_as_missing: 0]
[feature_pre_filter: 1]
[pre_partition: 0]
[two_round: 0]
[header: 0]
[label_column: ]
[weight_column: ]
[group_column: ]
[ignore_column: ]
[categorical_feature: ]
[forcedbins_filename: ]
[precise_float_parser: 0]
[parser_config_file: ]
[objective_seed: 16083]
[num_class: 1]
[is_unbalance: 0]
[scale_pos_weight: 1]
[sigmoid: 1]
[boost_from_average: 1]
[reg_sqrt: 0]
[alpha: 0.9]
[fair_c: 1]
[poisson_max_delta_step: 0.7]
[tweedie_variance_power: 1.5]
[lambdarank_truncation_level: 30]
[lambdarank_norm: 1]
[label_gain: ]
[lambdarank_position_bias_regularization: 0]
[eval_at: ]
[multi_error_top_k: 1]
[auc_mu_weights: ]
[num_machines: 1]
[local_listen_port: 12400]
[time_out: 120]
[machine_list_filename: ]
[machines: ]
[gpu_platform_id: -1]
[gpu_device_id: -1]
[gpu_use_dp: 0]
[num_gpu: 1]

end of parameters

pandas_categorical:null
