tree
version=v4
num_class=1
num_tree_per_iteration=1
label_index=0
max_feature_idx=13
objective=binary sigmoid:1
feature_names=Column_0 Column_1 Column_2 Column_3 Column_4 Column_5 Column_6 Column_7 Column_8 Column_9 Column_10 Column_11 Column_12 Column_13
feature_infos=[-0.88588770630523472:3.1088242388506653] [-1.183407855719641:3.2981155884742011] [-1.7962854922153955:2.4682655999244978] [-1.0497101164015681:3.8632024976493726] [-1.5240033861306257:2.161557566509392] [-1.7464317542169139:2.4488019763447997] [-1.5274437083327048:1.0689933401986158] [-2.0819011250665094:2.4958611424821724] [-1.4346326694769052:3.8170232233828183] [-1.7530406080628456:2.729165492097839] none [-0.65465367070797709:1.5275252316519465] [-1.2773327473170102:0.78288136125881269] none
tree_sizes=353 354 356 352 354 362 361 362 362 360 354 354 355 355 354 353 352 349 351 352 354 352 354 354 352 339 340 361 361 362 362 362

Tree=0
num_leaves=2
num_cat=0
split_feature=3
split_gain=0.370098
threshold=-0.49550206865752472
decision_type=2
left_child=-1
right_child=-2
leaf_value=-0.75315905695776231 -0.7569887137697352
leaf_weight=2.6112000346183777 3.4816000461578369
leaf_count=12 16
internal_value=-0.753772
internal_weight=6.0928
internal_count=28
is_linear=0
shrinkage=1


Tree=1
num_leaves=2
num_cat=0
split_feature=1
split_gain=0.368605
threshold=1.0000000180025095e-35
decision_type=2
left_child=-1
right_child=-2
leaf_value=-0.0032075227621748081 0.00063584387246942687
leaf_weight=3.4802654236555099 2.60907281935215
leaf_count=16 12
internal_value=0
internal_weight=6.08934
internal_count=28
is_linear=0
shrinkage=0.01


Tree=2
num_leaves=2
num_cat=0
split_feature=1
split_gain=0.361678
threshold=1.0000000180025095e-35
decision_type=2
left_child=-1
right_child=-2
leaf_value=-0.0031791461876248899 0.00062934085204669377
leaf_weight=3.4762362390756607 2.6096715331077576
leaf_count=16 12
internal_value=0
internal_weight=6.08591
internal_count=28
is_linear=0
shrinkage=0.01


Tree=3
num_leaves=2
num_cat=0
split_feature=3
split_gain=0.360299
threshold=-0.49550206865752472
decision_type=2
left_child=-1
right_child=-2
leaf_value=0.00065221746325661446 -0.0031700626837256208
leaf_weight=2.6075602769851685 3.474935382604599
leaf_count=12 16
internal_value=0
internal_weight=6.0825
internal_count=28
is_linear=0
shrinkage=0.01


Tree=4
num_leaves=2
num_cat=0
split_feature=3
split_gain=0.353524
threshold=-0.49550206865752472
decision_type=2
left_child=-1
right_child=-2
leaf_value=0.00064554224994467133 -0.0031419932111418658
leaf_weight=2.6081751734018326 3.4709390550851822
leaf_count=12 16
internal_value=0
internal_weight=6.07911
internal_count=28
is_linear=0
shrinkage=0.01


Tree=5
num_leaves=2
num_cat=0
split_feature=7
split_gain=1.94004
threshold=0.043415782395120998
decision_type=2
left_child=-1
right_child=-2
leaf_value=0.0083963810710087107 -0.0018732027068268263
leaf_weight=2.6021701395511627 3.9065692275762558
leaf_count=12 18
internal_value=0.000696143
internal_weight=6.50874
internal_count=30
is_linear=0
shrinkage=0.01


Tree=6
num_leaves=2
num_cat=0
split_feature=7
split_gain=1.8974
threshold=0.043415782395120998
decision_type=2
left_child=-1
right_child=-2
leaf_value=0.0082870402351577152 -0.0018557402954612811
leaf_weight=2.6100984215736389 3.9039097726345062
leaf_count=12 18
internal_value=0.000673218
internal_weight=6.51401
internal_count=30
is_linear=0
shrinkage=0.01


Tree=7
num_leaves=2
num_cat=0
split_feature=7
split_gain=1.85581
threshold=0.043415782395120998
decision_type=2
left_child=-1
right_child=-2
leaf_value=0.0081796965199281597 -0.0018384319256340969
leaf_weight=2.6178684532642365 3.9012712091207504
leaf_count=12 18
internal_value=0.000650569
internal_weight=6.51914
internal_count=30
is_linear=0
shrinkage=0.01


Tree=8
num_leaves=2
num_cat=0
split_feature=7
split_gain=1.81524
threshold=0.043415782395120998
decision_type=2
left_child=-1
right_child=-2
leaf_value=0.0080742935595698329 -0.0018212755965259231
leaf_weight=2.6254832744598389 3.8986531943082809
leaf_count=12 18
internal_value=0.000628191
internal_weight=6.52414
internal_count=30
is_linear=0
shrinkage=0.01


Tree=9
num_leaves=2
num_cat=0
split_feature=7
split_gain=1.77565
threshold=0.043415782395120998
decision_type=2
left_child=-1
right_child=-2
leaf_value=0.0079707791592229585 -0.0018042712459576057
leaf_weight=2.6329461634159088 3.8960556238889694
leaf_count=12 18
internal_value=0.000606079
internal_weight=6.529
internal_count=30
is_linear=0
shrinkage=0.01


Tree=10
num_leaves=2
num_cat=0
split_feature=1
split_gain=1.87978
threshold=1.0000000180025095e-35
decision_type=2
left_child=-1
right_child=-2
leaf_value=-0.0041047851988525435 0.0080004577167747323
leaf_weight=2.8288805037736893 2.192151665687561
leaf_count=13 10
internal_value=0
internal_weight=5.02103
internal_count=23
is_linear=0
shrinkage=0.01


Tree=11
num_leaves=2
num_cat=0
split_feature=1
split_gain=1.8392
threshold=1.0000000180025095e-35
decision_type=2
left_child=-1
right_child=-2
leaf_value=-0.0040697876266876107 0.0078982619621033173
leaf_weight=2.8246960341930389 2.1982797384262085
leaf_count=13 10
internal_value=0
internal_weight=5.02298
internal_count=23
is_linear=0
shrinkage=0.01


Tree=12
num_leaves=2
num_cat=0
split_feature=1
split_gain=1.79959
threshold=1.0000000180025095e-35
decision_type=2
left_child=-1
right_child=-2
leaf_value=-0.0040350664144979103 0.0077978672385736148
leaf_weight=2.8205330371856689 2.2042854726314545
leaf_count=13 10
internal_value=0
internal_weight=5.02482
internal_count=23
is_linear=0
shrinkage=0.01


Tree=13
num_leaves=2
num_cat=0
split_feature=1
split_gain=1.76091
threshold=1.0000000180025095e-35
decision_type=2
left_child=-1
right_child=-2
leaf_value=-0.0040006194973533022 0.0076992261907852001
leaf_weight=2.8163916319608688 2.2101713716983795
leaf_count=13 10
internal_value=0
internal_weight=5.02656
internal_count=23
is_linear=0
shrinkage=0.01


Tree=14
num_leaves=2
num_cat=0
split_feature=1
split_gain=1.72314
threshold=1.0000000180025095e-35
decision_type=2
left_child=-1
right_child=-2
leaf_value=-0.0039664443263228936 0.0076022914142921299
leaf_weight=2.8122720420360565 2.215939849615097
leaf_count=13 10
internal_value=0
internal_weight=5.02821
internal_count=23
is_linear=0
shrinkage=0.01


Tree=15
num_leaves=2
num_cat=0
split_feature=7
split_gain=0.635765
threshold=-0.24400932068966238
decision_type=2
left_child=-1
right_child=-2
leaf_value=0.004053131686599095 -0.0024847534789531364
leaf_weight=2.6420532763004303 3.2674341350793839
leaf_count=12 15
internal_value=0
internal_weight=5.90949
internal_count=27
is_linear=0
shrinkage=0.01


Tree=16
num_leaves=2
num_cat=0
split_feature=8
split_gain=1.1886
threshold=-0.42268906240166115
decision_type=2
left_child=-1
right_child=-2
leaf_value=0.0057937950581598563 -0.0032830985906773381
leaf_weight=2.4201878756284714 3.4900753945112228
leaf_count=11 16
internal_value=0
internal_weight=5.91026
internal_count=27
is_linear=0
shrinkage=0.01


Tree=17
num_leaves=2
num_cat=0
split_feature=8
split_gain=1.16378
threshold=-0.42268906240166115
decision_type=2
left_child=-1
right_child=-2
leaf_value=0.005724367309680737 -0.003254101853664081
leaf_weight=2.4250209182500839 3.4859834760427475
leaf_count=11 16
internal_value=0
internal_weight=5.911
internal_count=27
is_linear=0
shrinkage=0.01


Tree=18
num_leaves=2
num_cat=0
split_feature=8
split_gain=1.1396
threshold=-0.17481972943266885
decision_type=2
left_child=-1
right_child=-2
leaf_value=0.0046152276119370656 -0.004132377874770967
leaf_weight=3.0798950642347336 2.8317915350198746
leaf_count=14 13
internal_value=0
internal_weight=5.91169
internal_count=27
is_linear=0
shrinkage=0.01


Tree=19
num_leaves=2
num_cat=0
split_feature=8
split_gain=1.1204
threshold=-0.42268906240166115
decision_type=2
left_child=-1
right_child=-2
leaf_value=0.0056010191701887369 -0.0032032432535512093
leaf_weight=2.4335805177688599 3.4788086712360382
leaf_count=11 16
internal_value=0
internal_weight=5.91239
internal_count=27
is_linear=0
shrinkage=0.01


Tree=20
num_leaves=2
num_cat=0
split_feature=9
split_gain=0.882542
threshold=-0.34197572467892617
decision_type=2
left_child=-1
right_child=-2
leaf_value=-0.0032531045847635697 0.0040367389690518039
leaf_weight=2.6140984445810318 3.7182563543319702
leaf_count=12 17
internal_value=0
internal_weight=6.33235
internal_count=29
is_linear=0
shrinkage=0.01


Tree=21
num_leaves=2
num_cat=0
split_feature=9
split_gain=0.864448
threshold=-0.34197572467892617
decision_type=2
left_child=-1
right_child=-2
leaf_value=-0.003224353444239169 0.0039906716661830986
leaf_weight=2.6110494434833527 3.723540410399437
leaf_count=12 17
internal_value=0
internal_weight=6.33459
internal_count=29
is_linear=0
shrinkage=0.01


Tree=22
num_leaves=2
num_cat=0
split_feature=9
split_gain=0.846738
threshold=-0.34197572467892617
decision_type=2
left_child=-1
right_child=-2
leaf_value=-0.0031958373773197154 0.0039452222599436811
leaf_weight=2.6080190539360046 3.7287453413009644
leaf_count=12 17
internal_value=0
internal_weight=6.33676
internal_count=29
is_linear=0
shrinkage=0.01


Tree=23
num_leaves=2
num_cat=0
split_feature=9
split_gain=0.829404
threshold=-0.34197572467892617
decision_type=2
left_child=-1
right_child=-2
leaf_value=-0.0031675552081030229 0.0039003796477735326
leaf_weight=2.6050073504447937 3.7338725626468658
leaf_count=12 17
internal_value=0
internal_weight=6.33888
internal_count=29
is_linear=0
shrinkage=0.01


Tree=24
num_leaves=2
num_cat=0
split_feature=8
split_gain=0.408427
threshold=0.10445057896026953
decision_type=2
left_child=-1
right_child=-2
leaf_value=0.002798100558386031 -0.0020322240379806017
leaf_weight=3.9614222943782806 2.3795152753591537
leaf_count=18 11
internal_value=0
internal_weight=6.34094
internal_count=29
is_linear=0
shrinkage=0.01


Tree=25
num_leaves=2
num_cat=0
split_feature=5
split_gain=1.9013
threshold=0.15125934459731707
decision_type=2
left_child=-1
right_child=-2
leaf_value=0 0.0092487371778849723
leaf_weight=3.7201015055179596 3.3108866959810257
leaf_count=17 15
internal_value=0.00363848
internal_weight=7.03099
internal_count=32
is_linear=0
shrinkage=0.01


Tree=26
num_leaves=2
num_cat=0
split_feature=5
split_gain=1.85969
threshold=0.15125934459731707
decision_type=2
left_child=-1
right_child=-2
leaf_value=0 0.0091274182158252917
leaf_weight=3.7201015055179596 3.3212920874357224
leaf_count=17 15
internal_value=0.00358955
internal_weight=7.04139
internal_count=32
is_linear=0
shrinkage=0.01


Tree=27
num_leaves=2
num_cat=0
split_feature=1
split_gain=3.1903
threshold=-0.30343162572712745
decision_type=2
left_child=-1
right_child=-2
leaf_value=-0.0016347631243966466 0.0099922313130823889
leaf_weight=3.0523017346858978 3.9992691725492477
leaf_count=14 18
internal_value=0.00354131
internal_weight=7.05157
internal_count=32
is_linear=0
shrinkage=0.01


Tree=28
num_leaves=2
num_cat=0
split_feature=1
split_gain=3.12227
threshold=-0.30343162572712745
decision_type=2
left_child=-1
right_child=-2
leaf_value=-0.0016193661714674005 0.0098595435972689566
leaf_weight=3.0505187660455704 4.012492373585701
leaf_count=14 18
internal_value=0.00348597
internal_weight=7.06301
internal_count=32
is_linear=0
shrinkage=0.01


Tree=29
num_leaves=2
num_cat=0
split_feature=1
split_gain=3.05604
threshold=-0.30343162572712745
decision_type=2
left_child=-1
right_child=-2
leaf_value=-0.0016041074270684403 0.0097294733786541417
leaf_weight=3.0487500876188278 4.0254073143005371
leaf_count=14 18
internal_value=0.00343144
internal_weight=7.07416
internal_count=32
is_linear=0
shrinkage=0.01


Tree=30
num_leaves=2
num_cat=0
split_feature=9
split_gain=1.37587
threshold=0.32205480867821229
decision_type=2
left_child=-1
right_child=-2
leaf_value=0.0058351281033401352 -0.0026847284046006901
leaf_weight=3.3463413119316101 3.2909972220659256
leaf_count=15 15
internal_value=0.000104092
internal_weight=6.63734
internal_count=30
is_linear=0
shrinkage=0.01


Tree=31
num_leaves=2
num_cat=0
split_feature=9
split_gain=1.34677
threshold=0.32205480867821229
decision_type=2
left_child=-1
right_child=-2
leaf_value=0.0057657702519374266 -0.0026603846695362281
leaf_weight=3.3526973128318787 3.2879159152507782
leaf_count=15 15
internal_value=8.79077e-05
internal_weight=6.64061
internal_count=30
is_linear=0
shrinkage=0.01


end of trees

feature_importances:
Column_1=10
Column_7=6
Column_9=6
Column_8=5
Column_3=3
Column_5=2

parameters:
[boosting: gbdt]
[objective: binary]
[metric: auc]
[tree_learner: serial]
[device_type: cpu]
[data_sample_strategy: bagging]
[data: ]
[valid: ]
[num_iterations: 1000]
[learning_rate: 0.01]
[num_leaves: 3]
[num_threads: 0]
[seed: 42]
[deterministic: 1]
[force_col_wise: 1]
[force_row_wise: 0]
[histogram_pool_size: -1]
[max_depth: 2]
[min_data_in_leaf: 10]
[min_sum_hessian_in_leaf: 0.001]
[bagging_fraction: 0.6]
[pos_bagging_fraction: 1]
[neg_bagging_fraction: 1]
[bagging_freq: 5]
[bagging_seed: 400]
[bagging_by_query: 0]
[feature_fraction: 0.8]
[feature_fraction_bynode: 1]
[feature_fraction_seed: 30056]
[extra_trees: 0]
[extra_seed: 12879]
[early_stopping_round: 0]
[early_stopping_min_delta: 0]
[first_metric_only: 0]
[max_delta_step: 0]
[lambda_l1: 1]
[lambda_l2: 0]
[linear_lambda: 0]
[min_gain_to_split: 0.05]
[drop_rate: 0.1]
[max_drop: 50]
[skip_drop: 0.5]
[xgboost_dart_mode: 0]
[uniform_drop: 0]
[drop_seed: 17869]
[top_rate: 0.2]
[other_rate: 0.1]
[min_data_per_group: 100]
[max_cat_threshold: 32]
[cat_l2: 10]
[cat_smooth: 10]
[max_cat_to_onehot: 4]
[top_k: 20]
[monotone_constraints: ]
[monotone_constraints_method: basic]
[monotone_penalty: 0]
[feature_contri: ]
[forcedsplits_filename: ]
[refit_decay_rate: 0.9]
[cegb_tradeoff: 1]
[cegb_penalty_split: 0]
[cegb_penalty_feature_lazy: ]
[cegb_penalty_feature_coupled: ]
[path_smooth: 0]
[interaction_constraints: ]
[verbosity: -1]
[saved_feature_importance_type: 0]
[use_quantized_grad: 0]
[num_grad_quant_bins: 4]
[quant_train_renew_leaf: 0]
[stochastic_rounding: 1]
[linear_tree: 0]
[max_bin: 255]
[max_bin_by_feature: ]
[min_data_in_bin: 3]
[bin_construct_sample_cnt: 200000]
[data_random_seed: 175]
[is_enable_sparse: 1]
[enable_bundle: 1]
[use_missing: 1]
[zero_as_missing: 0]
[feature_pre_filter: 1]
[pre_partition: 0]
[two_round: 0]
[header: 0]
[label_column: ]
[weight_column: ]
[group_column: ]
[ignore_column: ]
[categorical_feature: ]
[forcedbins_filename: ]
[precise_float_parser: 0]
[parser_config_file: ]
[objective_seed: 16083]
[num_class: 1]
[is_unbalance: 0]
[scale_pos_weight: 1]
[sigmoid: 1]
[boost_from_average: 1]
[reg_sqrt: 0]
[alpha: 0.9]
[fair_c: 1]
[poisson_max_delta_step: 0.7]
[tweedie_variance_power: 1.5]
[lambdarank_truncation_level: 30]
[lambdarank_norm: 1]
[label_gain: ]
[lambdarank_position_bias_regularization: 0]
[eval_at: ]
[multi_error_top_k: 1]
[auc_mu_weights: ]
[num_machines: 1]
[local_listen_port: 12400]
[time_out: 120]
[machine_list_filename: ]
[machines: ]
[gpu_platform_id: -1]
[gpu_device_id: -1]
[gpu_use_dp: 0]
[num_gpu: 1]

end of parameters

pandas_categorical:null
