tree
version=v4
num_class=1
num_tree_per_iteration=1
label_index=0
max_feature_idx=13
objective=binary sigmoid:1
feature_names=Column_0 Column_1 Column_2 Column_3 Column_4 Column_5 Column_6 Column_7 Column_8 Column_9 Column_10 Column_11 Column_12 Column_13
feature_infos=[-0.88588770630523472:3.1088242388506653] [-1.183407855719641:3.2981155884742011] [-1.7962854922153955:2.4682655999244978] [-1.0497101164015681:3.8632024976493726] [-1.5240033861306257:2.161557566509392] [-1.7464317542169139:2.4488019763447997] [-1.5274437083327048:1.0689933401986158] [-2.0819011250665094:2.4958611424821724] [-1.4346326694769052:3.8170232233828183] [-1.7530406080628456:2.729165492097839] [-2.1343747458109497:0.46852128566581813] [-0.65465367070797709:1.5275252316519465] [-1.2773327473170102:0.78288136125881269] none
tree_sizes=650 665 768 663 666 772 775 882 879 661 669 567 568 671 564 669 669 667 667 664 769 772 775 769 767 767 765 770 767 767 666 667 771 770 668 664 668 669 769 665 775 772 780 780 772 669 766 667 767 666 770 768 771 769 763 667 665 665 665 664 777 876 767 874 879 563 664 668 669 669 769 875 770 768 766 669 671 669 669 668 769 775 766 771 763

Tree=0
num_leaves=5
num_cat=0
split_feature=4 5 1 7
split_gain=6.24453 2.82805 2.43246 0.565611
threshold=0.72562472781847609 -0.28280408420188152 -0.60097458891140576 -0.62696000407948393
decision_type=2 2 2 2
left_child=1 2 -1 -3
right_child=-2 3 -4 -5
leaf_value=-0.76081837058170798 -0.7317129788107144 -0.75928650785691887 -0.74221718035212569 -0.76847768420565377
leaf_weight=1.3056000173091886 1.0880000144243238 1.0880000144243243 1.5232000201940539 1.7408000230789182
leaf_count=6 5 5 7 8
internal_value=-0.753653 -0.757872 -0.750802 -0.764943
internal_weight=6.7456 5.6576 2.8288 2.8288
internal_count=31 26 13 13
is_linear=0
shrinkage=1


Tree=1
num_leaves=5
num_cat=0
split_feature=4 5 5 4
split_gain=6.08086 2.78421 2.40994 0.570063
threshold=0.72562472781847609 -0.28280408420188152 -0.82698705281959606 0.26293525757362529
decision_type=2 2 2 2
left_child=1 2 -1 -3
right_child=-2 3 -4 -5
leaf_value=-0.0070404753532382789 0.021666938537896262 -0.014658629212186511 0.011466459982558188 -0.005411567461447199
leaf_weight=1.3051867485046384 1.0965579748153684 1.7344314455986025 1.5265960693359377 1.0829304754734037
leaf_count=6 5 8 7 5
internal_value=0.000117087 -0.00406596 0.0029365 -0.0111043
internal_weight=6.7457 5.64914 2.83178 2.81736
internal_count=31 26 13 13
is_linear=0
shrinkage=0.01


Tree=2
num_leaves=6
num_cat=0
split_feature=4 4 1 1 8
split_gain=5.92332 1.69395 3.78504 0.50959 0.463276
threshold=0.72562472781847609 -0.13593497539607369 -0.91679264811563221 -0.2204573793717555 0.25342377361409096
decision_type=2 2 2 2 2
left_child=1 2 -1 -3 -4
right_child=-2 3 4 -5 -6
leaf_value=-0.014634433866767533 0.021289436676565913 -0.014659625994832738 0.012865016779299038 -0.0053681501235210583 0.0036393613106240354
leaf_weight=1.0819661021232603 1.1047998815774915 1.3005920350551607 1.087994500994683 1.0807833075523374 1.0892433077096937
leaf_count=5 5 6 5 5 5
internal_value=0.000115609 -0.00403163 0.000652692 -0.0104427 0.00824954
internal_weight=6.74538 5.64058 3.2592 2.38138 2.17724
internal_count=31 26 15 11 10
is_linear=0
shrinkage=0.01


Tree=3
num_leaves=5
num_cat=0
split_feature=4 5 6 5
split_gain=5.77157 2.73587 2.36734 0.57562
threshold=0.72562472781847609 -0.28280408420188152 0.56766872671611535 0.18760948395488528
decision_type=2 2 2 2
left_child=1 2 -1 -3
right_child=-2 3 -4 -5
leaf_value=0.011364196877445765 0.020925502945826256 -0.014587213165995976 -0.0069822410204347235 -0.0052655698725523467
leaf_weight=1.5304641723632815 1.1127337068319318 1.7245893478393557 1.3013790845870969 1.07560658454895
leaf_count=7 5 8 6 5
internal_value=0.000114138 -0.00399761 0.00293306 -0.0110066
internal_weight=6.74477 5.63204 2.83184 2.8002
internal_count=31 26 13 13
is_linear=0
shrinkage=0.01


Tree=4
num_leaves=5
num_cat=0
split_feature=4 5 6 0
split_gain=5.62532 2.69359 2.3143 0.570915
threshold=0.72562472781847609 -0.28280408420188152 0.56766872671611535 0.37361344009713199
decision_type=2 2 2 2
left_child=1 2 -1 -3
right_child=-2 3 -4 -5
leaf_value=0.011205475415748066 0.020574389092944255 -0.014521324596964069 -0.0069301579690117607 -0.0052224772385280616
leaf_weight=1.5365901291370394 1.1203670501708982 1.7151917070150378 1.2980646193027494 1.0734967142343519
leaf_count=7 5 8 6 5
internal_value=0.000112717 -0.00396397 0.00290068 -0.0109418
internal_weight=6.74371 5.62334 2.83465 2.78869
internal_count=31 26 13 13
is_linear=0
shrinkage=0.01


Tree=5
num_leaves=6
num_cat=0
split_feature=11 9 8 8 8
split_gain=5.39394 4.58814 2.20539 1.82049 0.000583511
threshold=1.0000000180025095e-35 0.82007770869606611 -0.56982367914159981 -0.42268906240166115 0.21810372421581564
decision_type=2 2 2 2 2
left_child=1 2 -1 -2 -4
right_child=3 -3 4 -5 -6
leaf_value=0.00075632895329242711 0.021794686617826679 0.01252914761587736 -0.014536919338709731 0.0035408427533871797 -0.014805389951292651
leaf_weight=1.2981375753879545 1.093006953597069 1.096337169408798 1.7170527726411822 1.092441067099571 1.5318012386560438
leaf_count=6 5 5 8 5 7
internal_value=-0.000668262 -0.00583372 -0.0102612 0.0126701 -0.0146635
internal_weight=7.82878 5.64333 4.54699 2.18545 3.24885
internal_count=36 26 21 10 15
is_linear=0
shrinkage=0.01


Tree=6
num_leaves=6
num_cat=0
split_feature=11 9 8 8 8
split_gain=5.27547 4.50313 2.18089 1.76073 0.000558798
threshold=1.0000000180025095e-35 0.82007770869606611 -0.56982367914159981 -0.42268906240166115 0.21810372421581564
decision_type=2 2 2 2 2
left_child=1 2 -1 -2 -4
right_child=3 -3 4 -5 -6
leaf_value=0.00074855813511540267 0.021413235656891311 0.012349922433089005 -0.014471460770036578 0.0035010244348933303 -0.014734891415021522
leaf_weight=1.2984964251518247 1.1013103723526003 1.1011007726192472 1.7076186388731005 1.0938103795051572 1.5237790346145628
leaf_count=6 5 5 8 5 7
internal_value=-0.000662125 -0.00578831 -0.0101972 0.0124877 -0.0145957
internal_weight=7.82612 5.63099 4.52989 2.19512 3.2314
internal_count=36 26 21 10 15
is_linear=0
shrinkage=0.01


Tree=7
num_leaves=7
num_cat=0
split_feature=11 6 6 1 6 3
split_gain=5.16033 3.28837 2.75353 1.63591 0.000735601 6.54433e-05
threshold=1.0000000180025095e-35 0.71749750848358052 -1.3387478482713413 1.0000000180025095e-35 0.54667673556387786 -0.28828081055780214
decision_type=2 2 2 2 2 2
left_child=1 2 -1 -2 -4 -6
right_child=3 -3 4 -5 5 -7
leaf_value=0.0038605590648980123 0.0036031802855919772 0.0081373278459548892 -0.01479415729589543 0.02083309361781354 -0.014530358079918695 -0.014419634280748741
leaf_weight=1.080220505595207 1.0904721319675448 1.3090284615755079 1.0938929468393328 1.1139922291040418 1.0727040767669676 1.0625667721033099
leaf_count=5 5 6 5 5 5 5
internal_value=-0.000656089 -0.00574354 -0.00996002 0.0123101 -0.0145833 -0.0144753
internal_weight=7.82288 5.61841 4.30938 2.20446 3.22916 2.13527
internal_count=36 26 20 10 15 10
is_linear=0
shrinkage=0.01


Tree=8
num_leaves=7
num_cat=0
split_feature=11 9 8 8 1 3
split_gain=5.04836 4.41314 2.15175 1.70712 0.000411847 6.17429e-05
threshold=1.0000000180025095e-35 0.82007770869606611 -0.56982367914159981 -0.42268906240166115 0.8532742519829436 -0.28828081055780214
decision_type=2 2 2 2 2 2
left_child=1 2 -1 -2 5 -4
right_child=3 -3 4 -5 -6 -7
leaf_value=0.00077279358013770049 0.02087051945241384 0.012213238765882234 -0.014465248433507463 0.0033058090673439978 -0.014651341082969022 -0.014357392653723688
leaf_weight=1.2971734404563902 1.1129054576158526 1.1044899076223371 1.0666580796241758 1.1004794239997862 1.0813329219818113 1.0564408302307136
leaf_count=6 5 5 5 5 5 5
internal_value=-0.000650101 -0.00569886 -0.0100937 0.0121375 -0.0144925 -0.0144116
internal_weight=7.81948 5.6061 4.50161 2.21338 3.20443 2.1231
internal_count=36 26 21 10 15 10
is_linear=0
shrinkage=0.01


Tree=9
num_leaves=5
num_cat=0
split_feature=5 3 6 6
split_gain=4.88194 3.3696 4.84399 2.9913
threshold=-0.93389922740067954 -0.28828081055780214 0.60287547741434644 0.54667673556387786
decision_type=2 2 2 2
left_child=-1 3 -3 -2
right_child=1 2 -4 -5
leaf_value=-0.014482326783170546 0.02235834502157755 -0.014543607709358424 0.01234114897903809 0.0024683548802507328
leaf_weight=1.9223400354385374 1.3359620720148089 1.7149335443973543 1.1000787764787672 1.7421119660139082
leaf_count=9 6 8 5 8
internal_value=-0.000644237 0.00386978 -0.00403731 0.0111011
internal_weight=7.81543 5.89309 2.81501 3.07807
internal_count=36 27 13 14
is_linear=0
shrinkage=0.01


Tree=10
num_leaves=5
num_cat=0
split_feature=2 8 0 7
split_gain=5.28051 6.23274 1.7713 0.434942
threshold=0.13459184081117642 -0.42268906240166115 1.0000000180025095e-35 0.14335284598245132
decision_type=2 2 2 2
left_child=2 -2 -1 -4
right_child=1 -3 3 -5
leaf_value=-0.014506775446686786 0.029291717379647336 -0.0017273839327481822 -0.0053977667233537753 0.0035517648982335425
leaf_weight=1.7109528928995135 1.1234347969293597 1.5299128443002699 1.0811711847782137 1.091030105948448
leaf_count=8 5 7 5 5
internal_value=0.000532908 0.0114062 -0.00689677 -0.000902691
internal_weight=6.5365 2.65335 3.88315 2.1722
internal_count=30 12 18 10
is_linear=0
shrinkage=0.01


Tree=11
num_leaves=4
num_cat=0
split_feature=4 6 4
split_gain=5.18201 2.07412 0.887283
threshold=0.72562472781847609 0.75960282432839665 -0.13593497539607369
decision_type=2 2 2
left_child=1 2 -1
right_child=-2 -3 -4
leaf_value=-0.0043249948778801397 0.016280443956589251 0.0052674891342991605 -0.014560800049650767
leaf_weight=1.9411493837833402 1.5825305134057996 1.5095932334661482 1.5022775977849963
leaf_count=9 7 7 7
internal_value=0.000527307 -0.00450595 -0.00879061
internal_weight=6.53555 4.95302 3.44343
internal_count=30 23 16
is_linear=0
shrinkage=0.01


Tree=12
num_leaves=4
num_cat=0
split_feature=4 0 0
split_gain=5.0602 3.40627 0.551391
threshold=0.72562472781847609 0.53421678749873569 -1.0000000180025095e-35
decision_type=2 2 2
left_child=1 2 -1
right_child=-2 -3 -4
leaf_value=-0.014407167752328136 0.016037894175450266 0.0058068453493806274 -0.0054755931453352282
leaf_weight=1.9087051302194593 1.5903595089912412 1.9523160159587858 1.0836054384708407
leaf_count=9 7 9 5
internal_value=0.000521868 -0.00446861 -0.0111728
internal_weight=6.53499 4.94463 2.99231
internal_count=30 23 14
is_linear=0
shrinkage=0.01


Tree=13
num_leaves=5
num_cat=0
split_feature=2 8 0 1
split_gain=4.9952 5.9482 1.72391 0.438599
threshold=0.13459184081117642 -0.42268906240166115 1.0000000180025095e-35 -0.51599835148040352
decision_type=2 2 2 2
left_child=2 -2 -1 -4
right_child=1 -3 3 -5
leaf_value=-0.014347854637446842 0.028302312672696846 -0.0018412156485543036 -0.0053840746126411964 0.0036077111589539889
leaf_weight=1.6874001622200014 1.1413572430610659 1.535096615552902 1.0809540003538134 1.0889554172754285
leaf_count=8 5 7 5 5
internal_value=0.000516507 0.0110133 -0.00676686 -0.000871603
internal_weight=6.53376 2.67645 3.85731 2.16991
internal_count=30 12 18 10
is_linear=0
shrinkage=0.01


Tree=14
num_leaves=4
num_cat=0
split_feature=4 0 7
split_gain=4.86251 3.30469 0.570075
threshold=0.72562472781847609 0.53421678749873569 0.14335284598245132
decision_type=2 2 2
left_child=1 2 -1
right_child=-2 -3 -4
leaf_value=-0.014353772377204595 0.01564379220999303 0.0056696486002458706 -0.0052304561196368114
leaf_weight=1.8975025564432146 1.6024575829505918 1.9599794298410413 1.0717413574457166
leaf_count=9 7 9 5
internal_value=0.000511184 -0.00440833 -0.0110607
internal_weight=6.53168 4.92922 2.96924
internal_count=30 23 14
is_linear=0
shrinkage=0.01


Tree=15
num_leaves=5
num_cat=0
split_feature=7 2 5 8
split_gain=4.53037 2.26452 1.82291 0.783876
threshold=-0.62696000407948393 -0.66752600603871459 -1.0000000180025095e-35 0.10445057896026953
decision_type=2 2 2 2
left_child=-1 -2 -3 -4
right_child=1 2 3 -5
leaf_value=0.015195852656811051 -0.014274110426358365 0.01197502678383131 0.0030930025615833281 -0.0080102259964820871
leaf_weight=1.9856606423854826 1.2569902241230009 1.1114464700222013 1.1007594764232642 1.505446210503578
leaf_count=9 6 5 5 7
internal_value=0.00242614 -0.00267097 0.00125221 -0.00332066
internal_weight=6.9603 4.97464 3.71765 2.60621
internal_count=32 23 17 12
is_linear=0
shrinkage=0.01


Tree=16
num_leaves=5
num_cat=0
split_feature=8 2 0 0
split_gain=4.36707 2.33185 1.24687 1.20517
threshold=0.10445057896026953 0.13459184081117642 -1.0000000180025095e-35 -0.82541928658237362
decision_type=2 2 2 2
left_child=1 2 -1 -2
right_child=3 -3 -4 -5
leaf_value=0.0089955961555263798 -0.014477032010829578 0.017341678495148304 -0.0055690938707029366 -0.0012519715439377422
leaf_weight=1.2775760740041733 1.275301054120064 1.8236739188432691 1.0886563658714294 1.4989542514085767
leaf_count=6 6 8 5 7
internal_value=0.0024003 0.00884394 0.00229467 -0.00733142
internal_weight=6.96416 4.18991 2.36623 2.77426
internal_count=32 19 11 13
is_linear=0
shrinkage=0.01


Tree=17
num_leaves=5
num_cat=0
split_feature=8 2 0 0
split_gain=4.27587 2.26739 1.21936 1.19183
threshold=0.10445057896026953 0.13459184081117642 1.0000000180025095e-35 -0.82541928658237362
decision_type=2 2 2 2
left_child=1 2 -1 -2
right_child=3 -3 -4 -5
leaf_value=0.0088751122630387307 -0.01441296956070225 0.017083440178704373 -0.0055244508951050441 -0.0012400330864908505
leaf_weight=1.2819483280181887 1.2681954205036166 1.832682818174362 1.0864901244640348 1.4982547163963316
leaf_count=6 6 8 5 7
internal_value=0.00237491 0.00873188 0.0022695 -0.00727877
internal_weight=6.96757 4.20112 2.36844 2.76645
internal_count=32 19 11 13
is_linear=0
shrinkage=0.01


Tree=18
num_leaves=5
num_cat=0
split_feature=7 3 1 9
split_gain=4.30924 3.4554 2.34139 0.583654
threshold=-0.62696000407948393 -0.28828081055780214 -0.51599835148040352 0.32205480867821229
decision_type=2 2 2 2
left_child=-1 2 -2 -3
right_child=1 3 -4 -5
leaf_value=0.014723296724827859 -0.0050916193079596182 -0.014704532124190366 0.014795043213606213 -0.0050157805482056519
leaf_weight=2.0050376355648041 1.0632706135511401 1.508800193667412 1.3358581364154813 1.0575632601976392
leaf_count=9 5 7 6 5
internal_value=0.00234995 -0.00264634 0.00598147 -0.0107119
internal_weight=6.97053 4.96549 2.39913 2.56636
internal_count=32 23 11 12
is_linear=0
shrinkage=0.01


Tree=19
num_leaves=5
num_cat=0
split_feature=7 2 5 6
split_gain=4.20424 2.22203 1.77962 0.737888
threshold=-0.62696000407948393 -0.66752600603871459 1.0000000180025095e-35 0.60287547741434644
decision_type=2 2 2 2
left_child=-1 -2 -3 -4
right_child=1 2 3 -5
leaf_value=0.01450801795970897 -0.014182687183901688 0.011818380824606583 -0.0078804144882747701 0.0028925914082605221
leaf_weight=2.0143941789865494 1.24536557495594 1.115406781435013 1.4895744323730471 1.1092585921287534
leaf_count=9 6 5 7 5
internal_value=0.00232502 -0.00262322 0.0012526 -0.00328218
internal_weight=6.974 4.95961 3.71424 2.59883
internal_count=32 23 17 12
is_linear=0
shrinkage=0.01


Tree=20
num_leaves=6
num_cat=0
split_feature=9 5 8 5 2
split_gain=3.35731 3.89879 6.26363 2.79539 1.88374
threshold=-0.83999862469677999 -0.82698705281959606 -0.42268906240166115 -0.28280408420188152 0.45041357451337433
decision_type=2 2 2 2 2
left_child=-1 -2 -3 -4 -5
right_child=1 2 3 4 -6
leaf_value=-0.014692132135339462 -0.014400648385561567 0.027076766150219332 0.011117883333619174 -0.014454487076710543 0.0034486072514755234
leaf_weight=1.2924970239400861 1.0595595836639402 1.1617377996444695 1.5386994630098341 1.2744819670915615 1.090651139616966
leaf_count=6 5 5 7 6 5
internal_value=-4.6572e-05 0.00304387 0.00669272 0.000626647 -0.0061987
internal_weight=7.41763 6.12513 5.06557 3.90383 2.36513
internal_count=34 28 23 18 11
is_linear=0
shrinkage=0.01


Tree=21
num_leaves=6
num_cat=0
split_feature=4 0 11 7 9
split_gain=4.34028 1.7069 1.90416 1.84945 0.51823
threshold=1.0447209141942353 -0.8078629262066811 1.0000000180025095e-35 0.36087290628628432 1.0000000180025095e-35
decision_type=2 2 2 2 2
left_child=1 4 3 -3 -1
right_child=-2 2 -4 -5 -6
leaf_value=-0.014443147394092359 0.017520898472524995 0.0025730041082793796 0.011687041521792903 -0.014260926542805877 -0.0049737935536501871
leaf_weight=1.2740106731653216 1.1821013987064359 1.7336474359035494 1.1184324324131014 1.046652629971504 1.0577932745218275
leaf_count=6 5 8 5 5 5
internal_value=-4.65258e-05 -0.00337954 0.000668323 -0.00376418 -0.0101475
internal_weight=7.41264 6.23054 3.89873 2.7803 2.3318
internal_count=34 29 18 13 11
is_linear=0
shrinkage=0.01


Tree=22
num_leaves=6
num_cat=0
split_feature=4 8 4 9 5
split_gain=4.24102 2.05382 3.36175 0.0831453 0.00144048
threshold=1.0447209141942353 -0.62411011123045579 -0.13593497539607369 -0.34197572467892617 0.15125934459731707
decision_type=2 2 2 2 2
left_child=1 -1 3 -3 -4
right_child=-2 2 4 -5 -6
leaf_value=0.007710805922124875 0.017277605843348313 0.0042855533973271305 -0.014597155521167884 0.00052212434331530414 -0.014119481675088617
leaf_weight=1.3218253999948499 1.1867359727621076 1.0653716623783114 1.2901258915662772 1.3075097948312753 1.2362786829471586
leaf_count=6 5 5 6 6 6
internal_value=-4.63154e-05 -0.00335102 -0.00633549 0.00221182 -0.0143634
internal_weight=7.40785 6.22111 4.89929 2.37288 2.5264
internal_count=34 29 23 11 12
is_linear=0
shrinkage=0.01


Tree=23
num_leaves=6
num_cat=0
split_feature=4 8 4 6 7
split_gain=4.14468 2.01488 3.3192 2.07918 0.00048826
threshold=1.0447209141942353 -0.62411011123045579 -0.13593497539607369 0.56766872671611535 0.36087290628628432
decision_type=2 2 2 2 2
left_child=1 -1 3 -3 -4
right_child=-2 2 4 -5 -6
leaf_value=0.0076138781630361819 0.017041055023316525 0.012230722018284419 -0.01441776906301104 -0.0065297426267214489 -0.014134394414290921
leaf_weight=1.325248911976814 1.1911547034978864 1.1035499870777128 1.480067744851113 1.2713127583265302 1.0319973081350324
leaf_count=6 5 5 7 6 5
internal_value=-4.60938e-05 -0.00332247 -0.00628822 0.00218786 -0.0143014
internal_weight=7.40333 6.21218 4.88693 2.37486 2.51207
internal_count=34 29 23 11 12
is_linear=0
shrinkage=0.01


Tree=24
num_leaves=6
num_cat=0
split_feature=9 5 8 5 2
split_gain=3.30552 3.79706 5.82167 2.72286 1.8276
threshold=-0.83999862469677999 -0.82698705281959606 -0.42268906240166115 -0.28280408420188152 0.45041357451337433
decision_type=2 2 2 2 2
left_child=-1 -2 -3 -4 -5
right_child=1 2 3 4 -6
leaf_value=-0.014648254777807042 -0.014295465372391031 0.0260713822640424 0.011021842182007777 -0.01430539378419865 0.0033917047724430316
leaf_weight=1.2816521972417829 1.0497762411832807 1.1784336268901818 1.5418787002563474 1.2563374936580669 1.089698940515518
leaf_count=6 5 5 7 6 5
internal_value=-4.59241e-05 0.00301404 0.00660067 0.000699058 -0.00608536
internal_weight=7.39778 6.11613 5.06635 3.88792 2.34604
internal_count=34 28 23 18 11
is_linear=0
shrinkage=0.01


Tree=25
num_leaves=6
num_cat=0
split_feature=5 0 8 5 4
split_gain=3.88015 4.16591 4.19177 4.08792 1.84074
threshold=-0.93389922740067954 -0.82541928658237362 -0.17481972943266885 0.15125934459731707 -0.35930230585910511
decision_type=2 2 2 2 2
left_child=-1 2 -2 4 -3
right_child=1 3 -4 -5 -6
leaf_value=-0.014157543203421883 0.011187522841761008 0.012342293561134841 -0.014417098313185975 0.02274230002746306 -0.0059279864408882952
leaf_weight=1.0353900194168089 1.1250846683979037 1.1010929793119428 1.4810719490051267 2.0763797163963318 1.1046923696994784
leaf_count=5 5 5 7 9 5
internal_value=0.00389194 0.00660498 -0.00336352 0.0126719 0.00319225
internal_weight=7.92371 6.88832 2.60616 4.28217 2.20579
internal_count=36 31 12 19 10
is_linear=0
shrinkage=0.01


Tree=26
num_leaves=6
num_cat=0
split_feature=5 0 8 5 4
split_gain=3.81119 4.06446 4.12042 3.96651 1.79819
threshold=-0.93389922740067954 -0.82541928658237362 -0.17481972943266885 0.15125934459731707 -0.35930230585910511
decision_type=2 2 2 2 2
left_child=-1 2 -2 4 -3
right_child=1 3 -4 -5 -6
leaf_value=-0.014099177107126621 0.011038792336616806 0.012167435157375164 -0.014354109098809955 0.022379395280993208 -0.0058805300291847043
leaf_weight=1.0293099284172056 1.1288219243288042 1.1057241261005399 1.4727372974157331 2.0888859182596207 1.10248239338398
leaf_count=5 5 5 7 9 5
internal_value=0.00385058 0.00652876 -0.00333608 0.0125012 0.0031567
internal_weight=7.92796 6.89865 2.60156 4.29709 2.20821
internal_count=36 31 12 19 10
is_linear=0
shrinkage=0.01


Tree=27
num_leaves=6
num_cat=0
split_feature=2 8 9 4 6
split_gain=2.43445 4.20347 2.6879 2.68233 0.470688
threshold=-0.89834036736877565 -0.42268906240166115 0.82007770869606611 -0.35930230585910511 0.60287547741434644
decision_type=2 2 2 2 2
left_child=-1 -2 3 -3 -5
right_child=1 2 -4 4 -6
leaf_value=-0.0077396316071511699 0.020281197946519895 0.0083425275523718156 0.013578907262479376 -0.014565988986529808 -0.0051719749196149356
leaf_weight=1.4836028069257734 1.6419344842433927 1.3001793473958962 1.3720960468053816 1.0690575391054165 1.0644446611404417
leaf_count=7 7 6 6 5 5
internal_value=0.00381009 0.00646766 0.00174814 -0.00297942 -0.00987914
internal_weight=7.93131 6.44771 4.80578 3.43368 2.1335
internal_count=36 29 22 16 10
is_linear=0
shrinkage=0.01


Tree=28
num_leaves=6
num_cat=0
split_feature=5 0 5 6 4
split_gain=3.71095 3.93787 3.81047 3.07731 1.76027
threshold=-0.93389922740067954 -0.82541928658237362 0.15125934459731707 -1.2293675450992951 -0.35930230585910511
decision_type=2 2 2 2 2
left_child=-1 3 4 -2 -3
right_child=1 2 -4 -5 -6
leaf_value=-0.014024229436752453 0.0073416248543171202 0.011970188021284274 0.021881881905123961 -0.014433537507448349 -0.0058691420606106406
leaf_weight=1.0212225168943403 1.3239376693964007 1.1108120828866956 2.105006143450737 1.2730795741081236 1.1017246693372729
leaf_count=5 6 5 9 6 5
internal_value=0.00376962 0.00639762 0.0122505 -0.00333274 0.00308716
internal_weight=7.93578 6.91456 4.31754 2.59702 2.21254
internal_count=36 31 19 12 10
is_linear=0
shrinkage=0.01


Tree=29
num_leaves=6
num_cat=0
split_feature=5 6 1 3 3
split_gain=3.6458 2.20195 3.13331 2.19497 2.12047
threshold=-0.93389922740067954 -1.3847890695240366 0.11160394764682745 -0.11599843613193127 -0.49550206865752472
decision_type=2 2 2 2 2
left_child=-1 -2 4 -4 -3
right_child=1 2 3 -5 -6
leaf_value=-0.013968264803212112 0.019010334406409951 -0.0093676173872943112 0.020715190447792488 0.0019371351637845048 0.0070013313144935939
leaf_weight=1.0150917023420332 1.1425629556179044 1.9245491921901701 1.3751576095819475 1.1372954249382017 1.3440895825624468
leaf_count=5 5 9 6 5 6
internal_value=0.00373021 0.00632502 0.00381792 0.0122151 -0.00263658
internal_weight=7.93875 6.92365 5.78109 2.51245 3.26864
internal_count=36 31 26 11 15
is_linear=0
shrinkage=0.01


Tree=30
num_leaves=5
num_cat=0
split_feature=4 8 9 9
split_gain=3.31653 2.75868 1.53334 0.480433
threshold=0.72562472781847609 0.10445057896026953 0.32205480867821229 0.32205480867821229
decision_type=2 2 2 2
left_child=1 2 -1 -3
right_child=-2 3 -4 -5
leaf_value=0.0094760393805099694 0.016278090278699905 -0.0049716472984859565 -0.0033348205530580139 -0.013898896509245392
leaf_weight=2.0177136957645421 1.2052182555198667 1.0545863509178164 1.7399820685386655 1.4072769135236738
leaf_count=9 5 5 8 7
internal_value=0.00109544 -0.00184663 0.00354404 -0.0100747
internal_weight=7.42478 6.21956 3.7577 2.46186
internal_count=34 29 17 12
is_linear=0
shrinkage=0.01


Tree=31
num_leaves=5
num_cat=0
split_feature=5 1 7 12
split_gain=3.13988 2.31582 2.72615 2.35912
threshold=-0.93389922740067954 0.11160394764682745 0.36087290628628432 1.0000000180025095e-35
decision_type=2 2 2 2
left_child=-1 2 3 -2
right_child=1 -3 -4 -5
leaf_value=-0.013788529059691759 -0.0037784812302372153 0.014119873737917246 -0.014071515590398579 0.012501168682983189
leaf_weight=1.1914973855018614 1.7672043889760971 1.6422021985054014 1.0270508527755735 1.7935651689767838
leaf_count=6 8 7 5 8
internal_value=0.0010848 0.00392933 0.000281648 0.0044216
internal_weight=7.42152 6.23002 4.58782 3.56077
internal_count=34 28 21 16
is_linear=0
shrinkage=0.01


Tree=32
num_leaves=6
num_cat=0
split_feature=4 0 6 2 7
split_gain=3.17966 3.07084 3.43986 1.64152 0.000780478
threshold=0.72562472781847609 0.53421678749873569 0.54667673556387786 -0.50141057509812537 -0.24400932068966238
decision_type=2 2 2 2 2
left_child=1 2 3 -1 -4
right_child=-2 -3 4 -5 -6
leaf_value=0.011699729571694756 0.01589178141481265 0.010321484116742304 -0.014259769270527403 -0.0055796872790267642 -0.013898589817602223
leaf_weight=1.1151227653026583 1.2116463035345075 1.5598963201045988 1.0423332154750822 1.0844268202781675 1.4044271409511568
leaf_count=5 5 7 5 5 7
internal_value=0.00107424 -0.00181861 -0.00589438 0.00318059 -0.0140525
internal_weight=7.41785 6.20621 4.64631 2.19955 2.44676
internal_count=34 29 22 10 12
is_linear=0
shrinkage=0.01


Tree=33
num_leaves=6
num_cat=0
split_feature=4 0 3 1 7
split_gain=3.1087 3.00867 3.09723 1.82823 0.00124814
threshold=0.72562472781847609 0.53421678749873569 -0.63924978657965681 -0.60097458891140576 0.043415782395120998
decision_type=2 2 2 2 2
left_child=1 2 3 -1 -4
right_child=-2 -3 4 -5 -6
leaf_value=-0.0062087599299225195 0.015691255756026406 0.010185540707782857 -0.014394144947635683 0.011411600096146769 -0.013922389121579169
leaf_weight=1.2384229600429533 1.2148429155349729 1.5648833960294721 1.2652298659086234 1.1226382702589033 1.0073485672473905
leaf_count=6 5 7 6 5 5
internal_value=0.00106389 -0.00180291 -0.00585168 0.00216938 -0.014185
internal_weight=7.41337 6.19852 4.63364 2.36106 2.27258
internal_count=34 29 22 11 11
is_linear=0
shrinkage=0.01


Tree=34
num_leaves=5
num_cat=0
split_feature=5 8 7 12
split_gain=3.04661 2.44168 2.26155 1.70731
threshold=-0.93389922740067954 0.25342377361409096 -1.1902724847415154 1.0000000180025095e-35
decision_type=2 2 2 2
left_child=-1 2 -2 -4
right_child=1 -3 3 -5
leaf_value=-0.013697663934331829 -0.0054253098644584013 -0.0074773502257360824 0.0031748633312170434 0.016916595797519682
leaf_weight=1.1775528490543363 1.0799531638622277 1.4594862461090086 1.5823179930448539 2.1094462722539902
leaf_count=6 5 7 7 9
internal_value=0.00105367 0.00384133 0.00730329 0.0110268
internal_weight=7.40876 6.2312 4.77172 3.69176
internal_count=34 28 21 16
is_linear=0
shrinkage=0.01


Tree=35
num_leaves=5
num_cat=0
split_feature=5 0 5 9
split_gain=4.51899 3.24491 2.23753 1.71811
threshold=-0.82698705281959606 -0.82541928658237362 0.27955395409461703 0.48806244201749688
decision_type=2 2 2 2
left_child=-1 -2 3 -3
right_child=1 2 -4 -5
leaf_value=-0.013910617456805654 -0.0077400258068888086 0.010441864471342512 0.018391780354168798 -0.0058914641090248108
leaf_weight=1.6023693978786466 1.4794289022684095 1.5550107806921007 1.6922705322504041 1.0993198007345197
leaf_count=8 7 7 7 5
internal_value=0.000961676 0.0050521 0.00940608 0.00367724
internal_weight=7.4284 5.82603 4.3466 2.65433
internal_count=34 26 19 12
is_linear=0
shrinkage=0.01


Tree=36
num_leaves=5
num_cat=0
split_feature=5 0 5 12
split_gain=4.44694 3.17676 2.18218 1.81542
threshold=-0.82698705281959606 -0.82541928658237362 0.27955395409461703 1.0000000180025095e-35
decision_type=2 2 2 2
left_child=-1 -2 3 -3
right_child=1 2 -4 -5
leaf_value=-0.013856964044718112 -0.0076855865286733095 -0.0060890108510516508 0.018150894018403644 0.010661285715970414
leaf_weight=1.5925372540950773 1.475031182169914 1.1144150644540787 1.6975548416376112 1.54281185567379
leaf_count=8 7 5 7 7
internal_value=0.000952609 0.00499816 0.00929434 0.00363637
internal_weight=7.42235 5.82981 4.35478 2.65723
internal_count=34 26 19 12
is_linear=0
shrinkage=0.01


Tree=37
num_leaves=5
num_cat=0
split_feature=5 0 5 12
split_gain=4.37631 3.11023 2.12908 1.77468
threshold=-0.82698705281959606 -0.82541928658237362 0.27955395409461703 1.0000000180025095e-35
decision_type=2 2 2 2
left_child=-1 -2 3 -3
right_child=1 2 -4 -5
leaf_value=-0.013804247282712921 -0.0076315597864157307 -0.0060402902027329418 0.017916783172696574 0.010518946492432324
leaf_weight=1.5826821625232694 1.4706408679485319 1.1121809780597687 1.7025134414434431 1.5480253249406815
leaf_count=8 7 5 7 7
internal_value=0.000943663 0.004945 0.00918447 0.00359585
internal_weight=7.41604 5.83336 4.36272 2.66021
internal_count=34 26 19 12
is_linear=0
shrinkage=0.01


Tree=38
num_leaves=6
num_cat=0
split_feature=4 1 4 6 0
split_gain=2.86234 1.43849 1.67214 2.13914 1.57276
threshold=0.72562472781847609 -1.0462075107674316 -0.13593497539607369 0.58123171499761328 0.53421678749873569
decision_type=2 2 2 2 2
left_child=1 -1 3 -3 -4
right_child=-2 2 4 -5 -6
leaf_value=-0.013598274296029694 0.012376274826805629 0.013929882290443802 -0.014053518905351437 -0.0050167647434542217 0.0023662014007330145
leaf_weight=0.96146073937416066 1.688319072127342 1.3614555299282072 1.2226469069719321 1.0597496479749677 1.1156512051820753
leaf_count=5 7 6 6 5 5
internal_value=0.000934862 -0.00244162 -0.000187884 0.00563703 -0.00621933
internal_weight=7.40928 5.72096 4.7595 2.42121 2.3383
internal_count=34 27 22 11 11
is_linear=0
shrinkage=0.01


Tree=39
num_leaves=5
num_cat=0
split_feature=5 0 5 9
split_gain=4.25988 3.02456 2.042 1.65189
threshold=-0.82698705281959606 -0.82541928658237362 0.27955395409461703 0.48806244201749688
decision_type=2 2 2 2
left_child=-1 -2 3 -3
right_child=1 2 -4 -5
leaf_value=-0.013719622912922341 -0.0075805090796298462 0.010139303602125128 0.017548839587288933 -0.0058633467190127974
leaf_weight=1.5659345388412473 1.4650432616472242 1.5653345286846163 1.7099402397871015 1.0972011685371397
leaf_count=8 7 7 7 5
internal_value=0.000926026 0.00485477 0.00902134 0.00354479
internal_weight=7.40345 5.83752 4.37248 2.66254
internal_count=34 26 19 12
is_linear=0
shrinkage=0.01


Tree=40
num_leaves=6
num_cat=0
split_feature=11 4 6 3 3
split_gain=4.29503 3.86437 1.95925 0.733103 0.00538919
threshold=1.0000000180025095e-35 0.72562472781847609 0.75960282432839665 -0.57543612185282544 0.35053218205675896
decision_type=2 2 2 2 2
left_child=1 3 -2 -1 -5
right_child=2 -3 -4 4 -6
leaf_value=-0.0041320175128712316 0.020118487757593412 0.0069358663773269559 0.001516266563466823 -0.013731371476276859 -0.014631809899383383
leaf_weight=1.002429321408272 1.1254871785640719 1.6691473573446272 1.1393437534570692 1.3786396235227587 1.2834979891777036
leaf_count=5 5 7 5 7 6
internal_value=-0.000777114 -0.00567627 0.0107605 -0.0114209 -0.0141655
internal_weight=7.59855 5.33371 2.26483 3.66457 2.66214
internal_count=35 25 10 18 13
is_linear=0
shrinkage=0.01


Tree=41
num_leaves=6
num_cat=0
split_feature=1 3 3 3 6
split_gain=4.1316 2.1558 2.11681 0.501369 0.00430134
threshold=0.11160394764682745 -0.11599843613193127 -0.67722687837199269 0.64444140173461684 0.68162887539249184
decision_type=2 2 2 2 2
left_child=2 -2 -1 4 -4
right_child=1 -3 3 -5 -6
leaf_value=0.0026204125433670501 0.01954762671489017 0.0016103497493756553 -0.013689762425901659 -0.0057451040901902407 -0.01460876342738459
leaf_weight=1.6985068470239637 1.1353141814470293 1.6349195539951322 0.97776512801647264 1.0808905214071272 1.0629826784133909
leaf_count=8 5 7 5 5 5
internal_value=-0.000770421 0.00896151 -0.00636356 -0.0112518 -0.0141685
internal_weight=7.59038 2.77023 4.82015 3.12164 2.04075
internal_count=35 12 23 15 10
is_linear=0
shrinkage=0.01


Tree=42
num_leaves=6
num_cat=0
split_feature=11 0 6 1 2
split_gain=4.17484 2.46935 1.84922 1.04053 0.00225347
threshold=1.0000000180025095e-35 0.37361344009713199 0.75960282432839665 1.0000000180025095e-35 -0.50141057509812537
decision_type=2 2 2 2 2
left_child=1 3 -2 -1 -3
right_child=2 4 -4 -5 -6
leaf_value=-0.0067577077070358742 0.019599261460709068 -0.01386253392923009 0.0015622072217026579 0.0046717639389686708 -0.014525229330860012
leaf_weight=1.3887514024972918 1.1361646950244906 0.99738045036792788 1.1374556422233579 1.8678437471389768 1.0568443089723585
leaf_count=7 5 5 5 8 5
internal_value=-0.000763517 -0.00561792 0.0105756 -0.000202251 -0.0142035
internal_weight=7.58444 5.31082 2.27362 3.2566 2.05422
internal_count=35 25 10 15 10
is_linear=0
shrinkage=0.01


Tree=43
num_leaves=6
num_cat=0
split_feature=11 4 1 3 3
split_gain=4.08876 3.72294 1.33036 0.725261 0.00470794
threshold=1.0000000180025095e-35 0.72562472781847609 1.0000000180025095e-35 -0.57543612185282544 0.35053218205675896
decision_type=2 2 2 2 2
left_child=1 3 -2 -1 -5
right_child=2 -3 -4 4 -6
leaf_value=-0.0040102512458679521 0.0025928438655532012 0.0067567778717272566 0.017874445132488086 -0.013622826606455233 -0.014470103789001576
leaf_weight=0.99605862796306643 1.1095971614122393 1.6738807857036588 1.1707690507173536 1.3595464527606966 1.2669698148965833
leaf_count=5 5 7 5 7 6
internal_value=-0.00075686 -0.00557702 0.0104386 -0.0112761 -0.0140315
internal_weight=7.57682 5.29646 2.28037 3.62257 2.62652
internal_count=35 25 10 18 13
is_linear=0
shrinkage=0.01


Tree=44
num_leaves=6
num_cat=0
split_feature=1 2 3 2 6
split_gain=3.93311 3.21104 2.05027 0.514459 0.00317469
threshold=0.11160394764682745 1.0221156122717767 -0.67722687837199269 0.13459184081117642 0.71749750848358052
decision_type=2 2 2 2 2
left_child=2 -2 -1 4 -4
right_child=1 -3 3 -5 -6
leaf_value=0.0025723553860028986 0.019419798719934177 -0.0020677392789403481 -0.013648443557762882 -0.0054625723112098745 -0.014440914540819402
leaf_weight=1.6995270103216169 1.394683972001076 1.38718044757843 0.97286891937255937 1.0603814274072645 1.0523077398538587
leaf_count=8 6 6 5 5 5
internal_value=-0.000750487 0.00870501 -0.00624755 -0.0111056 -0.0140602
internal_weight=7.56695 2.78186 4.78509 3.08556 2.02518
internal_count=35 12 23 15 10
is_linear=0
shrinkage=0.01


Tree=45
num_leaves=5
num_cat=0
split_feature=4 3 11 5
split_gain=3.64297 3.17942 1.96028 0.711379
threshold=0.72562472781847609 -0.40353824964625012 1.0000000180025095e-35 -0.28280408420188152
decision_type=2 2 2 2
left_child=1 2 -1 -3
right_child=-2 3 -4 -5
leaf_value=-0.0027126481761954807 0.01345930126764646 -0.003694551815944427 0.013385834531429764 -0.014406046004558179
leaf_weight=1.6829867213964462 1.929746016860008 0.98559427261352572 1.3738519251346588 1.6715353876352308
leaf_count=8 8 5 6 8
internal_value=0.0015799 -0.00243206 0.00452258 -0.0104329
internal_weight=7.64371 5.71397 3.05684 2.65713
internal_count=35 27 14 13
is_linear=0
shrinkage=0.01


Tree=46
num_leaves=6
num_cat=0
split_feature=1 3 8 3 0
split_gain=5.88466 3.3328 2.31884 1.86963 1.58257
threshold=0.11160394764682745 -0.11599843613193127 -0.17481972943266885 -0.63924978657965681 0.64178287143053181
decision_type=2 2 2 2 2
left_child=2 -2 3 -1 -5
right_child=1 -3 -4 4 -6
leaf_value=0.01071363325961602 0.023828367859436476 0.0010174686579131494 -0.013869927147761241 -0.014144102413388478 0.0031362405480879832
leaf_weight=1.1262863129377367 1.4549887776374819 1.1442036628723142 1.7919685989618299 1.0270353555679324 1.0950551778078077
leaf_count=5 6 5 9 5 5
internal_value=0.00156478 0.0137867 -0.00473777 0.00029999 -0.00522699
internal_weight=7.63954 2.59919 5.04035 3.24838 2.12209
internal_count=35 11 24 15 10
is_linear=0
shrinkage=0.01


Tree=47
num_leaves=5
num_cat=0
split_feature=1 2 7 12
split_gain=5.76014 3.19364 1.752 1.74853
threshold=0.11160394764682745 1.0221156122717767 0.14335284598245132 -1.0000000180025095e-35
decision_type=2 2 2 2
left_child=2 -2 3 -1
right_child=1 -3 -4 -5
leaf_value=-0.0086777843653045791 0.023418020767066783 0.0011057575385005985 -0.013580578877948333 0.0055710686547274521
leaf_weight=1.5532582998275755 1.4608630388975146 1.143753722310066 1.5413484424352644 1.9329622983932497
leaf_count=7 6 5 8 9
internal_value=0.00155036 0.0136201 -0.00470259 -0.000777396
internal_weight=7.63219 2.60462 5.02757 3.48622
internal_count=35 11 24 16
is_linear=0
shrinkage=0.01


Tree=48
num_leaves=6
num_cat=0
split_feature=1 3 8 3 0
split_gain=5.63887 3.19398 2.27541 1.8266 1.56688
threshold=0.11160394764682745 -0.11599843613193127 -0.17481972943266885 -0.63924978657965681 0.64178287143053181
decision_type=2 2 2 2 2
left_child=2 -2 3 -1 -5
right_child=1 -3 -4 4 -6
leaf_value=0.010579410921812932 0.023241367144199724 0.00094690158048661016 -0.01377913225721311 -0.014080902661697575 0.0031420661878819858
leaf_weight=1.1294021159410479 1.4644450098276141 1.145034536719322 1.7719895541667936 1.0210728049278261 1.0943678319454191
leaf_count=5 6 5 9 5 5
internal_value=0.00153584 0.0134586 -0.00466572 0.000311065 -0.00517105
internal_weight=7.62631 2.60948 5.01683 3.24484 2.11544
internal_count=35 11 24 15 10
is_linear=0
shrinkage=0.01


Tree=49
num_leaves=5
num_cat=0
split_feature=4 3 6 2
split_gain=3.39308 3.03431 3.94644 0.708832
threshold=0.72562472781847609 -0.40353824964625012 0.56766872671611535 -0.50141057509812537
decision_type=2 2 2 2
left_child=1 2 -1 -3
right_child=-2 3 -4 -5
leaf_value=0.015197520177117146 0.012946964356814035 -0.0035089472795148597 -0.0075520294017462474 -0.014268149808718749
leaf_weight=1.605373486876488 1.9381007254123686 0.97449333965778384 1.4524181038141248 1.6476044803857801
leaf_count=7 8 5 7 8
internal_value=0.0015219 -0.00237658 0.00439173 -0.0102695
internal_weight=7.61799 5.67989 3.05779 2.6221
internal_count=35 27 14 13
is_linear=0
shrinkage=0.01


Tree=50
num_leaves=6
num_cat=0
split_feature=1 6 0 4 8
split_gain=5.33849 1.43937 1.83758 0.484028 0.00353793
threshold=0.11160394764682745 -1.3847890695240366 0.64178287143053181 1.6669584776269657 0.10445057896026953
decision_type=2 2 2 2 2
left_child=1 -1 4 -2 -3
right_child=3 2 -4 -5 -6
leaf_value=0.0035938818435252607 0.015710063378230818 -0.014025835141748376 0.00060412672656749136 0.0067696134343098961 -0.013326391358956656
leaf_weight=1.0809276252984998 1.2045919597148897 1.6339311897754671 1.2905571162700651 1.2176867276430128 1.2974060922861097
leaf_count=5 5 8 6 5 7
internal_value=-0.00108414 -0.00670258 -0.00933878 0.0112157 -0.0137163
internal_weight=7.7251 5.30282 4.22189 2.42228 2.93134
internal_count=36 26 21 10 15
is_linear=0
shrinkage=0.01


Tree=51
num_leaves=6
num_cat=0
split_feature=4 5 4 2 8
split_gain=3.11675 1.86661 3.33303 0.5749 0.422087
threshold=1.0447209141942353 -0.28280408420188152 -1.1012009391827449 0.13459184081117642 0.25342377361409096
decision_type=2 2 2 2 2
left_child=1 2 -1 -3 -4
right_child=-2 3 4 -5 -6
leaf_value=-0.013426100210336333 0.010806966130636298 -0.014318185108454971 0.012107078634478428 -0.0048041408796544406 0.0033135835929468792
leaf_weight=1.1258173882961271 1.7162487357854841 1.6561189442873003 1.1032215654850013 1.0302244722843168 1.0804452151060102
leaf_count=6 7 8 5 5 5
internal_value=-0.00107532 -0.00447651 0.000550418 -0.0106695 0.00775619
internal_weight=7.71208 5.99583 3.30948 2.68634 2.18367
internal_count=36 29 16 13 10
is_linear=0
shrinkage=0.01


Tree=52
num_leaves=6
num_cat=0
split_feature=1 12 8 1 5
split_gain=5.17009 1.42804 2.09811 1.04523 0.624681
threshold=0.11160394764682745 1.0000000180025095e-35 0.10445057896026953 -0.39242011716977748 1.2492473775450441
decision_type=2 2 2 2 2
left_child=1 -1 3 -3 -2
right_child=4 2 -4 -5 -6
leaf_value=-0.014301302109326879 0.016126140737000617 0.0086386686465687364 -0.013305865974282327 -0.0048589907445099959 0.0059795293595035631
leaf_weight=1.6605240255594251 1.2036278247833254 1.2805597484111788 1.2928348332643507 1.0393617451190951 1.2235719859600065
leaf_count=8 5 6 7 5 5
internal_value=-0.00106638 -0.00662545 -0.00309741 0.0025915 0.0110111
internal_weight=7.70048 5.27328 3.61276 2.31992 2.4272
internal_count=36 26 18 11 10
is_linear=0
shrinkage=0.01


Tree=53
num_leaves=6
num_cat=0
split_feature=3 2 7 8 2
split_gain=1.9223 1.45751 2.0779 1.71714 0.874138
threshold=0.64444140173461684 0.45041357451337433 -0.68939945976732309 -0.17481972943266885 -0.4008055930675633
decision_type=2 2 2 2 2
left_child=1 2 -1 -4 -5
right_child=-2 -3 3 4 -6
leaf_value=-0.014471212654238267 -0.013946989486663536 0.0082806555528660807 0.011895416591140564 -0.0076579261164466776 0.0041441509986045412
leaf_weight=1.0527468621730798 1.0057076066732404 1.904042527079582 1.1048698425292967 1.5794350206851957 1.0413351356983196
leaf_count=5 5 8 5 8 5
internal_value=-0.00105764 0.000882215 -0.00206584 0.00143952 -0.0029685
internal_weight=7.68814 6.68243 4.77839 3.72564 2.62077
internal_count=36 31 23 18 13
is_linear=0
shrinkage=0.01


Tree=54
num_leaves=6
num_cat=0
split_feature=4 5 4 9 7
split_gain=2.95741 1.82484 3.24044 0.453503 0.402132
threshold=1.0447209141942353 -0.28280408420188152 -1.1012009391827449 0.48806244201749688 0.7850539911221518
decision_type=2 2 2 2 2
left_child=1 2 -1 -3 -4
right_child=-2 3 4 -5 -6
leaf_value=-0.013330298017358761 0.01049944419370624 -0.0060458856189188571 0.011880969391953451 -0.014331725764489751 0.0033033727539310089
leaf_weight=1.1094768345355985 1.72070537507534 1.2171413451433184 1.1086051762104041 1.4444871395826338 1.07805860042572
leaf_count=6 7 6 5 7 5
internal_value=-0.00104856 -0.00438382 0.00058944 -0.0105427 0.00765208
internal_weight=7.67847 5.95777 3.29614 2.66163 2.18666
internal_count=36 29 16 13 10
is_linear=0
shrinkage=0.01


Tree=55
num_leaves=5
num_cat=0
split_feature=1 1 0 9
split_gain=4.4263 4.72779 2.42851 0.00950816
threshold=0.39360275217079038 0.8532742519829436 0.64178287143053181 0.32205480867821229
decision_type=2 2 2 2
left_child=2 -2 3 -1
right_child=1 -3 -4 -5
leaf_value=-0.014257985517499145 0.021812916526607863 -0.0065328060045229883 0.0039034843260549357 -0.013101396927733931
leaf_weight=1.6389249414205558 1.2342824488878252 1.1244840472936628 1.0653350353240965 1.2551181614398954
leaf_count=8 5 5 5 7
internal_value=-0.00254438 0.00829979 -0.00900471 -0.0137564
internal_weight=6.31814 2.35877 3.95938 2.89404
internal_count=30 10 20 15
is_linear=0
shrinkage=0.01


Tree=56
num_leaves=5
num_cat=0
split_feature=1 1 0 9
split_gain=4.35086 4.62553 2.40078 0.00914166
threshold=0.39360275217079038 0.8532742519829436 0.64178287143053181 0.32205480867821229
decision_type=2 2 2 2
left_child=2 -2 3 -1
right_child=1 -3 -4 -5
leaf_value=-0.014198974003600092 0.021561397955821522 -0.0064803702764173656 0.0038590886067844362 -0.013061215255135832
leaf_weight=1.6293271481990821 1.2361839711666109 1.1222580820322035 1.0668074786663053 1.2464331835508344
leaf_count=8 5 5 5 7
internal_value=-0.00252604 0.0082178 -0.008953 -0.0137058
internal_weight=6.30101 2.35844 3.94257 2.87576
internal_count=30 10 20 15
is_linear=0
shrinkage=0.01


Tree=57
num_leaves=5
num_cat=0
split_feature=1 1 0 9
split_gain=4.27701 4.52668 2.37353 0.00879051
threshold=0.39360275217079038 0.8532742519829436 0.64178287143053181 0.32205480867821229
decision_type=2 2 2 2
left_child=2 -2 3 -1
right_child=1 -3 -4 -5
leaf_value=-0.014141014032999532 0.021318047965047261 -0.0064283741271073192 0.003815281892642327 -0.013021673714371813
leaf_weight=1.6196935176849372 1.2377840131521227 1.1200333535671232 1.0682585090398786 1.23775939643383
leaf_count=8 5 5 5 7
internal_value=-0.00250798 0.00813767 -0.00890185 -0.0136562
internal_weight=6.28353 2.35782 3.92571 2.85745
internal_count=30 10 20 15
is_linear=0
shrinkage=0.01


Tree=58
num_leaves=5
num_cat=0
split_feature=1 1 0 9
split_gain=4.20468 4.43107 2.34674 0.00845404
threshold=0.39360275217079038 0.8532742519829436 0.64178287143053181 0.32205480867821229
decision_type=2 2 2 2
left_child=2 -2 3 -1
right_child=1 -3 -4 -5
leaf_value=-0.014084081477890576 0.02108248266785432 -0.0063768103500070061 0.0037720543779985187 -0.012982759206178526
leaf_weight=1.6100269258022315 1.2390913814306261 1.1178103536367414 1.0696884542703626 1.2290981858968733
leaf_count=8 5 5 5 7
internal_value=-0.0024902 0.00805933 -0.00885126 -0.0136073
internal_weight=6.26572 2.3569 3.90881 2.83913
internal_count=30 10 20 15
is_linear=0
shrinkage=0.01


Tree=59
num_leaves=5
num_cat=0
split_feature=1 1 0 9
split_gain=4.13385 4.33855 2.3204 0.00813154
threshold=0.39360275217079038 0.8532742519829436 0.64178287143053181 0.32205480867821229
decision_type=2 2 2 2
left_child=2 -2 3 -1
right_child=1 -3 -4 -5
leaf_value=-0.014028151609815012 0.020854346665424035 -0.006325674554121306 0.0037293960143041415 -0.012944458750650287
leaf_weight=1.6003302484750754 1.2401145845651629 1.1155893653631208 1.0710976421833036 1.2204508930444715
leaf_count=8 5 5 5 7
internal_value=-0.00247268 0.00798272 -0.0088012 -0.0135593
internal_weight=6.24758 2.3557 3.89188 2.82078
internal_count=30 10 20 15
is_linear=0
shrinkage=0.01


Tree=60
num_leaves=6
num_cat=0
split_feature=6 3 1 3 0
split_gain=3.02341 3.46461 0.861194 0.0023583 0.00116229
threshold=-1.3847890695240366 0.35053218205675896 0.11160394764682745 -0.49550206865752472 -0.84375508060110205
decision_type=2 2 2 2 2
left_child=-1 2 3 4 -2
right_child=1 -3 -4 -5 -6
leaf_value=0.0097332612554645644 -0.013243195628710527 0.0059799916489377911 -0.0043965522903934903 -0.012907231728536439 -0.013703591039074588
leaf_weight=1.5353391021490095 0.91323377192020405 1.7986893355846403 1.6288237273693082 0.86746661365032274 1.3723815977573393
leaf_count=7 5 8 7 5 7
internal_value=-0.00290274 -0.00585089 -0.010301 -0.0133512 -0.0135196
internal_weight=8.11593 6.5806 4.78191 3.15308 2.28562
internal_count=39 32 24 17 12
is_linear=0
shrinkage=0.01


Tree=61
num_leaves=7
num_cat=0
split_feature=8 2 6 5 1 0
split_gain=6.02874 3.52129 3.20123 0.601548 0.0232212 0.00063178
threshold=0.10445057896026953 0.33911841324891751 -1.2293675450992951 -0.52228735526350833 0.11160394764682745 -0.7872611044533967
decision_type=2 2 2 2 2 2
left_child=1 2 -1 -4 5 -2
right_child=4 -3 3 -5 -6 -7
leaf_value=0.011668663485115346 -0.012917907570708282 0.015424073306048893 -0.0033809367963843172 -0.013977463045524057 -0.014865592734211111 -0.013294053977678206
leaf_weight=1.1028632968664172 0.86668480932712555 1.7340284287929533 0.9661197513341907 1.202564552426338 1.3065921217203138 0.92109756171703361
leaf_count=5 5 7 5 6 6 5
internal_value=-0.0028796 0.00390355 -0.0022027 -0.00925685 -0.0138523 -0.0131117
internal_weight=8.09995 5.00558 3.27155 2.16868 3.09437 1.78778
internal_count=39 23 16 11 16 10
is_linear=0
shrinkage=0.01


Tree=62
num_leaves=6
num_cat=0
split_feature=8 7 5 3 2
split_gain=5.94393 3.98576 2.93347 0.858888 0.011912
threshold=0.10445057896026953 -1.1902724847415154 -0.36726470212093748 -0.28828081055780214 1.0000000180025095e-35
decision_type=2 2 2 2 2
left_child=1 -1 -3 -4 -2
right_child=4 2 3 -5 -6
leaf_value=-0.013984944007853837 -0.013133569650218271 -0.005074674449849533 0.018425028137008838 0.0072657466560889237 -0.01438120752509546
leaf_weight=1.0004725605249403 1.4332846105098727 1.1593697667121885 1.6640207320451734 1.1779416054487231 1.6419116854667661
leaf_count=5 8 6 7 5 8
internal_value=-0.00285917 0.00386726 0.00833093 0.0137997 -0.0137997
internal_weight=8.077 5.0018 4.00133 2.84196 3.0752
internal_count=39 23 18 12 16
is_linear=0
shrinkage=0.01


Tree=63
num_leaves=7
num_cat=0
split_feature=8 7 5 3 1 0
split_gain=5.86077 3.91587 2.86723 0.836451 0.0214504 0.000592267
threshold=0.10445057896026953 -1.1902724847415154 -0.36726470212093748 -0.28828081055780214 0.11160394764682745 -0.7872611044533967
decision_type=2 2 2 2 2 2
left_child=1 -1 -3 -4 5 -2
right_child=4 2 3 -5 -6 -7
leaf_value=-0.013930454173310345 -0.012841905293390089 -0.005035864306394665 0.01819019546303503 0.0071867612487361929 -0.014726771913560434 -0.013208680290274588
leaf_weight=0.99437269568443287 0.8540283739566803 1.1566354185342786 1.6686243563890455 1.1789735704660418 1.293093681335449 0.90874542295932792
leaf_count=5 5 6 7 5 6 5
internal_value=-0.00283878 0.00383084 0.00824151 0.0136345 -0.0137486 -0.013031
internal_weight=8.05447 4.99861 4.00423 2.8476 3.05587 1.76277
internal_count=39 23 18 12 16 10
is_linear=0
shrinkage=0.01


Tree=64
num_leaves=7
num_cat=0
split_feature=8 7 5 0 1 0
split_gain=5.77889 3.84753 2.8029 0.665784 0.0205882 0.000569775
threshold=0.10445057896026953 -1.1902724847415154 -0.36726470212093748 -1.0000000180025095e-35 0.11160394764682745 -0.7872611044533967
decision_type=2 2 2 2 2 2
left_child=1 -1 -3 -4 5 -2
right_child=4 2 3 -5 -6 -7
leaf_value=-0.013876913085867693 -0.01280582930713204 -0.0049973092692352792 0.017555900877398795 0.0077571962198781843 -0.014658371508423536 -0.013166839051423792
leaf_weight=0.98825782537460316 0.84790067374706268 1.1539171785116193 1.6641430258750913 1.1887526810169222 1.2861711233854292 0.90254794061183952
leaf_count=5 5 6 7 5 6 5
internal_value=-0.00281864 0.00379504 0.00815372 0.0134729 -0.0136978 -0.012992
internal_weight=8.03169 4.99507 4.00681 2.8529 3.03662 1.75045
internal_count=39 23 18 12 16 10
is_linear=0
shrinkage=0.01


Tree=65
num_leaves=4
num_cat=0
split_feature=3 7 9
split_gain=2.10163 1.61893 0.778032
threshold=-0.28828081055780214 0.52545516720260133 0.32205480867821229
decision_type=2 2 2
left_child=2 -2 -1
right_child=1 -3 -4
leaf_value=0.011754294016118163 0.0017154687384553498 -0.013613873767705018 0.0023027245042259808
leaf_weight=1.7848419994115832 1.7237453609704974 1.147610545158386 1.7009486407041547
leaf_count=8 8 6 8
internal_value=0.00192382 -0.00441129 0.00714225
internal_weight=6.35715 2.87136 3.48579
internal_count=30 14 16
is_linear=0
shrinkage=0.01


Tree=66
num_leaves=5
num_cat=0
split_feature=1 1 7 2
split_gain=3.00923 3.87791 2.28959 1.28563
threshold=0.97448770201226398 0.39360275217079038 0.36087290628628432 -0.50141057509812537
decision_type=2 2 2 2
left_child=1 2 3 -1
right_child=-2 -3 -4 -5
leaf_value=0.012482937681909332 -0.013979330485257475 0.017374895437231471 -0.013126322525349163 -0.0018261162443812865
leaf_weight=1.0865605920553205 1.0043157041072843 1.6974632441997526 1.0813275277614591 1.4875041395425803
leaf_count=5 5 7 6 7
internal_value=0.00190444 0.00488459 -0.000915563 0.004214
internal_weight=6.35717 5.35286 3.65539 2.57406
internal_count=30 25 18 12
is_linear=0
shrinkage=0.01


Tree=67
num_leaves=5
num_cat=0
split_feature=1 1 7 2
split_gain=2.96105 3.81516 1.56255 2.04158
threshold=0.97448770201226398 1.0000000180025095e-35 0.36087290628628432 -0.50141057509812537
decision_type=2 2 2 2
left_child=1 2 3 -1
right_child=-2 -3 -4 -5
leaf_value=0.012307322669948575 -0.013924666264736976 0.015264907453796333 -0.013149650837469067 -0.0064570165431267167
leaf_weight=1.0910215228796007 0.9982064515352248 2.1190264075994492 0.90494579076766957 1.2375102043151858
leaf_count=5 5 9 5 6
internal_value=0.00188707 0.00483586 -0.00199871 0.00233492
internal_weight=6.35071 5.3525 3.23348 2.32853
internal_count=30 25 16 11
is_linear=0
shrinkage=0.01


Tree=68
num_leaves=5
num_cat=0
split_feature=6 4 8 0
split_gain=3.00844 2.76667 0.615196 0.441398
threshold=0.68162887539249184 -0.13593497539607369 0.25342377361409096 -0.8078629262066811
decision_type=2 2 2 2
left_child=1 2 -1 -3
right_child=-2 3 -4 -5
leaf_value=0.010820008947538593 0.013636734838368157 -0.013658197623774576 0.00064867073220063699 -0.0048770284731240055
leaf_weight=1.1178445667028429 1.6184926778078077 1.3355629593133924 1.2704873234033582 1.0018243640661242
leaf_count=5 7 7 6 5
internal_value=0.00186987 -0.00216011 0.00540931 -0.00989451
internal_weight=6.34421 4.72572 2.38833 2.33739
internal_count=30 23 11 12
is_linear=0
shrinkage=0.01


Tree=69
num_leaves=5
num_cat=0
split_feature=6 3 6 1
split_gain=2.94146 5.14771 1.87269 0.00319543
threshold=0.68162887539249184 -0.49550206865752472 -1.2293675450992951 0.8532742519829436
decision_type=2 2 2 2
left_child=1 2 -1 -3
right_child=-2 3 -4 -5
leaf_value=0.016532034662437425 0.013466638145058801 -0.013271171843489598 -0.00049984363593511352 -0.014056403755870845
leaf_weight=1.1883928030729294 1.6225258558988569 0.90578238666057664 1.4133149534463878 1.2112727761268614
leaf_count=5 7 5 7 6
internal_value=0.00185186 -0.00214184 0.00727988 -0.0137204
internal_weight=6.34129 4.71876 2.60171 2.11706
internal_count=30 23 12 11
is_linear=0
shrinkage=0.01


Tree=70
num_leaves=6
num_cat=0
split_feature=1 1 6 9 7
split_gain=2.36033 4.03118 2.33506 1.71981 0.0021007
threshold=-0.2204573793717555 0.97448770201226398 0.54667673556387786 -0.67399099135749541 -0.62696000407948393
decision_type=2 2 2 2 2
left_child=2 3 -1 -2 -4
right_child=1 -3 4 -5 -6
leaf_value=0.0016853389476232411 -0.00048010775153650107 -0.01379572370667745 -0.013842611198747792 0.014666756143635702 -0.013227044530789335
leaf_weight=1.8407336324453352 1.1616516858339312 0.98309138417243946 0.98429475724697102 2.1133453398942947 1.2693014442920687
leaf_count=9 5 5 5 9 7
internal_value=-0.0012495 0.00396322 -0.0066707 0.00929412 -0.0134959
internal_weight=8.35242 4.25809 4.09433 3.275 2.2536
internal_count=40 19 21 14 12
is_linear=0
shrinkage=0.01


Tree=71
num_leaves=7
num_cat=0
split_feature=3 2 0 7 7 2
split_gain=5.29501 3.63228 1.94426 1.83852 1.17545 0.0368801
threshold=-0.28828081055780214 0.13459184081117642 -0.49073806329702058 -0.45372444903251546 0.043415782395120998 0.67345309534595932
decision_type=2 2 2 2 2 2
left_child=1 2 4 -2 -1 -5
right_child=3 -3 -4 5 -6 -7
leaf_value=-0.013399608073923904 0.00093275665396309025 0.02070554676222542 0.011354329115191939 -0.013239534112366927 0.0014753344231114203 -0.015576107393143345
leaf_weight=0.93239551782608066 1.1117399483919146 1.2358704507350919 1.1092078983783724 1.438261538743973 1.2347692996263502 1.2737682014703748
leaf_count=5 5 5 5 8 6 6
internal_value=-0.00123964 0.00609711 0.000586708 -0.00989737 -0.00492442 -0.014337
internal_weight=8.33601 4.51224 3.27637 3.82377 2.16716 2.71203
internal_count=40 21 16 19 11 14
is_linear=0
shrinkage=0.01


Tree=72
num_leaves=6
num_cat=0
split_feature=4 6 4 2 6
split_gain=1.75174 1.37324 5.33422 1.35648 0.440772
threshold=0.72562472781847609 0.56766872671611535 -0.13593497539607369 1.0221156122717767 0.75960282432839665
decision_type=2 2 2 2 2
left_child=1 2 -1 -2 -3
right_child=3 4 -4 -5 -6
leaf_value=0.01175568352341785 0.013369252175662236 -0.013308472664116324 -0.013202938189249691 -0.0016713641919182704 -0.0047363322633718358
leaf_weight=1.8095096200704577 1.2201894372701647 1.4719265699386599 1.6255703866481779 1.1790278851985929 1.0124241113662718
leaf_count=8 5 8 9 5 5
internal_value=-0.00123002 -0.00415151 -5.5394e-05 0.00597796 -0.00981515
internal_weight=8.31865 5.91943 3.43508 2.39922 2.48435
internal_count=40 30 17 10 13
is_linear=0
shrinkage=0.01


Tree=73
num_leaves=6
num_cat=0
split_feature=3 1 6 7 1
split_gain=5.17549 3.01957 3.57126 1.81693 0.0287728
threshold=-0.28828081055780214 -0.2204573793717555 0.54667673556387786 -0.45372444903251546 0.11160394764682745
decision_type=2 2 2 2 2
left_child=1 2 -1 -2 -5
right_child=3 -3 -4 4 -6
leaf_value=0.01137183653312032 0.00093980072072335119 0.0147088048921621 -0.013153584350617781 -0.013145160484815503 -0.015222142572778154
leaf_weight=1.1146259456872942 1.1100478172302248 2.1206317991018295 1.2704753577709196 1.2322792112827303 1.4539568871259687
leaf_count=5 5 9 7 7 7
internal_value=-0.00122038 0.00602699 -0.00169215 -0.00982214 -0.0142694
internal_weight=8.30202 4.50573 2.3851 3.79628 2.68624
internal_count=40 21 12 19 14
is_linear=0
shrinkage=0.01


Tree=74
num_leaves=6
num_cat=0
split_feature=3 1 6 7 4
split_gain=5.08795 2.95139 3.5103 1.79827 0.0345442
threshold=-0.28828081055780214 -0.2204573793717555 0.54667673556387786 -0.45372444903251546 0.56607663463059665
decision_type=2 2 2 2 2
left_child=1 2 -1 -2 -5
right_child=3 -3 -4 4 -6
leaf_value=0.01122038230241121 0.00093021242639633255 0.014536185097052691 -0.013112483077367771 -0.013140387501578938 -0.015419205192227583
leaf_weight=1.1183556914329531 1.1102735400199892 2.1243375688791275 1.2617568075656889 1.4132472872734072 1.2567487955093382
leaf_count=5 5 9 7 8 6
internal_value=-0.00121097 0.00596818 -0.00167907 -0.00976541 -0.014213
internal_weight=8.28472 4.50445 2.38011 3.78027 2.67
internal_count=40 21 12 19 14
is_linear=0
shrinkage=0.01


Tree=75
num_leaves=5
num_cat=0
split_feature=7 2 2 2
split_gain=1.87488 2.26116 2.10859 0.0922003
threshold=0.52545516720260133 0.13459184081117642 -0.58889858071168377 0.45041357451337433
decision_type=2 2 2 2
left_child=1 2 -1 -3
right_child=-2 3 -4 -5
leaf_value=0.0022904443457180323 -0.013307785563900337 0.0098717315034679148 -0.013659892470341425 0.0058787320543578023
leaf_weight=1.8009096235036848 1.2515404671430586 1.1209494173526766 1.5354328304529192 1.194483160972595
leaf_count=9 7 5 8 5
internal_value=-0.00223319 0.000219187 -0.00505013 0.00781183
internal_weight=6.90332 5.65178 3.33634 2.31543
internal_count=34 27 17 10
is_linear=0
shrinkage=0.01


Tree=76
num_leaves=5
num_cat=0
split_feature=7 0 1 6
split_gain=1.85186 2.04665 0.863438 0.778181
threshold=0.52545516720260133 -0.82541928658237362 -0.91679264811563221 0.75960282432839665
decision_type=2 2 2 2
left_child=1 -1 -3 -4
right_child=-2 2 3 -5
leaf_value=-0.0089863246413942818 -0.013265445563114242 -0.0039390855479507925 0.0020855912270708612 0.012356627667316522
leaf_weight=1.6921565532684324 1.2430224269628523 0.98838678002357472 1.5891910195350654 1.376653343439102
leaf_count=9 7 5 7 6
internal_value=-0.00221552 0.000217057 0.00415551 0.00685309
internal_weight=6.88941 5.64639 3.95423 2.96584
internal_count=34 27 18 13
is_linear=0
shrinkage=0.01


Tree=77
num_leaves=5
num_cat=0
split_feature=5 0 1 1
split_gain=3.21601 3.42688 0.649777 1.14775
threshold=0.15125934459731707 -0.82541928658237362 -0.45727029743293129 -0.91679264811563221
decision_type=2 2 2 2
left_child=2 -2 3 -1
right_child=1 -3 -4 -5
leaf_value=-0.013087042330371876 -0.0074095115822159358 0.01369693529443705 -0.014004248592505276 0.0010772202036674113
leaf_weight=1.0435501635074618 1.2927744984626772 1.899574428796768 1.3752050101757047 1.2662628740072253
leaf_count=6 7 8 7 6
internal_value=-0.00219737 0.00514966 -0.00856214 -0.00532205
internal_weight=6.87737 3.19235 3.68502 2.30981
internal_count=34 15 19 12
is_linear=0
shrinkage=0.01


Tree=78
num_leaves=5
num_cat=0
split_feature=5 9 4 4
split_gain=3.16244 4.66404 0.653153 1.75638
threshold=0.15125934459731707 -0.34197572467892617 -0.13593497539607369 -0.75019513416940986
decision_type=2 2 2 2
left_child=2 -2 3 -1
right_child=1 -3 -4 -5
leaf_value=-0.013276513144436126 -0.0084950361144176031 0.015847760377910105 -0.013978310663025156 0.0042655459637480301
leaf_weight=1.2483514249324801 1.4094604998826983 1.7824702858924864 1.3698989599943159 1.0515465140342715
leaf_count=7 7 8 7 5
internal_value=-0.00218057 0.00509871 -0.00851197 -0.00525603
internal_weight=6.86173 3.19193 3.6698 2.2999
internal_count=34 15 19 12
is_linear=0
shrinkage=0.01


Tree=79
num_leaves=5
num_cat=0
split_feature=5 0 2 4
split_gain=3.10965 3.33611 1.07353 1.35173
threshold=0.15125934459731707 -0.82541928658237362 -0.58889858071168377 -1.1012009391827449
decision_type=2 2 2 2
left_child=2 -2 3 -1
right_child=1 -3 -4 -5
leaf_value=-0.012754948138202864 -0.007383083468055625 0.013453625484149063 -0.014016639415841456 0.0043629099332061754
leaf_weight=0.82416282594203938 1.2881048023700716 1.9044414609670637 1.7825441360473631 1.0477891117334368
leaf_count=5 7 8 9 5
internal_value=-0.00216364 0.00504659 -0.00846246 -0.00317356
internal_weight=6.84704 3.19255 3.6545 1.87195
internal_count=34 15 19 10
is_linear=0
shrinkage=0.01


Tree=80
num_leaves=6
num_cat=0
split_feature=0 3 2 6 6
split_gain=2.2844 3.68556 2.8047 1.50134 0.363843
threshold=-0.82541928658237362 -0.28828081055780214 -0.4008055930675633 0.68162887539249184 0.58123171499761328
decision_type=2 2 2 2 2
left_child=4 2 -2 -3 -1
right_child=1 3 -4 -5 -6
leaf_value=-0.013327852839580163 0.0012263003357504058 -0.013373852762174551 0.021561931504223135 0.0019131068309505407 -0.0044215331456000442
leaf_weight=0.9066684693098066 1.2505332231521609 1.0786847174167635 1.4819524586200712 1.5885852277278898 0.92833834886550903
leaf_count=5 6 6 6 7 5
internal_value=0.000817114 0.00409282 0.0122552 -0.00426917 -0.0088221
internal_weight=7.23476 5.39976 2.73249 2.66727 1.83501
internal_count=35 25 12 13 10
is_linear=0
shrinkage=0.01


Tree=81
num_leaves=6
num_cat=0
split_feature=1 3 5 3 1
split_gain=2.36584 3.48973 1.90206 1.48004 0.666422
threshold=-0.2204573793717555 -0.28828081055780214 0.27955395409461703 -0.78559248035995011 -0.60097458891140576
decision_type=2 2 2 2 2
left_child=3 -2 -3 -1 -5
right_child=1 2 -4 4 -6
leaf_value=0.0049249727711858328 0.016937218760712122 -0.013315955176364214 0.0058986808758050369 -0.0027757654524620378 -0.013595017819752482
leaf_weight=1.0142041742801668 1.6925217956304552 0.90306212007999453 1.1994361877441404 0.91996586322784457 1.4936740100383756
leaf_count=5 7 5 5 5 8
internal_value=0.000810117 0.00624939 -0.00235436 -0.00521179 -0.00947123
internal_weight=7.22286 3.79502 2.1025 3.42784 2.41364
internal_count=35 17 10 18 13
is_linear=0
shrinkage=0.01


Tree=82
num_leaves=6
num_cat=0
split_feature=1 2 5 2 5
split_gain=2.32226 2.63437 1.844 1.45704 3.25363
threshold=-0.2204573793717555 1.5918115775076105 0.18760948395488528 -0.58889858071168377 -0.82698705281959606
decision_type=2 2 2 2 2
left_child=3 2 -2 4 -1
right_child=1 -3 -4 -5 -6
leaf_value=-0.012942449690400036 0.0038870424551247754 -0.0073710585328197751 0.020334324996676902 -0.013552430827623276 0.011810375719723832
leaf_weight=1.0224888771772387 1.5096188485622413 1.0395461171865461 1.2428912371397016 1.2914319634437559 1.1048145145177843
leaf_count=6 7 5 5 7 5
internal_value=0.000803167 0.00619156 0.0113138 -0.00517363 -8.70757e-05
internal_weight=7.21079 3.79206 2.75251 3.41874 2.1273
internal_count=35 17 12 18 11
is_linear=0
shrinkage=0.01


Tree=83
num_leaves=6
num_cat=0
split_feature=1 3 7 3 5
split_gain=2.27923 3.37899 1.8665 1.43876 0.661098
threshold=-0.2204573793717555 -0.28828081055780214 0.52545516720260133 -0.78559248035995011 -0.52228735526350833
decision_type=2 2 2 2 2
left_child=3 -2 -3 -1 -5
right_child=1 2 -4 4 -6
leaf_value=0.004830657242219278 0.016625863833282909 0.0057968753968536315 -0.013275459336897083 -0.002694506245859752 -0.013513509716917969
leaf_weight=1.0157817304134371 1.6956209987401965 1.1997840553522112 0.89656552672386158 0.91464431583881411 1.4766014516353605
leaf_count=5 7 5 5 5 8
internal_value=0.000796243 0.00612975 -0.00235997 -0.00513987 -0.00937527
internal_weight=7.199 3.79197 2.09635 3.40703 2.39125
internal_count=35 17 10 18 13
is_linear=0
shrinkage=0.01


Tree=84
num_leaves=6
num_cat=0
split_feature=1 2 5 2 5
split_gain=2.23744 2.55723 1.79315 1.4247 3.19547
threshold=-0.2204573793717555 1.5918115775076105 0.18760948395488528 -0.58889858071168377 -0.82698705281959606
decision_type=2 2 2 2 2
left_child=3 2 -2 4 -1
right_child=1 -3 -4 -5 -6
leaf_value=-0.012903837820699114 0.0037910704305726766 -0.0073225581601602165 0.020008675595840231 -0.013460663340457342 0.011654240253190102
leaf_weight=1.0151356458663943 1.51022157073021 1.0354824513196943 1.2428518384695051 1.2744394987821577 1.1083224266767504
leaf_count=6 7 5 5 7 5
internal_value=0.000789472 0.00607376 0.0111124 -0.00510236 -8.594e-05
internal_weight=7.18645 3.78856 2.75307 3.3979 2.12346
internal_count=35 17 12 18 11
is_linear=0
shrinkage=0.01


end of trees

feature_importances:
Column_1=53
Column_5=48
Column_0=41
Column_4=41
Column_3=36
Column_2=34
Column_6=34
Column_8=34
Column_7=29
Column_9=22
Column_11=9
Column_12=6

parameters:
[boosting: gbdt]
[objective: binary]
[metric: auc]
[tree_learner: serial]
[device_type: cpu]
[data_sample_strategy: bagging]
[data: ]
[valid: ]
[num_iterations: 1000]
[learning_rate: 0.01]
[num_leaves: 15]
[num_threads: 0]
[seed: 42]
[deterministic: 1]
[force_col_wise: 1]
[force_row_wise: 0]
[histogram_pool_size: -1]
[max_depth: -1]
[min_data_in_leaf: 5]
[min_sum_hessian_in_leaf: 0.001]
[bagging_fraction: 0.7]
[pos_bagging_fraction: 1]
[neg_bagging_fraction: 1]
[bagging_freq: 5]
[bagging_seed: 400]
[bagging_by_query: 0]
[feature_fraction: 0.7]
[feature_fraction_bynode: 1]
[feature_fraction_seed: 30056]
[extra_trees: 0]
[extra_seed: 12879]
[early_stopping_round: 0]
[early_stopping_min_delta: 0]
[first_metric_only: 0]
[max_delta_step: 0]
[lambda_l1: 0]
[lambda_l2: 0]
[linear_lambda: 0]
[min_gain_to_split: 0]
[drop_rate: 0.1]
[max_drop: 50]
[skip_drop: 0.5]
[xgboost_dart_mode: 0]
[uniform_drop: 0]
[drop_seed: 17869]
[top_rate: 0.2]
[other_rate: 0.1]
[min_data_per_group: 100]
[max_cat_threshold: 32]
[cat_l2: 10]
[cat_smooth: 10]
[max_cat_to_onehot: 4]
[top_k: 20]
[monotone_constraints: ]
[monotone_constraints_method: basic]
[monotone_penalty: 0]
[feature_contri: ]
[forcedsplits_filename: ]
[refit_decay_rate: 0.9]
[cegb_tradeoff: 1]
[cegb_penalty_split: 0]
[cegb_penalty_feature_lazy: ]
[cegb_penalty_feature_coupled: ]
[path_smooth: 0]
[interaction_constraints: ]
[verbosity: -1]
[saved_feature_importance_type: 0]
[use_quantized_grad: 0]
[num_grad_quant_bins: 4]
[quant_train_renew_leaf: 0]
[stochastic_rounding: 1]
[linear_tree: 0]
[max_bin: 255]
[max_bin_by_feature: ]
[min_data_in_bin: 3]
[bin_construct_sample_cnt: 200000]
[data_random_seed: 175]
[is_enable_sparse: 1]
[enable_bundle: 1]
[use_missing: 1]
[zero_as_missing: 0]
[feature_pre_filter: 1]
[pre_partition: 0]
[two_round: 0]
[header: 0]
[label_column: ]
[weight_column: ]
[group_column: ]
[ignore_column: ]
[categorical_feature: ]
[forcedbins_filename: ]
[precise_float_parser: 0]
[parser_config_file: ]
[objective_seed: 16083]
[num_class: 1]
[is_unbalance: 0]
[scale_pos_weight: 1]
[sigmoid: 1]
[boost_from_average: 1]
[reg_sqrt: 0]
[alpha: 0.9]
[fair_c: 1]
[poisson_max_delta_step: 0.7]
[tweedie_variance_power: 1.5]
[lambdarank_truncation_level: 30]
[lambdarank_norm: 1]
[label_gain: ]
[lambdarank_position_bias_regularization: 0]
[eval_at: ]
[multi_error_top_k: 1]
[auc_mu_weights: ]
[num_machines: 1]
[local_listen_port: 12400]
[time_out: 120]
[machine_list_filename: ]
[machines: ]
[gpu_platform_id: -1]
[gpu_device_id: -1]
[gpu_use_dp: 0]
[num_gpu: 1]

end of parameters

pandas_categorical:null
