tree
version=v4
num_class=1
num_tree_per_iteration=1
label_index=0
max_feature_idx=11
objective=binary sigmoid:1
feature_names=Column_0 Column_1 Column_2 Column_3 Column_4 Column_5 Column_6 Column_7 Column_8 Column_9 Column_10 Column_11
feature_infos=[-0.98749213566327554:3.1153836179086238] [-1.1855677911468103:3.0265058474795157] [-1.8388759001385475:2.3913920728505427] [-1.0533779824841119:3.9114292253483489] [-1.8105228682211307:2.3212734827971313] [-1.3832596542752318:5.0991999848963694] [-4.3411911820232589:0.99891421863290086] [-2.0243728007679191:2.4877071911986763] [-1.6729322637505883:3.538445443243698] [-2.2474480188102244:2.3303032453101404] [-2.318404623873926:0.43133109281375365] [-1.5044576621303958:2.4302777619029476]
tree_sizes=650 657 668 668 659 665 665 661 668 668 563 567 565 567 567 569 568 569 566 563 665 666 666 564 752 653 657 648 671 667 763 772 766

Tree=0
num_leaves=5
num_cat=0
split_feature=0 6 5 2
split_gain=5.26342 2.60436 2.68066 3.96329
threshold=0.76090579718395646 -1.0363625432128567 0.35025018613423603 -0.45338142944945004
decision_type=2 2 2 2
left_child=1 -1 3 -3
right_child=-2 2 -4 -5
leaf_value=-0.69782607977458155 -0.70640299483740709 -0.69122057498650258 -0.69190457696551111 -0.6655632872955326
leaf_weight=1.1111111193895338 1.3333333432674406 1.1111111193895336 1.7777777910232542 1.555555567145348
leaf_count=5 6 5 8 7
internal_value=-0.689475 -0.685073 -0.681631 -0.675436
internal_weight=6.88889 5.55556 4.44444 2.66667
internal_count=31 25 20 12
is_linear=0
shrinkage=1


Tree=1
num_leaves=5
num_cat=0
split_feature=1 2 3 9
split_gain=4.38818 6.58653 3.29358 1.07824
threshold=-0.25884553802646387 1.2614205848489306 -0.626819003499126 0.4815960040307623
decision_type=2 2 2 2
left_child=2 3 -1 -2
right_child=1 -3 -4 -5
leaf_value=0.006251355074024462 0.02689435668712466 -0.0062455144415831968 -0.013649780950530568 0.010074681430025946
leaf_weight=1.3343893438577654 1.3411870747804648 1.3312851488590238 1.7755753695964811 1.1143359839916227
leaf_count=6 6 6 8 5
internal_value=0.00363316 0.0108199 -0.00487056 0.0203457
internal_weight=6.89677 3.78681 3.10996 2.45552
internal_count=31 17 14 11
is_linear=0
shrinkage=0.01


Tree=2
num_leaves=5
num_cat=0
split_feature=0 1 9 8
split_gain=5.12582 4.86087 2.7479 2.44074
threshold=0.76090579718395646 1.0000000180025095e-35 1.0000000180025095e-35 -0.1324496276969768
decision_type=2 2 2 2
left_child=1 2 -1 -3
right_child=-2 3 -4 -5
leaf_value=-0.012859826247699126 -0.013167567699188714 0.026697335309577554 0.0064049981569720485 0.0060931933754821959
leaf_weight=1.1056482642889025 1.3256208598613737 1.3460865318775179 1.7859991639852522 1.3404546380043028
leaf_count=5 6 6 8 6
internal_value=0.00359619 0.00791785 -0.000810458 0.0173633
internal_weight=6.90381 5.57819 2.89165 2.68654
internal_count=31 25 13 12
is_linear=0
shrinkage=0.01


Tree=3
num_leaves=5
num_cat=0
split_feature=0 1 9 1
split_gain=5.03518 4.73958 2.70384 2.35877
threshold=0.76090579718395646 1.0000000180025095e-35 1.0000000180025095e-35 0.65517324842364688
decision_type=2 2 2 2
left_child=1 2 -1 -3
right_child=-2 3 -4 -5
leaf_value=-0.012793740228622189 -0.013100428947006139 0.02625263171763547 0.0063317668065885112 0.0060183026776464647
leaf_weight=1.1007868498563769 1.3196328878402708 1.3571623712778094 1.7897266894578931 1.3433690071105955
leaf_count=5 6 6 8 6
internal_value=0.00355828 0.00782699 -0.000801617 0.0171185
internal_weight=6.91068 5.59104 2.89051 2.70053
internal_count=31 25 13 12
is_linear=0
shrinkage=0.01


Tree=4
num_leaves=5
num_cat=0
split_feature=0 6 5 4
split_gain=4.94665 2.47245 2.46459 1.28889
threshold=0.76090579718395646 -1.0363625432128567 0.35025018613423603 0.092063198552100142
decision_type=2 2 2 2
left_child=1 -1 3 -3
right_child=-2 2 -4 -5
leaf_value=-0.0046874349321553909 -0.013034295063339097 0.0090709884090851116 0.0011753075153995822 0.025364914288458135
leaf_weight=1.1109455227851865 1.3136028349399564 1.571460008621216 1.7815059274435041 1.139320373535156
leaf_count=5 6 7 8 5
internal_value=0.00352108 0.0077381 0.0110639 0.0169337
internal_weight=6.91683 5.60323 4.49229 2.71078
internal_count=31 25 20 12
is_linear=0
shrinkage=0.01


Tree=5
num_leaves=5
num_cat=0
split_feature=7 9 7 3
split_gain=5.13912 3.36094 2.86529 2.45405
threshold=-0.34446755542676094 0.65766336034308404 -0.79667898234587409 -0.24716644999206464
decision_type=2 2 2 2
left_child=2 3 -1 -2
right_child=1 -3 -4 -5
leaf_value=0.0018473926388031736 0.0008786545030121612 0.0090965707695692694 0.025201174880455368 -0.013883483065703577
leaf_weight=1.113753989338875 1.7984118759632108 1.5704441070556638 1.1427224725484846 2.4217537939548492
leaf_count=5 8 7 5 11
internal_value=0.00213733 -0.0027412 0.0146661 -0.00748644
internal_weight=8.04709 5.79061 2.25648 4.22017
internal_count=36 26 10 19
is_linear=0
shrinkage=0.01


Tree=6
num_leaves=5
num_cat=0
split_feature=7 9 7 3
split_gain=5.02647 3.29903 2.77744 2.42472
threshold=-0.34446755542676094 0.65766336034308404 -0.79667898234587409 -0.24716644999206464
decision_type=2 2 2 2
left_child=2 3 -1 -2
right_child=1 -3 -4 -5
leaf_value=0.001829414477446003 0.00087010041772875887 0.0089864809964006892 0.02480311867188411 -0.013814451242163781
leaf_weight=1.1144312471151354 1.7989114820957182 1.5749881714582441 1.151013523340225 2.4100751727819443
leaf_count=5 8 7 5 11
internal_value=0.00212039 -0.00271429 0.0144796 -0.00743169
internal_weight=8.04942 5.78397 2.26544 4.20899
internal_count=36 26 10 19
is_linear=0
shrinkage=0.01


Tree=7
num_leaves=5
num_cat=0
split_feature=7 9 7 3
split_gain=4.91716 3.23842 2.69391 2.39594
threshold=-0.34446755542676094 0.65766336034308404 -0.79667898234587409 -0.24716644999206464
decision_type=2 2 2 2
left_child=2 3 -1 -2
right_child=1 -3 -4 -5
leaf_value=0.001811623116595237 0.00086163246134960932 0.00887830486981981 0.024420151765252123 -0.01374656931330624
leaf_weight=1.1151006221771242 1.7994058132171629 1.579432427883148 1.1589014977216718 2.3983094394207001
leaf_count=5 8 7 5 11
internal_value=0.00210373 -0.00268771 0.0142982 -0.00737755
internal_weight=8.05115 5.77715 2.274 4.19772
internal_count=36 26 10 19
is_linear=0
shrinkage=0.01


Tree=8
num_leaves=5
num_cat=0
split_feature=7 9 7 3
split_gain=4.81106 3.17906 2.61442 2.36769
threshold=-0.34446755542676094 0.65766336034308404 -0.79667898234587409 -0.24716644999206464
decision_type=2 2 2 2
left_child=2 3 -1 -2
right_child=1 -3 -4 -5
leaf_value=0.0017940157206908856 0.00085324894755860377 0.0087719912256316677 0.024051440323659218 -0.013679806349434101
leaf_weight=1.1157622635364535 1.7998948246240614 1.5837788730859754 1.1663956046104429 2.3864615112543106
leaf_count=5 8 7 5 11
internal_value=0.00208734 -0.00266146 0.0141215 -0.00732399
internal_weight=8.05229 5.77014 2.28216 4.18636
internal_count=36 26 10 19
is_linear=0
shrinkage=0.01


Tree=9
num_leaves=5
num_cat=0
split_feature=7 9 7 3
split_gain=4.70803 3.12094 2.53871 2.33994
threshold=-0.34446755542676094 0.65766336034308404 -0.79667898234587409 -0.24716644999206464
decision_type=2 2 2 2
left_child=2 3 -1 -2
right_child=1 -3 -4 -5
leaf_value=0.0017765910766554605 0.00084494937411573004 0.0086674899638542208 0.023696214957001305 -0.013614133113076431
leaf_weight=1.1164162307977679 1.8003786355257032 1.5880293846130369 1.1735048294067381 2.3745359629392624
leaf_count=5 8 7 5 11
internal_value=0.00207122 -0.00263553 0.0139495 -0.00727101
internal_weight=8.05287 5.76294 2.28992 4.17491
internal_count=36 26 10 19
is_linear=0
shrinkage=0.01


Tree=10
num_leaves=4
num_cat=0
split_feature=4 3 4
split_gain=6.50573 5.0477 0.183707
threshold=0.69631800087492934 -0.77434693939509824 0.19821606923043514
decision_type=2 2 2
left_child=1 -1 -3
right_child=-2 2 -4
leaf_value=0.0088425126358223603 0.015957655017735571 -0.013987344891886846 -0.006261110168849943
leaf_weight=1.5806501954793923 1.8252183049917219 2.4358552396297464 1.326692074537277
leaf_count=7 8 11 6
internal_value=2.48448e-05 -0.00542721 -0.0117546
internal_weight=7.16842 5.3432 3.76255
internal_count=32 24 17
is_linear=0
shrinkage=0.01


Tree=11
num_leaves=4
num_cat=0
split_feature=4 3 7
split_gain=6.36439 4.96797 0.33719
threshold=0.69631800087492934 -0.77434693939509824 -0.63964254378187713
decision_type=2 2 2
left_child=1 -1 -3
right_child=-2 2 -4
leaf_value=0.0087368255107161015 0.015737176728925779 -0.0048475664031908524 -0.013939620054374402
leaf_weight=1.5849611014127725 1.8336399197578428 1.1161346137523649 2.6320959627628335
leaf_count=7 8 5 12
internal_value=2.36102e-05 -0.00538513 -0.0116884
internal_weight=7.16683 5.33319 3.74823
internal_count=32 24 17
is_linear=0
shrinkage=0.01


Tree=12
num_leaves=4
num_cat=0
split_feature=4 3 7
split_gain=6.22692 4.8898 0.333517
threshold=0.69631800087492934 -0.77434693939509824 -0.63964254378187713
decision_type=2 2 2
left_child=1 -1 -3
right_child=-2 2 -4
leaf_value=0.0086329334263197822 0.01552232071133367 -0.0048100387952851919 -0.013870832038245247
leaf_weight=1.5891767889261239 1.8417732566595075 1.114383280277252 2.6192577928304681
leaf_count=7 8 5 12
internal_value=2.25449e-05 -0.00534354 -0.0116233
internal_weight=7.16459 5.32282 3.73364
internal_count=32 24 17
is_linear=0
shrinkage=0.01


Tree=13
num_leaves=4
num_cat=0
split_feature=4 9 0
split_gain=6.09325 1.85595 0.571963
threshold=0.69631800087492934 -0.57480813384316798 0.28159018043111067
decision_type=2 2 2
left_child=1 -1 -3
right_child=-2 2 -4
leaf_value=-0.013465732408001162 0.015312859059541398 0.0033210089014186735 -0.0044163781014293097
leaf_weight=1.7512058019638059 1.8496248573064802 1.5594294965267184 2.0016266703605652
leaf_count=8 8 7 9
internal_value=2.1467e-05 -0.00530249 -0.000756776
internal_weight=7.16189 5.31226 3.56106
internal_count=32 24 16
is_linear=0
shrinkage=0.01


Tree=14
num_leaves=4
num_cat=0
split_feature=4 3 7
split_gain=5.96333 4.78932 0.336536
threshold=0.69631800087492934 -0.77434693939509824 -0.63964254378187713
decision_type=2 2 2
left_child=1 -1 -3
right_child=-2 2 -4
leaf_value=0.0085306968909669347 0.015108573686798004 -0.0046980103529576187 -0.01377259700792452
leaf_weight=1.5933572351932519 1.8572011291980741 1.1089043617248533 2.6004886478185663
leaf_count=7 8 5 12
internal_value=1.98139e-05 -0.00526152 -0.0115168
internal_weight=7.15995 5.30275 3.70939
internal_count=32 24 17
is_linear=0
shrinkage=0.01


Tree=15
num_leaves=4
num_cat=0
split_feature=1 2 2
split_gain=4.41818 2.49543 1.18131
threshold=1.0000000180025095e-35 1.2614205848489306 -0.63089528961739305
decision_type=2 2 2
left_child=2 -2 -1
right_child=1 -3 -4
leaf_value=-0.0015885149799546793 0.012804391531395653 -0.0048165258924472007 -0.013639808765403197
leaf_weight=1.5610021501779558 2.0433022826910023 1.1157230883836744 2.3747921884059906
leaf_count=7 9 5 11
internal_value=-0.00219687 0.00631726 -0.00926564
internal_weight=7.09482 3.15903 3.93579
internal_count=32 14 18
is_linear=0
shrinkage=0.01


Tree=16
num_leaves=4
num_cat=0
split_feature=1 2 2
split_gain=4.34205 2.44004 1.16814
threshold=1.0000000180025095e-35 1.2614205848489306 -0.63089528961739305
decision_type=2 2 2
left_child=2 -2 -1
right_child=1 -3 -4
leaf_value=-0.0015743489724692997 0.012636653315961262 -0.0047792364788549506 -0.013574861271862691
leaf_weight=1.5602013766765597 2.0510090440511708 1.1139730960130689 2.3628309965133667
leaf_count=7 9 5 11
internal_value=-0.00217955 0.0062419 -0.00920856
internal_weight=7.08801 3.16498 3.92303
internal_count=32 14 18
is_linear=0
shrinkage=0.01


Tree=17
num_leaves=4
num_cat=0
split_feature=1 2 2
split_gain=4.26744 2.38621 1.15524
threshold=1.0000000180025095e-35 1.2614205848489306 -0.63089528961739305
decision_type=2 2 2
left_child=2 -2 -1
right_child=1 -3 -4
leaf_value=-0.0015603050056401124 0.012472544263360558 -0.0047422317277895391 -0.013510955283404463
leaf_weight=1.5594063997268679 2.0584931969642644 1.1122280806303022 2.3508002907037735
leaf_count=7 9 5 11
internal_value=-0.00216248 0.00616782 -0.00915211
internal_weight=7.08093 3.17072 3.91021
internal_count=32 14 18
is_linear=0
shrinkage=0.01


Tree=18
num_leaves=4
num_cat=0
split_feature=1 3 4
split_gain=4.1943 2.33387 0.837433
threshold=1.0000000180025095e-35 0.24376685104896886 -0.12840814824136418
decision_type=2 2 2
left_child=2 -2 -1
right_child=1 -3 -4
leaf_value=-0.0029924291404486102 0.012311939808004971 -0.0047055094599952624 -0.013362716800216468
leaf_weight=1.769826725125313 2.065759584307671 1.1104880869388578 2.1274949014186859
leaf_count=8 9 5 10
internal_value=-0.00214565 0.006095 -0.00909627
internal_weight=7.07357 3.17625 3.89732
internal_count=32 14 18
is_linear=0
shrinkage=0.01


Tree=19
num_leaves=4
num_cat=0
split_feature=4 4 2
split_gain=2.44797 2.72377 3.57091
threshold=0.69631800087492934 -0.12840814824136418 -1.0070107366455703
decision_type=2 2 2
left_child=1 2 -1
right_child=-2 -3 -4
leaf_value=-0.013000385267303705 0.0081583015497412124 -0.0133935886376862 0.0084995717215768582
leaf_weight=1.1082374751567838 1.6058080643415449 2.32806396484375 2.0240495651960377
leaf_count=5 7 11 9
internal_value=-0.00212918 -0.00542673 0.000416411
internal_weight=7.06616 5.46035 3.13229
internal_count=32 25 14
is_linear=0
shrinkage=0.01


Tree=20
num_leaves=5
num_cat=0
split_feature=6 9 8 7
split_gain=3.04716 3.74992 3.68381 5.98736
threshold=-1.0363625432128567 -0.92694284646781144 -0.37042651378487418 0.32799625657092951
decision_type=2 2 2 2
left_child=-1 -2 -3 -4
right_child=1 2 3 -5
leaf_value=-0.012736044347157834 -0.0081944087132604232 0.020299533851321012 -0.013378217468016641 0.014291615417239429
leaf_weight=1.2800433486700056 1.7564089894294737 1.5916188806295388 1.3398405760526664 1.5950345098972318
leaf_count=6 8 7 6 7
internal_value=0.000588923 0.00361735 0.00849485 0.00130558
internal_weight=7.56295 6.2829 4.52649 2.93488
internal_count=34 28 20 13
is_linear=0
shrinkage=0.01


Tree=21
num_leaves=5
num_cat=0
split_feature=6 9 8 6
split_gain=2.99944 3.67667 3.58426 1.93651
threshold=-1.0363625432128567 -0.92694284646781144 -0.37042651378487418 0.5356658395949313
decision_type=2 2 2 2
left_child=-1 -2 -3 -4
right_child=1 2 3 -5
leaf_value=-0.012675267309442066 -0.0081386885430084419 0.019997426443188828 0.0088464300734456009 -0.0068007771324949551
leaf_weight=1.2738298922777174 1.7514591068029401 1.6009703874588006 1.5767938792705543 1.3587931692600248
leaf_count=6 8 7 7 6
internal_value=0.00058023 0.00357847 0.00839583 0.00128895
internal_weight=7.56185 6.28802 4.53656 2.93559
internal_count=34 28 20 13
is_linear=0
shrinkage=0.01


Tree=22
num_leaves=5
num_cat=0
split_feature=6 9 8 0
split_gain=2.95265 3.60485 3.48898 4.05586
threshold=-1.0363625432128567 -0.92694284646781144 -0.37042651378487418 -0.90316897948895103
decision_type=2 2 2 2
left_child=-1 -2 -3 -4
right_child=1 2 3 -5
leaf_value=-0.012615330768030262 -0.0080834306721981174 0.019704755940308478 -0.012829655843324423 0.010483199666739485
leaf_weight=1.2675895690917967 1.7465061545372007 1.6099413633346551 1.1019598990678781 1.8351037502288829
leaf_count=6 8 7 5 8
internal_value=0.000571801 0.00354003 0.00829767 0.00127273
internal_weight=7.5611 6.29351 4.54701 2.93706
internal_count=34 28 20 13
is_linear=0
shrinkage=0.01


Tree=23
num_leaves=4
num_cat=0
split_feature=9 8 7
split_gain=2.47946 4.0503 4.69734
threshold=-0.92694284646781144 -0.37042651378487418 0.32799625657092951
decision_type=2 2 2
left_child=-1 -2 -3
right_child=1 2 -4
leaf_value=-0.0087070161439932701 0.015966376884687321 -0.013492355202150443 0.0082048060523888904
leaf_weight=1.9561120718717573 1.8180132061243055 1.7483754605054858 2.0364619195461273
leaf_count=9 8 8 9
internal_value=0.000562927 0.0040706 -0.00164992
internal_weight=7.55896 5.60285 3.78484
internal_count=34 25 17
is_linear=0
shrinkage=0.01


Tree=24
num_leaves=6
num_cat=0
split_feature=6 6 0 7 3
split_gain=2.90159 2.66046 2.51462 2.58859 0.746189
threshold=-1.0363625432128567 0.71711336483121746 -0.93101898376579795 0.72936734555239091 -1.0000000180025095e-35
decision_type=2 2 2 2 2
left_child=-1 2 -2 4 -4
right_child=1 -3 3 -5 -6
leaf_value=-0.012553145312576489 -0.0049432154580940548 -0.0073091877027709343 0.023667430525893526 0 0.0089120839757192045
leaf_weight=1.2610582262277601 1.1153685599565499 1.5374299287796018 1.1728118956089018 1.3259181380271909 1.1451580822467815
leaf_count=6 5 7 5 6 5
internal_value=0.000556118 0.00349309 0.00726705 0.0113038 0.0174614
internal_weight=7.55774 6.29669 4.75926 3.64389 2.31797
internal_count=34 28 21 16 10
is_linear=0
shrinkage=0.01


Tree=25
num_leaves=5
num_cat=0
split_feature=4 9 9 2
split_gain=3.52572 1.97956 3.90257 0.300203
threshold=0.69631800087492934 0.30552864771844057 -0.57480813384316798 0.3552858947171213
decision_type=2 2 2 2
left_child=1 2 -1 -3
right_child=-2 3 -4 -5
leaf_value=-0.00860967222604383 0.010143316132822842 -0.013519696549391532 0.012865842819680151 -0.004437618802346186
leaf_weight=1.9481665939092634 1.8471953421831129 1.9535015076398852 1.3404287844896319 1.0882093012332914
leaf_count=9 8 9 6 5
internal_value=-0.00149637 -0.00515329 0 -0.0108334
internal_weight=8.1775 6.33031 3.2886 3.04171
internal_count=37 29 15 14
is_linear=0
shrinkage=0.01


Tree=26
num_leaves=5
num_cat=0
split_feature=4 9 9 2
split_gain=3.45793 1.95361 3.82537 0.296832
threshold=0.69631800087492934 0.30552864771844057 -0.57480813384316798 0.3552858947171213
decision_type=2 2 2 2
left_child=1 2 -1 -3
right_child=-2 3 -4 -5
leaf_value=-0.0085533668108961521 0.010021467957139594 -0.013453967750233751 0.012698537287633465 -0.0044031678201189263
leaf_weight=1.9420700222253797 1.8521490246057508 1.9439512342214587 1.3457985371351244 1.0865471214056013
leaf_count=9 8 9 6 5
internal_value=-0.00148328 -0.00511514 0 -0.0107727
internal_weight=8.17052 6.31837 3.28787 3.0305
internal_count=37 29 15 14
is_linear=0
shrinkage=0.01


Tree=27
num_leaves=5
num_cat=0
split_feature=0 0 2 1
split_gain=3.72761 3.07123 1.47667 1.25248
threshold=1.0000000180025095e-35 -0.90316897948895103 0.11836928158894117 -0.25884553802646387
decision_type=2 2 2 2
left_child=1 -1 -2 -3
right_child=2 3 -4 -5
leaf_value=-0.0043137073201731753 -0.013507680911005951 0.0023178018866227539 0 0.017905021563238976
leaf_weight=1.9893470555543897 2.34689873456955 1.0910729020833969 1.3419723510742185 1.3939058780670166
leaf_count=9 11 5 6 6
internal_value=-0.00147038 0.00448072 -0.00888029 0.0118025
internal_weight=8.1632 4.47433 3.68887 2.48498
internal_count=37 20 17 11
is_linear=0
shrinkage=0.01


Tree=28
num_leaves=5
num_cat=0
split_feature=0 0 1 1
split_gain=3.66687 3.00764 1.21688 1.10437
threshold=1.0000000180025095e-35 -0.90316897948895103 -0.25884553802646387 -0.25884553802646387
decision_type=2 2 2 2
left_child=1 -1 -3 -2
right_child=3 2 -4 -5
leaf_value=-0.0042784674524413866 -0.013402574809247727 0.0022948722042800064 0.017663056127046467 -0.0014637344057969663
leaf_weight=1.9865131229162214 2.1326697468757634 1.0919495224952698 1.4002087563276291 1.5441080182790754
leaf_count=9 10 5 6 7
internal_value=-0.00145643 0.00443503 0.0116635 -0.008825
internal_weight=8.15545 4.47867 2.49216 3.67678
internal_count=37 20 11 17
is_linear=0
shrinkage=0.01


Tree=29
num_leaves=5
num_cat=0
split_feature=0 0 1 1
split_gain=3.60768 2.94572 1.1827 1.09213
threshold=1.0000000180025095e-35 -0.90316897948895103 -0.25884553802646387 -0.25884553802646387
decision_type=2 2 2 2
left_child=1 -1 -3 -2
right_child=3 2 -4 -5
leaf_value=-0.004243503437338406 -0.013340160559695337 0.00227218900364142 0.017427664029080078 -0.001450640255501174
leaf_weight=1.9836903661489484 2.121743962168694 1.0928156971931458 1.4062497615814209 1.5433720499277113
leaf_count=9 10 5 6 7
internal_value=-0.00144326 0.00439006 0.0115275 -0.00877061
internal_weight=8.14787 4.48276 2.49907 3.66512
internal_count=37 20 11 17
is_linear=0
shrinkage=0.01


Tree=30
num_leaves=6
num_cat=0
split_feature=3 1 2 9 3
split_gain=2.20571 2.84292 3.35105 1.3509 0.295424
threshold=-0.77434693939509824 -0.25884553802646387 1.2614205848489306 0.4815960040307623 0.40056133236486791
decision_type=2 2 2 2 2
left_child=-1 4 3 -3 -2
right_child=1 2 -4 -5 -6
leaf_value=0.012081475141055212 -0.012800658435738296 0.016863734823292256 -0.007397293777227633 0.0012218970191903702 -0.0035733671855212711
leaf_weight=1.3707165867090223 1.4758272320032122 1.4203321039676668 1.5403515249490736 1.1266176551580427 1.051335886120796
leaf_count=6 7 6 7 5 5
internal_value=0.000925863 -0.00138249 0.003583 0.0106301 -0.00962474
internal_weight=7.98518 6.61446 4.0873 2.54695 2.52716
internal_count=36 30 18 11 12
is_linear=0
shrinkage=0.01


Tree=31
num_leaves=6
num_cat=0
split_feature=3 6 3 2 2
split_gain=2.15819 2.39857 1.48831 1.77466 1.40244
threshold=-0.77434693939509824 0.69204199136805644 0.24376685104896886 0.40508586550089981 -0.22848477014069504
decision_type=2 2 2 2 2
left_child=-1 2 3 4 -2
right_child=1 -3 -4 -5 -6
leaf_value=0.011929784243437845 0.0014227657129561846 0.0088734207010016629 -0.012966384396906816 0.0085080467698678223 -0.012835028376471984
leaf_weight=1.3755114078521726 1.1200293600559232 1.5655834674835203 1.4882155060768125 1.1501261442899702 1.283289551734925
leaf_count=6 5 7 7 5 6
internal_value=0.000916263 -0.00137114 -0.00485758 -0.000925869 -0.00599953
internal_weight=7.98276 6.60724 5.04166 3.55345 2.40332
internal_count=36 30 23 16 11
is_linear=0
shrinkage=0.01


Tree=32
num_leaves=6
num_cat=0
split_feature=3 1 2 9 3
split_gain=2.11104 2.80031 3.27755 1.29952 0.29555
threshold=-0.77434693939509824 -0.25884553802646387 1.2614205848489306 0.4815960040307623 0.40056133236486791
decision_type=2 2 2 2 2
left_child=-1 4 3 -3 -2
right_child=1 2 -4 -5 -6
leaf_value=0.011781170173913908 -0.012741620272418739 0.016617412039769006 -0.0073213811932307683 0.0012466640302853929 -0.0035152898425650603
leaf_weight=1.3801719844341276 1.467906251549721 1.4260181337594988 1.5342881381511686 1.1247706562280653 1.047910541296005
leaf_count=6 7 6 7 5 5
internal_value=0.000908959 -0.00135695 0.00356507 0.0105196 -0.00956218
internal_weight=7.98107 6.60089 4.08508 2.55079 2.51582
internal_count=36 30 18 11 12
is_linear=0
shrinkage=0.01


end of trees

feature_importances:
Column_9=19
Column_3=18
Column_2=16
Column_7=16
Column_1=15
Column_0=13
Column_4=12
Column_6=9
Column_8=5
Column_5=2

parameters:
[boosting: gbdt]
[objective: binary]
[metric: auc]
[tree_learner: serial]
[device_type: cpu]
[data_sample_strategy: bagging]
[data: ]
[valid: ]
[num_iterations: 1000]
[learning_rate: 0.01]
[num_leaves: 15]
[num_threads: 0]
[seed: 42]
[deterministic: 1]
[force_col_wise: 1]
[force_row_wise: 0]
[histogram_pool_size: -1]
[max_depth: -1]
[min_data_in_leaf: 5]
[min_sum_hessian_in_leaf: 0.001]
[bagging_fraction: 0.7]
[pos_bagging_fraction: 1]
[neg_bagging_fraction: 1]
[bagging_freq: 5]
[bagging_seed: 400]
[bagging_by_query: 0]
[feature_fraction: 0.8]
[feature_fraction_bynode: 1]
[feature_fraction_seed: 30056]
[extra_trees: 0]
[extra_seed: 12879]
[early_stopping_round: 0]
[early_stopping_min_delta: 0]
[first_metric_only: 0]
[max_delta_step: 0]
[lambda_l1: 0.1]
[lambda_l2: 0.1]
[linear_lambda: 0]
[min_gain_to_split: 0.01]
[drop_rate: 0.1]
[max_drop: 50]
[skip_drop: 0.5]
[xgboost_dart_mode: 0]
[uniform_drop: 0]
[drop_seed: 17869]
[top_rate: 0.2]
[other_rate: 0.1]
[min_data_per_group: 100]
[max_cat_threshold: 32]
[cat_l2: 10]
[cat_smooth: 10]
[max_cat_to_onehot: 4]
[top_k: 20]
[monotone_constraints: ]
[monotone_constraints_method: basic]
[monotone_penalty: 0]
[feature_contri: ]
[forcedsplits_filename: ]
[refit_decay_rate: 0.9]
[cegb_tradeoff: 1]
[cegb_penalty_split: 0]
[cegb_penalty_feature_lazy: ]
[cegb_penalty_feature_coupled: ]
[path_smooth: 0]
[interaction_constraints: ]
[verbosity: -1]
[saved_feature_importance_type: 0]
[use_quantized_grad: 0]
[num_grad_quant_bins: 4]
[quant_train_renew_leaf: 0]
[stochastic_rounding: 1]
[linear_tree: 0]
[max_bin: 255]
[max_bin_by_feature: ]
[min_data_in_bin: 3]
[bin_construct_sample_cnt: 200000]
[data_random_seed: 175]
[is_enable_sparse: 1]
[enable_bundle: 1]
[use_missing: 1]
[zero_as_missing: 0]
[feature_pre_filter: 1]
[pre_partition: 0]
[two_round: 0]
[header: 0]
[label_column: ]
[weight_column: ]
[group_column: ]
[ignore_column: ]
[categorical_feature: ]
[forcedbins_filename: ]
[precise_float_parser: 0]
[parser_config_file: ]
[objective_seed: 16083]
[num_class: 1]
[is_unbalance: 0]
[scale_pos_weight: 1]
[sigmoid: 1]
[boost_from_average: 1]
[reg_sqrt: 0]
[alpha: 0.9]
[fair_c: 1]
[poisson_max_delta_step: 0.7]
[tweedie_variance_power: 1.5]
[lambdarank_truncation_level: 30]
[lambdarank_norm: 1]
[label_gain: ]
[lambdarank_position_bias_regularization: 0]
[eval_at: ]
[multi_error_top_k: 1]
[auc_mu_weights: ]
[num_machines: 1]
[local_listen_port: 12400]
[time_out: 120]
[machine_list_filename: ]
[machines: ]
[gpu_platform_id: -1]
[gpu_device_id: -1]
[gpu_use_dp: 0]
[num_gpu: 1]

end of parameters

pandas_categorical:null
