tree
version=v4
num_class=1
num_tree_per_iteration=1
label_index=0
max_feature_idx=13
objective=binary sigmoid:1
feature_names=Column_0 Column_1 Column_2 Column_3 Column_4 Column_5 Column_6 Column_7 Column_8 Column_9 Column_10 Column_11 Column_12 Column_13
feature_infos=[-1.0557317734643652:3.2865953863648638] [-1.3192858575169093:4.5531761697766528] [-1.5314621379876097:3.2140067653006197] [-1.1984243673588844:3.8295773895470338] [-1.6877797013240372:2.1463228785538813] [-0.96901521052439454:5.3730978965845404] [-4.6254903191973806:0.95020253785086262] [-2.6682972319316236:1.8693701032168544] [-2.1098507466307206:2.5191082688266939] [-2.5042557168480815:2.5612425726044221] [-2.2912878474779199:0.43643578047198461] [-0.71774056256527341:1.393261092038472] [-1.2773327473170102:0.78288136125881269] none
tree_sizes=548 566 567 565 773 771 764 671 768 672 569 560 562 667 565 777 670 668 777 774 769 675 675 767 771 663 671 777 672 667 775 567 678 673 773 669 668 671

Tree=0
num_leaves=4
num_cat=0
split_feature=7 4 1
split_gain=4.1263 4.17781 4.0107
threshold=0.079659480836667587 -0.66147951580116005 0.033077308284735318
decision_type=2 2 2
left_child=2 -2 -1
right_child=1 -3 -4
leaf_value=-0.66359130566093072 -0.65616409208977111 -0.67844573280324982 -0.64130966494745201
leaf_weight=2.0195999890565877 1.3463999927043917 2.2439999878406525 1.3463999927043913
leaf_count=9 6 10 6
internal_value=-0.662633 -0.67009 -0.654679
internal_weight=6.9564 3.5904 3.366
internal_count=31 16 15
is_linear=0
shrinkage=1


Tree=1
num_leaves=4
num_cat=0
split_feature=7 4 1
split_gain=4.0411 4.11447 3.89324
threshold=0.079659480836667587 -0.66147951580116005 0.033077308284735318
decision_type=2 2 2
left_child=2 -2 -1
right_child=1 -3 -4
leaf_value=-0.0002941457284001547 0.0070427349442036269 -0.015074049984314958 0.021613714029667514
leaf_weight=2.0194079428911214 1.3494601249694826 2.2330315411090851 1.3557580411434171
leaf_count=9 6 10 6
internal_value=0.000654247 -0.00674306 0.00850594
internal_weight=6.95766 3.58249 3.37517
internal_count=31 16 15
is_linear=0
shrinkage=0.01


Tree=2
num_leaves=4
num_cat=0
split_feature=7 4 1
split_gain=3.95807 4.05244 3.78091
threshold=0.079659480836667587 -0.66147951580116005 0.033077308284735318
decision_type=2 2 2
left_child=2 -2 -1
right_child=1 -3 -4
leaf_value=-0.00029123248469413953 0.0069567686917432342 -0.014998138315637042 0.021256178622603979
leaf_weight=2.0192177742719655 1.3524591922760012 2.221946120262146 1.3647309243679044
leaf_count=9 6 10 6
internal_value=0.000647365 -0.00669099 0.00839874
internal_weight=6.95835 3.57441 3.38395
internal_count=31 16 15
is_linear=0
shrinkage=0.01


Tree=3
num_leaves=4
num_cat=0
split_feature=7 4 1
split_gain=3.87714 3.9917 3.6734
threshold=0.079659480836667587 -0.66147951580116005 0.033077308284735318
decision_type=2 2 2
left_child=2 -2 -1
right_child=1 -3 -4
leaf_value=-0.00028834678381598871 0.0068721905688536276 -0.014923733948769516 0.020911202396218874
leaf_weight=2.0190293490886693 1.3553984463214876 2.2107496857643127 1.3733287453651426
leaf_count=9 6 10 6
internal_value=0.00064061 -0.00663968 0.00829387
internal_weight=6.95851 3.56615 3.39236
internal_count=31 16 15
is_linear=0
shrinkage=0.01


Tree=4
num_leaves=6
num_cat=0
split_feature=5 4 9 6 0
split_gain=3.35028 5.63227 7.0059 2.26744 0.000138036
threshold=-0.63432755533787588 -0.66147951580116005 0.89912594637781951 0.54388399972178447 1.0000000180025095e-35
decision_type=2 2 2 2 2
left_child=-1 -2 3 4 -3
right_child=1 2 -4 -5 -6
leaf_value=-0.015179874325423766 0.021517098204039038 -0.014850799214430306 0.019676995621245145 0.0024970584865257319 -0.015008872320815634
leaf_weight=1.1234001666307447 1.3580314218997953 1.0997238755226142 1.1394122242927549 1.1275236308574674 1.1100392639636991
leaf_count=5 6 5 5 5 5
internal_value=0.000633979 0.00367873 -0.00173264 -0.00904229 -0.0149302
internal_weight=6.95813 5.83473 4.4767 3.33729 2.20976
internal_count=31 26 20 15 10
is_linear=0
shrinkage=0.01


Tree=5
num_leaves=6
num_cat=0
split_feature=1 1 11 3 0
split_gain=4.95099 4.21707 3.22106 2.58517 0.490331
threshold=0.033077308284735318 0.75544044235385244 1.0000000180025095e-35 -0.42688513985017229 0.30764980546084941
decision_type=2 2 2 2 2
left_child=2 -2 3 -1 -4
right_child=1 -3 4 -5 -6
leaf_value=0.014482173152731639 0.023042215230061204 -0.00030815603298859197 -0.01509161353079397 -0.006099062833467209 -0.0061198101279982342
leaf_weight=1.3483087718486788 1.8198424428701403 1.3451024293899534 1.3408324271440508 1.1150018721818922 1.1163125634193418
leaf_count=6 8 6 6 5 5
internal_value=0.00336133 0.0131183 -0.00291456 0.00516621 -0.0110156
internal_weight=8.0854 3.16494 4.92046 2.46331 2.45714
internal_count=36 14 22 11 11
is_linear=0
shrinkage=0.01


Tree=6
num_leaves=6
num_cat=0
split_feature=12 8 1 9 4
split_gain=5.18456 4.16442 3.862 2.15813 1.80322
threshold=1.0000000180025095e-35 1.0000000180025095e-35 -0.28546491421991366 0.2659386601962565 -0.24837755433283212
decision_type=2 2 2 2 2
left_child=2 4 -1 -3 -2
right_child=1 3 -4 -5 -6
leaf_value=-0.015013110305831658 0.010940976591289288 0.011232407144914107 0.0068497486815608686 -0.0075465612886359678 0.028760547211228737
leaf_weight=2.0008121430873875 1.1384433060884478 1.1298365145921709 1.355265825986862 1.3351659774780271 1.1330826133489607
leaf_count=9 5 5 6 6 5
internal_value=0.00332445 0.0100619 -0.00618436 0.0010608 0.0198297
internal_weight=8.09261 4.73653 3.35608 2.465 2.27153
internal_count=36 21 15 11 10
is_linear=0
shrinkage=0.01


Tree=7
num_leaves=5
num_cat=0
split_feature=12 1 3 3
split_gain=5.07097 3.80357 2.67847 3.2502
threshold=1.0000000180025095e-35 -0.28546491421991366 -0.54721368012648686 1.0000000180025095e-35
decision_type=2 2 2 2
left_child=1 -1 -2 -4
right_child=2 -3 3 -5
leaf_value=-0.014938443783497997 0.018522221942669313 0.0067669160393034793 -0.0076637169492880979 0.014308691943245579
leaf_weight=1.9907550662755968 2.0575169026851654 1.3581223785877226 1.3408507555723193 1.3520601689815519
leaf_count=9 9 6 6 6
internal_value=0.00328814 -0.00613593 0.00993176 0.00336822
internal_weight=8.09931 3.34888 4.75043 2.69291
internal_count=36 15 21 12
is_linear=0
shrinkage=0.01


Tree=8
num_leaves=6
num_cat=0
split_feature=12 8 1 9 4
split_gain=4.9603 4.00958 3.74633 2.09097 1.70074
threshold=1.0000000180025095e-35 1.0000000180025095e-35 -0.28546491421991366 0.2659386601962565 -0.24837755433283212
decision_type=2 2 2 2 2
left_child=2 4 -1 -3 -2
right_child=1 3 -4 -5 -6
leaf_value=-0.014865252303327527 0.010701696660836717 0.010928358694168736 0.0066853963439189945 -0.007527290744961339 0.027926835663372583
leaf_weight=1.9806022047996523 1.1445562690496447 1.1373894363641741 1.3609219193458555 1.3337731361389158 1.1482835263013838
leaf_count=9 5 5 6 6 5
internal_value=0.00325246 0.00980409 -0.00608819 0.000967197 0.0193283
internal_weight=8.10553 4.764 3.34152 2.47116 2.29284
internal_count=36 21 15 11 10
is_linear=0
shrinkage=0.01


Tree=9
num_leaves=5
num_cat=0
split_feature=12 1 3 3
split_gain=4.85286 3.69026 2.57312 3.13109
threshold=1.0000000180025095e-35 -0.28546491421991366 -0.54721368012648686 1.0000000180025095e-35
decision_type=2 2 2 2
left_child=1 -1 -2 -4
right_child=2 -3 3 -5
leaf_value=-0.014793496132105111 0.018053040461733841 0.0066051580057925486 -0.0076205682657433859 0.013912931459161948
leaf_weight=1.9703584313392641 2.0754630863666534 1.3636656105518339 1.3380423635244372 1.3632006496191023
leaf_count=9 9 6 6 6
internal_value=0.00321754 -0.00604113 0.00967987 0.00324646
internal_weight=8.11073 3.33402 4.77671 2.70124
internal_count=36 15 21 12
is_linear=0
shrinkage=0.01


Tree=10
num_leaves=4
num_cat=0
split_feature=2 4 8
split_gain=1.9133 3.35845 3.63343
threshold=-0.59023513611512934 -0.061190728042496111 1.0000000180025095e-35
decision_type=2 2 2
left_child=-1 -2 -3
right_child=1 2 -4
leaf_value=-0.0087792018935585418 0.018862759581856549 0.0088933456503769541 -0.010044959231565247
leaf_weight=1.5651283413171766 1.1561857610940931 2.0513532608747482 2.0014961361885071
leaf_count=7 5 9 9
internal_value=0.000916235 0.00382937 -0.00045932
internal_weight=6.77416 5.20904 4.05285
internal_count=30 23 18
is_linear=0
shrinkage=0.01


Tree=11
num_leaves=4
num_cat=0
split_feature=3 1 5
split_gain=3.6545 5.88783 3.78777
threshold=-0.42688513985017229 -0.28546491421991366 0.15468285030443774
decision_type=2 2 2
left_child=1 -1 -2
right_child=2 -3 -4
leaf_value=-0.002770560427409573 -0.014973719805825927 0.026812841401102593 0.0044409145669057973
leaf_weight=1.5857325196266177 1.9905944466590879 1.1685032546520231 2.0294049978256226
leaf_count=7 9 5 9
internal_value=0.000906868 0.0097804 -0.00517268
internal_weight=6.77424 2.75424 4.02
internal_count=30 12 18
is_linear=0
shrinkage=0.01


Tree=12
num_leaves=4
num_cat=0
split_feature=3 5 5
split_gain=3.5776 3.7324 2.99787
threshold=-0.42688513985017229 0.15468285030443774 -0.51759857574315671
decision_type=2 2 2
left_child=2 -2 -1
right_child=1 -3 -4
leaf_value=-0.00086233177602479925 -0.014900033030342014 0.0043904326955523367 0.019980202898955149
leaf_weight=1.3669800460338595 1.9804850220680235 2.0321976542472839 1.3936733454465864
leaf_count=6 9 9 6
internal_value=0.00089764 -0.0051305 0.0096597
internal_weight=6.77334 4.01268 2.76065
internal_count=30 18 12
is_linear=0
shrinkage=0.01


Tree=13
num_leaves=5
num_cat=0
split_feature=1 1 8 0
split_gain=3.27971 3.72555 3.70339 1.89299
threshold=-0.28546491421991366 0.75544044235385244 -0.074467597489498077 -0.35953176360889078
decision_type=2 2 2 2
left_child=3 2 -2 -1
right_child=1 -3 -4 -5
leaf_value=0.0020684362964363172 0.02759990616558675 -0.0042171159068474622 0.002141613390410896 -0.014926548253043806
leaf_weight=1.1396316736936571 1.1548134684562681 1.8047008067369459 1.1310397684574129 1.5424820184707639
leaf_count=5 5 8 5 7
internal_value=0.000888525 0.00652341 0.0150031 -0.00770537
internal_weight=6.77267 4.09055 2.28585 2.68211
internal_count=30 18 10 12
is_linear=0
shrinkage=0.01


Tree=14
num_leaves=4
num_cat=0
split_feature=3 1 5
split_gain=3.49491 5.57244 3.64566
threshold=-0.42688513985017229 -0.28546491421991366 0.15468285030443774
decision_type=2 2 2
left_child=1 -1 -2
right_child=2 -3 -4
leaf_value=-0.002746257011057789 -0.014805017263965799 0.025932831174037264 0.0042808753640725629
leaf_weight=1.5840403139591219 1.9667690098285673 1.1838530600070951 2.0377215892076492
leaf_count=7 9 5 9
internal_value=0.000879404 0.00952005 -0.00509299
internal_weight=6.77238 2.76789 4.00449
internal_count=30 12 18
is_linear=0
shrinkage=0.01


Tree=15
num_leaves=6
num_cat=0
split_feature=1 1 8 8 8
split_gain=6.7666 4.98615 3.98181 0.630643 0.00187571
threshold=-0.28546491421991366 0.88393862398804413 -1.0000000180025095e-35 -0.074467597489498077 -0.58851370566537453
decision_type=2 2 2 2 2
left_child=3 2 -2 4 -1
right_child=1 -3 -4 -5 -6
leaf_value=-0.014750271033636001 0.027021918762564434 -0.0080237323872665075 0.0018595013474672936 -0.0057846682854504738 -0.015331210531227173
leaf_weight=1.090522423386574 1.3982884734869008 1.3592259287834165 1.1429385095834732 1.0982612967491148 1.1334361732006075
leaf_count=5 6 6 5 5 5
internal_value=-0.00149693 0.00743597 0.0157049 -0.0119846 -0.0150463
internal_weight=7.22267 3.90045 2.54123 3.32222 2.22396
internal_count=32 17 11 15 10
is_linear=0
shrinkage=0.01


Tree=16
num_leaves=5
num_cat=0
split_feature=2 0 0 2
split_gain=4.02063 2.78065 1.85396 0.543147
threshold=-0.39669009931832849 -0.96095646676876101 -0.35953176360889078 -0.92672812959812501
decision_type=2 2 2 2
left_child=3 -2 -3 -1
right_child=1 2 -4 -5
leaf_value=-0.0058884625876582152 -0.0078373654030379838 0.01951324047852911 0.0036351752345754056 -0.015060671268302784
leaf_weight=1.1035301983356478 1.3474230766296384 1.1410163044929507 2.0684500485658646 1.5558297187089918
leaf_count=5 6 5 9 7
internal_value=-0.00148361 0.00421864 0.00928008 -0.0112546
internal_weight=7.21625 4.55689 3.20947 2.65936
internal_count=32 20 14 12
is_linear=0
shrinkage=0.01


Tree=17
num_leaves=5
num_cat=0
split_feature=2 0 0 2
split_gain=3.9521 2.72108 1.80019 0.538056
threshold=-0.39669009931832849 -0.96095646676876101 -0.35953176360889078 -0.92672812959812501
decision_type=2 2 2 2
left_child=3 -2 -3 -1
right_child=1 2 -4 -5
leaf_value=-0.0058413277748158481 -0.0077782441911286773 0.019210646393363378 0.003595205483203271 -0.014985307059569833
leaf_weight=1.1013215184211733 1.3441047668457029 1.1473666131496432 2.0705209821462631 1.5480567067861555
leaf_count=5 6 5 9 7
internal_value=-0.00146996 0.0041716 0.00916303 -0.0111842
internal_weight=7.21137 4.56199 3.21789 2.64938
internal_count=32 20 14 12
is_linear=0
shrinkage=0.01


Tree=18
num_leaves=6
num_cat=0
split_feature=1 1 8 8 8
split_gain=6.49043 4.89105 3.73267 0.631023 0.00155079
threshold=-0.28546491421991366 0.88393862398804413 -1.0000000180025095e-35 -0.074467597489498077 -0.58851370566537453
decision_type=2 2 2 2 2
left_child=3 2 -2 4 -1
right_child=1 -3 -4 -5 -6
leaf_value=-0.014621027171500324 0.026253569220762538 -0.0080614614722141625 0.0019358216264990669 -0.0055828036264604988 -0.015151963198778335
leaf_weight=1.0799504220485689 1.4144842475652699 1.3622234761714933 1.1398715972900391 1.0882366895675657 1.1213593780994418
leaf_count=5 6 6 5 5 5
internal_value=-0.00145652 0.0072411 0.0154019 -0.011812 -0.0148915
internal_weight=7.20613 3.91658 2.55436 3.28955 2.20131
internal_count=32 17 11 15 10
is_linear=0
shrinkage=0.01


Tree=19
num_leaves=6
num_cat=0
split_feature=1 1 8 8 8
split_gain=6.37656 4.77731 3.62167 0.625396 0.00148292
threshold=-0.28546491421991366 0.88393862398804413 -1.0000000180025095e-35 -0.074467597489498077 -0.58851370566537453
decision_type=2 2 2 2 2
left_child=3 2 -2 4 -1
right_child=1 -3 -4 -5 -6
leaf_value=-0.014554003105245888 0.025832788498516751 -0.0080003628253815951 0.0019154018579767939 -0.0055380470143525382 -0.015074535497864685
leaf_weight=1.074103891849518 1.4231048822402959 1.3589171171188352 1.1405000388622284 1.0860720574855802 1.11587530374527
leaf_count=5 6 6 5 5 5
internal_value=-0.00144377 0.0071575 0.0151924 -0.0117423 -0.0148192
internal_weight=7.19857 3.92252 2.5636 3.27605 2.18998
internal_count=32 17 11 15 10
is_linear=0
shrinkage=0.01


Tree=20
num_leaves=6
num_cat=0
split_feature=8 1 1 1 1
split_gain=4.26855 4.03882 1.32306 0.62198 0.562476
threshold=-0.11592051509203601 -0.53425771575624259 0.58434567613883526 0.23250668772043101 -0.63760926846480759
decision_type=2 2 2 2 2
left_child=1 -1 4 -3 -2
right_child=2 3 -4 -5 -6
leaf_value=-0.0066588484048544869 -0.0054993858078166181 0.019567404597090755 0.0018859274356997089 0.0096923192896785429 -0.014900216939621069
leaf_weight=1.279586583375931 1.0841569751501086 1.4038937538862231 1.1393693983554838 1.1688400655984876 1.5412775874137881
leaf_count=6 5 6 5 5 7
internal_value=0.000459485 0.00785987 -0.00711293 0.015081 -0.0110182
internal_weight=7.61712 3.85232 3.7648 2.57273 2.62543
internal_count=34 17 17 11 12
is_linear=0
shrinkage=0.01


Tree=21
num_leaves=5
num_cat=0
split_feature=7 9 3 6
split_gain=3.42641 3.31801 1.00473 1.5803
threshold=1.0000000180025095e-35 1.0000000180025095e-35 -0.79184873213396167 0.40855626099097414
decision_type=2 2 2 2
left_child=1 -1 -2 -4
right_child=2 -3 3 -5
leaf_value=-0.00032101741498331116 0.002530736439029191 0.019749259940721856 -0.00036375689586828311 -0.014793723453412047
leaf_weight=2.0073616057634358 1.1211683750152586 1.3969172686338422 1.3425103873014452 1.7459648698568342
leaf_count=9 5 6 6 8
internal_value=0.000454877 0.00791465 -0.00557774 -0.00852125
internal_weight=7.61392 3.40428 4.20964 3.08848
internal_count=34 15 19 14
is_linear=0
shrinkage=0.01


Tree=22
num_leaves=5
num_cat=0
split_feature=8 4 12 0
split_gain=4.1215 4.47257 3.52494 1.90843
threshold=-0.11592051509203601 -0.24837755433283212 1.0000000180025095e-35 1.0000000180025095e-35
decision_type=2 2 2 2
left_child=1 2 -1 -2
right_child=3 -3 -4 -5
leaf_value=-0.014613841981897455 -0.00039342352107448608 0.020152786762917537 0.010635079056697449 -0.014705183610623306
leaf_weight=1.0722780674695973 2.0115039199590687 1.6509829908609388 1.1415904760360718 1.7357103526592252
leaf_count=5 9 7 5 8
internal_value=0.000450259 0.00769569 -0.00159413 -0.00702263
internal_weight=7.61207 3.86485 2.21387 3.74721
internal_count=34 17 10 17
is_linear=0
shrinkage=0.01


Tree=23
num_leaves=6
num_cat=0
split_feature=8 4 12 2 7
split_gain=4.04093 4.35605 3.46333 1.29842 0.523191
threshold=-0.11592051509203601 -0.24837755433283212 1.0000000180025095e-35 0.76370660092681886 0.56070055263277851
decision_type=2 2 2 2 2
left_child=1 2 -1 4 -2
right_child=3 -3 -4 -5 -6
leaf_value=-0.014547398353352678 -0.014660665194925586 0.019858033412116206 0.010497243102589848 0.0019487374923251339 -0.0055666885172253634
leaf_weight=1.0664331465959553 1.515784919261933 1.658694341778755 1.1449971348047256 1.136100113391876 1.085813373327255
leaf_count=5 7 7 5 5 5
internal_value=0.000445732 0.007608 -0.00158021 -0.00697029 -0.0108652
internal_weight=7.60782 3.87012 2.21143 3.7377 2.6016
internal_count=34 17 10 17 12
is_linear=0
shrinkage=0.01


Tree=24
num_leaves=6
num_cat=0
split_feature=8 1 1 1 1
split_gain=3.96235 3.74539 1.27996 0.592447 0.559069
threshold=-0.11592051509203601 -0.53425771575624259 0.58434567613883526 0.23250668772043101 -0.63760926846480759
decision_type=2 2 2 2 2
left_child=1 -1 4 -3 -2
right_child=2 3 -4 -5 -6
leaf_value=-0.0065490332348203863 -0.0052725407639447964 0.018736916669932248 0.0019281778075656503 0.0091553682143290082 -0.014703093163172922
leaf_weight=1.2710810750722887 1.0726006627082827 1.4229179322719576 1.1367288678884504 1.1808787584304807 1.5186912268400194
leaf_count=6 5 6 5 5 7
internal_value=0.000441299 0.00752233 -0.00691868 0.0143915 -0.0107996
internal_weight=7.6029 3.87488 3.72802 2.6038 2.59129
internal_count=34 17 17 11 12
is_linear=0
shrinkage=0.01


Tree=25
num_leaves=5
num_cat=0
split_feature=7 6 5 8
split_gain=3.02581 2.46336 2.22093 2.1277
threshold=0.23655405688500047 0.47599870080818896 0.22394527388138735 0.50981401969284479
decision_type=2 2 2 2
left_child=1 -1 -3 -2
right_child=3 2 -4 -5
leaf_value=0.014062150677742011 -0.014821663536238022 0.0067717338545768384 -0.0094341778170279628 0.0024066761969579547
leaf_weight=1.6467202752828596 1.9651527851819994 1.799821585416794 1.5951020270586012 1.128492623567581
leaf_count=7 9 8 7 5
internal_value=-0.00075167 0.00402564 -0.0008426 -0.00853715
internal_weight=8.13529 5.04164 3.39492 3.09365
internal_count=36 22 15 14
is_linear=0
shrinkage=0.01


Tree=26
num_leaves=5
num_cat=0
split_feature=1 4 11 9
split_gain=3.16705 5.20022 1.18518 0.705738
threshold=-0.28546491421991366 0.44873200564497118 1.0000000180025095e-35 0.2659386601962565
decision_type=2 2 2 2
left_child=2 -2 3 -1
right_child=1 -3 -4 -5
leaf_value=-0.0078081414108541504 0.016196210622959169 -0.0060598560509202027 -0.014299701544757194 0.0029581496612382787
leaf_weight=1.3495546430349352 2.1426484882831573 2.0584168136119843 1.4705532640218737 1.1093228310346601
leaf_count=6 9 9 7 5
internal_value=-0.000744772 0.0052913 -0.0071981 -0.00295093
internal_weight=8.1305 4.20107 3.92943 2.45888
internal_count=36 18 18 11
is_linear=0
shrinkage=0.01


Tree=27
num_leaves=6
num_cat=0
split_feature=8 4 3 2 2
split_gain=2.73189 3.46732 2.90775 3.19386 0.0246139
threshold=-0.58851370566537453 -0.32583417210814375 -0.42688513985017229 -0.39669009931832849 -0.82359031206654765
decision_type=2 2 2 2 2
left_child=1 -1 3 4 -2
right_child=2 -3 -4 -5 -6
leaf_value=-0.0055844327466442311 -0.0075737461317849988 0.018076870131841304 -0.015168417772713329 0.012329266643233859 -0.0055435489011767597
leaf_weight=1.0872335135936739 1.3339996933937075 1.4390530884265897 1.7847406864166258 1.3975193351507189 1.0811806023120878
leaf_count=5 6 6 8 6 5
internal_value=-0.000738117 0.0078938 -0.00463395 0.000297279 -0.00666491
internal_weight=8.12373 2.52629 5.59744 3.8127 2.41518
internal_count=36 11 25 17 11
is_linear=0
shrinkage=0.01


Tree=28
num_leaves=5
num_cat=0
split_feature=1 4 12 9
split_gain=3.05812 4.98202 1.18324 0.69392
threshold=-0.28546491421991366 0.44873200564497118 1.0000000180025095e-35 0.2659386601962565
decision_type=2 2 2 2
left_child=2 -2 -1 -4
right_child=1 -3 3 -5
leaf_value=-0.014224496780751618 0.015801321173641893 -0.005971479718234164 -0.0076855292688800128 0.0030073902966515683
leaf_weight=1.4599581211805346 2.1556563526391983 2.0507076382637024 1.3425426483154299 1.1075856685638426
leaf_count=7 9 9 6 5
internal_value=-0.000731591 0.00518654 -0.00709815 -0.00285177
internal_weight=8.11645 4.20636 3.91009 2.45013
internal_count=36 18 18 11
is_linear=0
shrinkage=0.01


Tree=29
num_leaves=5
num_cat=0
split_feature=1 4 1 9
split_gain=3.00168 4.86846 1.11387 0.51821
threshold=-0.28546491421991366 0.44873200564497118 -0.84686419896591303 0.58253230328703809
decision_type=2 2 2 2
left_child=2 -2 -1 -4
right_child=1 -3 3 -5
leaf_value=0.00047176137097870632 0.015594442477226019 -0.0059217089177741955 -0.014638730969677454 -0.00557133476493575
leaf_weight=1.3090165853500368 2.1623768657445908 2.0472812354564667 1.5068671107292178 1.0834931433200834
leaf_count=6 9 9 7 5
internal_value=-0.000725108 0.0051305 -0.00704666 -0.010846
internal_weight=8.10903 4.20966 3.89938 2.59036
internal_count=36 18 18 12
is_linear=0
shrinkage=0.01


Tree=30
num_leaves=6
num_cat=0
split_feature=5 7 8 4 2
split_gain=2.77881 3.242 8.35874 1.74062 1.43107
threshold=-0.63432755533787588 -0.41077992130952606 1.0000000180025095e-35 0.44873200564497118 1.0000000180025095e-35
decision_type=2 2 2 2 2
left_child=-1 4 -3 -4 -2
right_child=1 2 3 -5 -6
leaf_value=-0.014433189613563007 -0.014531858034645222 0.024095093054126191 0.0033573318117154226 -0.014566333781218717 0.00074984127833399594
leaf_weight=1.2719438076019285 1.2803960144519808 1.6972430646419527 1.0916682630777361 1.0757088363170622 1.175289526581764
leaf_count=6 6 7 5 5 5
internal_value=-0.000947317 0.00176668 0.00747582 -0.00553851 -0.00721805
internal_weight=7.59225 6.32031 3.86462 2.16738 2.45569
internal_count=34 28 17 10 11
is_linear=0
shrinkage=0.01


Tree=31
num_leaves=4
num_cat=0
split_feature=1 7 7
split_gain=5.58384 2.76374 0.926081
threshold=-0.28546491421991366 0.23655405688500047 -0.41077992130952606
decision_type=2 2 2
left_child=2 -2 -1
right_child=1 -3 -4
leaf_value=-0.014373293689428936 0.015041611584489476 -0.0024154627099164049 -0.0045606071880575283
leaf_weight=1.8947218209505083 2.178714975714684 1.5535544604063032 1.9532645642757414
leaf_count=9 9 7 9
internal_value=-0.00093963 0.00777512 -0.00939231
internal_weight=7.58026 3.73227 3.84799
internal_count=34 16 18
is_linear=0
shrinkage=0.01


Tree=32
num_leaves=5
num_cat=0
split_feature=1 3 0 12
split_gain=5.48221 3.67732 2.36623 0.00455164
threshold=-0.28546491421991366 -0.14571442465245885 -0.35953176360889078 -1.0000000180025095e-35
decision_type=2 2 2 2
left_child=2 -2 -1 -4
right_child=1 -3 3 -5
leaf_value=0.0030054861732694855 0.018666462845545233 -0.0012761645584725048 -0.013876187879686377 -0.014698548429373038
leaf_weight=1.1060326844453814 1.6796552240848543 2.0569530725479126 1.2076353281736376 1.5204008817672727
leaf_count=5 7 9 6 7
internal_value=-0.000931579 0.00768831 -0.00933236 -0.0143345
internal_weight=7.57068 3.73661 3.83407 2.72804
internal_count=34 16 18 13
is_linear=0
shrinkage=0.01


Tree=33
num_leaves=5
num_cat=0
split_feature=1 3 0 12
split_gain=5.38277 3.58825 2.33824 0.004361
threshold=-0.28546491421991366 -0.14571442465245885 -0.35953176360889078 1.0000000180025095e-35
decision_type=2 2 2 2
left_child=2 -2 -1 -4
right_child=1 -3 3 -5
leaf_value=0.0029724740695884363 0.018419783457503915 -0.0012638393710515652 -0.013822779784245088 -0.014630074108493901
leaf_weight=1.1071277856826784 1.6851000040769579 2.056246429681778 1.2002155184745789 1.5122824460268021
leaf_count=5 7 9 6 7
internal_value=-0.000923664 0.00760165 -0.00927426 -0.0142729
internal_weight=7.56097 3.74135 3.81963 2.7125
internal_count=34 16 18 13
is_linear=0
shrinkage=0.01


Tree=34
num_leaves=6
num_cat=0
split_feature=1 8 0 8 12
split_gain=5.28547 4.41898 2.31078 1.3936 0.00417911
threshold=-0.28546491421991366 0.36664931028335762 -0.35953176360889078 -0.46739735916842862 1.0000000180025095e-35
decision_type=2 2 2 2 2
left_child=2 3 -1 -2 -4
right_child=1 -3 4 -5 -6
leaf_value=0.002939867302857523 0.0078621177977555006 -0.0072847281143143495 -0.013770309199241344 0.022993866033640259 -0.014562909529641099
leaf_weight=1.1082076132297518 1.207847133278847 1.3110634833574293 1.1927782297134399 1.2268503755331042 1.5041055828332901
leaf_count=5 5 6 6 5 7
internal_value=-0.000915866 0.00751664 -0.00921689 0.015487 -0.0142124
internal_weight=7.55085 3.74576 3.80509 2.4347 2.69688
internal_count=34 16 18 10 13
is_linear=0
shrinkage=0.01


Tree=35
num_leaves=5
num_cat=0
split_feature=1 2 1 9
split_gain=2.52789 6.58541 1.45002 0.548896
threshold=0.75544044235385244 0.1360028566129633 -0.84686419896591303 -0.84213909062147863
decision_type=2 2 2 2
left_child=1 2 -1 -4
right_child=-2 -3 3 -5
leaf_value=0.0015085454288023415 -0.015621095927114277 0.01496992270673066 -0.0055558936148985549 -0.014493814151055291
leaf_weight=1.2591363787651055 1.3677948564290998 1.8846983462572096 1.0716471821069713 1.9147604554891595
leaf_count=6 6 8 5 9
internal_value=-0.00332878 -0.000586092 -0.00749178 -0.0112865
internal_weight=7.49804 6.13024 4.24554 2.98641
internal_count=34 28 20 14
is_linear=0
shrinkage=0.01


Tree=36
num_leaves=5
num_cat=0
split_feature=1 2 1 8
split_gain=2.49102 6.44899 1.43057 0.579477
threshold=0.75544044235385244 0.1360028566129633 -0.84686419896591303 -0.58851370566537453
decision_type=2 2 2 2
left_child=1 2 -1 -4
right_child=-2 -3 3 -5
leaf_value=0.0014925693710077315 -0.015534924958670645 0.014777176277591716 -0.0052694830912423411 -0.014495675072053639
leaf_weight=1.2598837912082665 1.361658841371536 1.8901608586311338 1.0551740229129787 1.9184815287590036
leaf_count=6 6 8 5 9
internal_value=-0.00330131 -0.000581054 -0.00743809 -0.0112218
internal_weight=7.48536 6.1237 4.23354 2.97366
internal_count=34 28 20 14
is_linear=0
shrinkage=0.01


Tree=37
num_leaves=5
num_cat=0
split_feature=7 4 12 1
split_gain=2.69639 7.2314 1.86427 0.585675
threshold=0.23655405688500047 0.22281687046697915 -1.0000000180025095e-35 -0.13528750558001237
decision_type=2 2 2 2
left_child=1 2 -1 -2
right_child=3 -3 -4 -5
leaf_value=-0.014202638037971572 -0.0052405654384067015 0.017816915782818025 0.0021147412643525588 -0.014656412711416192
leaf_weight=1.8507721424102781 1.0713402181863787 1.7009789943695066 1.1262553781270983 1.7230491042137144
leaf_count=9 5 7 5 8
internal_value=-0.00327419 0.00136855 -0.00802952 -0.0110465
internal_weight=7.4724 4.67801 2.97703 2.79439
internal_count=34 21 14 13
is_linear=0
shrinkage=0.01


end of trees

feature_importances:
Column_1=41
Column_8=23
Column_4=16
Column_3=12
Column_0=11
Column_2=11
Column_7=11
Column_12=11
Column_9=8
Column_5=7
Column_6=3
Column_11=2

parameters:
[boosting: gbdt]
[objective: binary]
[metric: auc]
[tree_learner: serial]
[device_type: cpu]
[data_sample_strategy: bagging]
[data: ]
[valid: ]
[num_iterations: 1000]
[learning_rate: 0.01]
[num_leaves: 15]
[num_threads: 0]
[seed: 42]
[deterministic: 1]
[force_col_wise: 1]
[force_row_wise: 0]
[histogram_pool_size: -1]
[max_depth: -1]
[min_data_in_leaf: 5]
[min_sum_hessian_in_leaf: 0.001]
[bagging_fraction: 0.7]
[pos_bagging_fraction: 1]
[neg_bagging_fraction: 1]
[bagging_freq: 5]
[bagging_seed: 400]
[bagging_by_query: 0]
[feature_fraction: 0.7]
[feature_fraction_bynode: 1]
[feature_fraction_seed: 30056]
[extra_trees: 0]
[extra_seed: 12879]
[early_stopping_round: 0]
[early_stopping_min_delta: 0]
[first_metric_only: 0]
[max_delta_step: 0]
[lambda_l1: 0]
[lambda_l2: 0]
[linear_lambda: 0]
[min_gain_to_split: 0]
[drop_rate: 0.1]
[max_drop: 50]
[skip_drop: 0.5]
[xgboost_dart_mode: 0]
[uniform_drop: 0]
[drop_seed: 17869]
[top_rate: 0.2]
[other_rate: 0.1]
[min_data_per_group: 100]
[max_cat_threshold: 32]
[cat_l2: 10]
[cat_smooth: 10]
[max_cat_to_onehot: 4]
[top_k: 20]
[monotone_constraints: ]
[monotone_constraints_method: basic]
[monotone_penalty: 0]
[feature_contri: ]
[forcedsplits_filename: ]
[refit_decay_rate: 0.9]
[cegb_tradeoff: 1]
[cegb_penalty_split: 0]
[cegb_penalty_feature_lazy: ]
[cegb_penalty_feature_coupled: ]
[path_smooth: 0]
[interaction_constraints: ]
[verbosity: -1]
[saved_feature_importance_type: 0]
[use_quantized_grad: 0]
[num_grad_quant_bins: 4]
[quant_train_renew_leaf: 0]
[stochastic_rounding: 1]
[linear_tree: 0]
[max_bin: 255]
[max_bin_by_feature: ]
[min_data_in_bin: 3]
[bin_construct_sample_cnt: 200000]
[data_random_seed: 175]
[is_enable_sparse: 1]
[enable_bundle: 1]
[use_missing: 1]
[zero_as_missing: 0]
[feature_pre_filter: 1]
[pre_partition: 0]
[two_round: 0]
[header: 0]
[label_column: ]
[weight_column: ]
[group_column: ]
[ignore_column: ]
[categorical_feature: ]
[forcedbins_filename: ]
[precise_float_parser: 0]
[parser_config_file: ]
[objective_seed: 16083]
[num_class: 1]
[is_unbalance: 0]
[scale_pos_weight: 1]
[sigmoid: 1]
[boost_from_average: 1]
[reg_sqrt: 0]
[alpha: 0.9]
[fair_c: 1]
[poisson_max_delta_step: 0.7]
[tweedie_variance_power: 1.5]
[lambdarank_truncation_level: 30]
[lambdarank_norm: 1]
[label_gain: ]
[lambdarank_position_bias_regularization: 0]
[eval_at: ]
[multi_error_top_k: 1]
[auc_mu_weights: ]
[num_machines: 1]
[local_listen_port: 12400]
[time_out: 120]
[machine_list_filename: ]
[machines: ]
[gpu_platform_id: -1]
[gpu_device_id: -1]
[gpu_use_dp: 0]
[num_gpu: 1]

end of parameters

pandas_categorical:null
