tree
version=v4
num_class=1
num_tree_per_iteration=1
label_index=0
max_feature_idx=9
objective=binary sigmoid:1
feature_names=Column_0 Column_1 Column_2 Column_3 Column_4 Column_5 Column_6 Column_7 Column_8 Column_9
feature_infos=[-1.0168394290561711:3.0520799144994157] [-1.2852435072265382:3.7179440071051424] [-1.5799354526206366:2.8661667315291766] [-1.1069683468910279:3.8957591220666066] [-1.7538377553224795:2.0936438204162107] [-1.0344839720511658:5.4630136089127506] [-4.5492331473941379:0.97620292099344252] [-2.3691013711252142:2.3555903208684139] [-1.7413967205370187:3.2651075884595397] [-1.7513267545383384:3.9550379041582255]
tree_sizes=653 665 665 663 667 776 775 778 774 773 668 671 768 670 666 662 666 664 666 663

Tree=0
num_leaves=5
num_cat=0
split_feature=1 1 0 0
split_gain=7.21656 8.30328 0.656051 0.515468
threshold=-0.2075557691482364 0.49171004456867218 -0.26932394123413039 0.20954438834810749
decision_type=2 2 2 2
left_child=3 -2 -3 -1
right_child=1 2 -4 -5
leaf_value=-0.64244628326125219 -0.61200910194139013 -0.63360968223290515 -0.64391905009931005 -0.65128288428959924
leaf_weight=1.1316568404436114 2.0369823127985001 1.1316568404436114 1.3579882085323332 1.5843195766210554
leaf_count=5 9 5 6 7
internal_value=-0.634714 -0.626982 -0.639233 -0.647601
internal_weight=7.2426 4.52663 2.48965 2.71598
internal_count=32 20 11 12
is_linear=0
shrinkage=1


Tree=1
num_leaves=5
num_cat=0
split_feature=1 1 7 6
split_gain=7.07607 8.06467 0.657912 0.517526
threshold=-0.2075557691482364 0.49171004456867218 0.40179546513924774 0.48557589190181111
decision_type=2 2 2 2
left_child=3 -2 -3 -1
right_child=1 2 -4 -5
leaf_value=-0.015233629215647122 0.023567557564184074 0.0024199403723265049 -0.0079093829095351204 -0.0063633671467983764
leaf_weight=1.5786673426628115 2.0517997741699219 1.1303232908248904 1.3568201065063474 1.127530515193939
leaf_count=7 9 5 6 5
internal_value=0.00126097 0.00889185 -0.00321505 -0.0115379
internal_weight=7.24514 4.53894 2.48714 2.7062
internal_count=32 20 11 12
is_linear=0
shrinkage=0.01


Tree=2
num_leaves=5
num_cat=0
split_feature=1 1 4 7
split_gain=6.93905 7.83655 0.655371 0.521938
threshold=-0.2075557691482364 0.49171004456867218 1.1933072227265173 0.40179546513924774
decision_type=2 2 2 2
left_child=3 -2 -3 -1
right_child=1 2 -4 -5
leaf_value=-0.015180712938459641 0.023171378733822627 -0.0078757416659375138 0.0024383701976146313 -0.0062556929922824214
leaf_weight=1.5736169368028643 2.0659397095441818 1.3549388051033022 1.1297192126512525 1.1227384507656095
leaf_count=7 9 6 5 5
internal_value=0.00124771 0.00877999 -0.00318614 -0.0114644
internal_weight=7.24695 4.5506 2.48466 2.69636
internal_count=32 20 11 12
is_linear=0
shrinkage=0.01


Tree=3
num_leaves=5
num_cat=0
split_feature=1 1 2 2
split_gain=6.80539 7.61825 0.657204 0.519368
threshold=-0.2075557691482364 0.49171004456867218 1.0585250242553925 -0.95974843588569769
decision_type=2 2 2 2
left_child=3 -2 -3 -1
right_child=1 2 -4 -5
leaf_value=-0.006191197948872189 0.02279019777635603 0.0024786200325586081 -0.0078552185248973224 -0.015109221499654896
leaf_weight=1.119829133152962 2.0794200897216797 1.1283900588750841 1.3537880927324293 1.5666312128305433
leaf_count=5 9 5 6 7
internal_value=0.00123471 0.00867085 -0.00315749 -0.0113918
internal_weight=7.24806 4.5616 2.48218 2.68646
internal_count=32 20 11 12
is_linear=0
shrinkage=0.01


Tree=4
num_leaves=5
num_cat=0
split_feature=1 1 8 6
split_gain=6.67499 7.40919 0.659076 0.519213
threshold=-0.2075557691482364 0.49171004456867218 0.27064485313558384 0.48557589190181111
decision_type=2 2 2 2
left_child=3 -2 -3 -1
right_child=1 2 -4 -5
leaf_value=-0.015045629930277351 0.022423152271872925 -0.0078350545423715758 0.0025187827558645292 -0.0061130396452471914
leaf_weight=1.5602156817913058 2.0922580808401108 1.3526464104652407 1.1270681768655775 1.1162773817777631
leaf_count=7 9 6 5 5
internal_value=0.00122199 0.00856431 -0.00312908 -0.0113201
internal_weight=7.24847 4.57197 2.47971 2.67649
internal_count=32 20 11 12
is_linear=0
shrinkage=0.01


Tree=5
num_leaves=6
num_cat=0
split_feature=9 9 9 3 5
split_gain=3.25158 4.51109 2.86293 2.19083 0.000525625
threshold=1.0000000180025095e-35 -0.89321399585098682 0.65661374634476599 1.0000000180025095e-35 -0.47276354577568441
decision_type=2 2 2 2 2
left_child=1 -1 4 -3 -2
right_child=2 3 -4 -5 -6
leaf_value=-0.0088540137412343161 -0.014980934690472791 0.021308576052970995 0.0014860852570017253 0.0024694769189813836 -0.015274297316301243
leaf_weight=1.5738398581743238 1.3316060155630109 1.3624030500650408 1.7980374097824094 1.128684416413307 1.1282255947589876
leaf_count=7 6 6 8 5 5
internal_value=-0.00199767 0.00439942 -0.00810488 0.0127728 -0.0151155
internal_weight=8.3228 4.06493 4.25787 2.49109 2.45983
internal_count=37 18 19 11 11
is_linear=0
shrinkage=0.01


Tree=6
num_leaves=6
num_cat=0
split_feature=9 5 9 1 0
split_gain=3.19292 4.42806 2.82606 1.94589 0.000504398
threshold=1.0000000180025095e-35 0.18770455261006277 0.65661374634476599 -0.046071927443467019 0.20954438834810749
decision_type=2 2 2 2 2
left_child=1 3 4 -1 -2
right_child=2 -3 -4 -5 -6
leaf_value=0.0028107680374827547 -0.015194751063779679 -0.0088016149619655724 0.0014705305012667348 0.020560519042415706 -0.014906665962429731
leaf_weight=1.1173235923051834 1.1228543221950533 1.5715918987989423 1.7988821417093275 1.3810634166002274 1.3248543739318845
leaf_count=5 5 7 8 6 6
internal_value=-0.00197942 0.00434975 -0.00804536 0.0126225 -0.0150388
internal_weight=8.31657 4.06998 4.24659 2.49839 2.44771
internal_count=37 18 19 11 11
is_linear=0
shrinkage=0.01


Tree=7
num_leaves=6
num_cat=0
split_feature=9 9 9 3 5
split_gain=3.13554 4.36671 2.78996 2.09324 0.000482851
threshold=1.0000000180025095e-35 -0.89321399585098682 0.65661374634476599 -1.0000000180025095e-35 -0.47276354577568441
decision_type=2 2 2 2 2
left_child=1 -1 4 -3 -2
right_child=2 3 -4 -5 -6
leaf_value=-0.0087841134819043841 -0.014834038830296912 0.020778173764147836 0.0014551466409469663 0.0024111544648769889 -0.015116607960642948
leaf_weight=1.5684792548418043 1.3180561512708662 1.3753400593996048 1.7997166663408277 1.1305643916130066 1.1174047291278841
leaf_count=7 6 6 8 5 5
internal_value=-0.00196151 0.00430134 -0.00798659 0.0124917 -0.0149637
internal_weight=8.30956 4.07438 4.23518 2.5059 2.43546
internal_count=37 18 19 11 11
is_linear=0
shrinkage=0.01


Tree=8
num_leaves=6
num_cat=0
split_feature=0 0 9 8 2
split_gain=3.10613 3.1933 2.75543 1.75472 0.000557546
threshold=-0.26932394123413039 -0.94061349095081492 1.0000000180025095e-35 0.27064485313558384 -0.63996213604148522
decision_type=2 2 2 2 2
left_child=1 -1 -2 -3 -4
right_child=2 3 4 -5 -6
leaf_value=-0.0081641499088688802 0.0014233408271969023 0.0037593643561926529 -0.014762664311905796 0.020085485382964834 -0.015066785479977774
leaf_weight=1.3681740909814832 1.800924479961395 1.5754983723163607 1.3111822307109831 1.1308620721101759 1.1158231049776079
leaf_count=6 8 7 6 5 5
internal_value=-0.00194379 0.00428682 -0.00794835 0.0105813 -0.0149025
internal_weight=8.30246 4.07453 4.22793 2.70636 2.42701
internal_count=37 18 19 12 11
is_linear=0
shrinkage=0.01


Tree=9
num_leaves=6
num_cat=0
split_feature=7 4 2 4 8
split_gain=2.73468 1.6371 3.04851 1.61394 0.000521848
threshold=-0.59690419088149582 0.68808236934668909 -0.95974843588569769 1.6531913841363606 0.041849957500626825
decision_type=2 2 2 2 2
left_child=-1 2 -2 -3 -4
right_child=1 3 4 -5 -6
leaf_value=0.0098942167955284738 0.0019072555971531623 0.010532662136760726 -0.014889750181617669 -0.0063223682080210952 -0.015173160940089752
leaf_weight=1.5836645662784574 1.7745820283889764 1.1474899947643282 1.5433425009250648 1.1251527816057203 1.1220403313636778
leaf_count=7 8 5 7 5 5
internal_value=-0.00192601 -0.00471468 -0.00824788 0.00218798 -0.0150091
internal_weight=8.29627 6.71261 4.43996 2.27264 2.66538
internal_count=37 30 20 10 12
is_linear=0
shrinkage=0.01


Tree=10
num_leaves=5
num_cat=0
split_feature=3 9 0 1
split_gain=3.65595 3.11073 1.77484 0.463323
threshold=0.26348721314712409 1.0000000180025095e-35 -0.85063753807134168 0.49171004456867218
decision_type=2 2 2 2
left_child=1 2 -1 -2
right_child=3 -3 -4 -5
leaf_value=0.0015300246935852752 -0.0060556413006885648 -0.0049133091237708601 0.017364615139490894 -0.0151652345429929
leaf_weight=1.1557011902332306 1.1107329428195956 1.9907597154378889 1.8266981244087219 1.1226236820220945
leaf_count=5 5 9 8 5
internal_value=-6.12062e-06 0.00476698 0.0112286 -0.0106347
internal_weight=7.20652 4.97316 2.9824 2.23336
internal_count=32 22 13 10
is_linear=0
shrinkage=0.01


Tree=11
num_leaves=5
num_cat=0
split_feature=7 1 8 1
split_gain=3.04981 3.67628 2.74923 2.13955
threshold=-0.59690419088149582 0.49171004456867218 -0.41834273360586233 -0.41106260188393001
decision_type=2 2 2 2
left_child=-1 2 -2 -4
right_child=1 -3 3 -5
leaf_value=0.013365994976344766 -0.0083877934609087584 -0.015105936364346061 -4.3100195438190856e-05 0.018515925860270763
leaf_weight=1.3790986388921735 1.5408907383680337 1.7886965423822401 1.3340108990669244 1.1624612361192714
leaf_count=6 7 8 6 5
internal_value=-6.25024e-06 -0.00317162 0.00211571 0.00859875
internal_weight=7.20516 5.82606 4.03736 2.49647
internal_count=32 26 18 11
is_linear=0
shrinkage=0.01


Tree=12
num_leaves=6
num_cat=0
split_feature=3 1 1 3 0
split_gain=3.54633 2.5917 4.24355 2.13577 0.451365
threshold=0.26348721314712409 -0.33106299659788935 -0.88275233187677993 -0.34525093612124974 0.10083420168644903
decision_type=2 2 2 2 2
left_child=1 2 -1 -3 -2
right_child=4 3 -4 -5 -6
leaf_value=0.011619812096224104 -0.015018779841707377 0.020072853833372345 -0.014849283409741352 0.0016638954654959917 -0.0060005561203552446
leaf_weight=1.1204908788204195 1.1122207790613177 1.3921922445297243 1.3183184117078779 1.1514895409345625 1.107752665877342
leaf_count=5 5 6 6 5 5
internal_value=-6.4272e-06 0.00467739 -0.00268828 0.0117394 -0.0105187
internal_weight=7.20246 4.98249 2.43881 2.54368 2.21997
internal_count=32 22 11 11 10
is_linear=0
shrinkage=0.01


Tree=13
num_leaves=5
num_cat=0
split_feature=3 9 0 0
split_gain=3.48312 2.9633 1.70942 0.447115
threshold=0.26348721314712409 1.0000000180025095e-35 -0.85063753807134168 0.10083420168644903
decision_type=2 2 2 2
left_child=1 2 -1 -2
right_child=3 -3 -4 -5
leaf_value=0.0013781454347385174 -0.014943985599282381 -0.0048556179880224065 0.016875506486236883 -0.0059525273052613908
leaf_weight=1.1593940854072571 1.1066375374794009 1.9847062826156614 1.8434803932905197 1.1055349707603452
leaf_count=5 5 9 8 5
internal_value=-6.63898e-06 0.00462559 0.0108921 -0.0104505
internal_weight=7.19975 4.98758 3.00287 2.21217
internal_count=32 22 13 10
is_linear=0
shrinkage=0.01


Tree=14
num_leaves=5
num_cat=0
split_feature=2 1 1 0
split_gain=4.41888 7.85192 3.85736 1.73114
threshold=0.75177098754750149 -0.33106299659788935 -0.88275233187677993 0.10083420168644903
decision_type=2 2 2 2
left_child=1 2 -1 -3
right_child=-2 3 -4 -5
leaf_value=0.0072467462260245186 -0.014964015846526265 0.009509486310781582 -0.014755337578929148 0.026701636628897081
leaf_weight=1.3407282531261442 1.5498648881912229 1.1718249917030337 1.9641806036233904 1.1709532886743543
leaf_count=6 7 5 9 5
internal_value=-6.75372e-06 0.00409789 -0.00582958 0.0181024
internal_weight=7.19755 5.64769 3.30491 2.34278
internal_count=32 25 15 10
is_linear=0
shrinkage=0.01


Tree=15
num_leaves=5
num_cat=0
split_feature=0 1 2 9
split_gain=4.46119 6.12892 4.72016 2.08924
threshold=-0.94061349095081492 -0.41106260188393001 -0.95974843588569769 -0.46955276621447833
decision_type=2 2 2 2
left_child=-1 2 -2 -3
right_child=1 3 -4 -5
leaf_value=-0.015335600383360206 0.0116782946742319 0.026429002011678599 -0.014674304589719576 0.0096493524114744118
leaf_weight=1.1306622773408888 1.1179387718439104 1.1752020418643954 1.7338248640298841 2.0131639093160629
leaf_count=5 5 5 8 9
internal_value=0.0028949 0.0063075 -0.00434365 0.0158342
internal_weight=7.17079 6.04013 2.85176 3.18837
internal_count=32 27 13 14
is_linear=0
shrinkage=0.01


Tree=16
num_leaves=5
num_cat=0
split_feature=8 4 7 7
split_gain=2.5363 2.58253 2.81372 2.187
threshold=-0.69728683275883419 -0.82759219079279467 0.40179546513924774 1.0000000180025095e-35
decision_type=2 2 2 2
left_child=-1 -2 3 -3
right_child=1 2 -4 -5
leaf_value=-0.0084835415945275754 0.019403412894899191 0.0013931644282582319 -0.0083994151680754497 0.019051776020162049
leaf_weight=1.5452955514192579 1.1423443108797071 1.7973548173904421 1.5386596471071241 1.1501573175191877
leaf_count=7 5 8 7 5
internal_value=0.00286438 0.00597992 0.00256181 0.00828378
internal_weight=7.17381 5.62852 4.48617 2.94751
internal_count=32 25 20 13
is_linear=0
shrinkage=0.01


Tree=17
num_leaves=5
num_cat=0
split_feature=0 1 2 4
split_gain=4.37187 5.91741 4.61947 1.28101
threshold=-0.94061349095081492 -0.41106260188393001 -0.95974843588569769 0.27353889990683022
decision_type=2 2 2 2
left_child=-1 2 -2 -3
right_child=1 3 -4 -5
leaf_value=-0.015264237810216044 0.011482022916420307 0.021843242214511435 -0.014587979094302752 0.0092035770360911449
leaf_weight=1.1254597902297971 1.1228205263614657 1.6007862240076067 1.7222188413143156 1.606531426310539
leaf_count=5 5 7 8 7
internal_value=0.00283394 0.00619936 -0.00429922 0.0155121
internal_weight=7.17782 6.05236 2.84504 3.20732
internal_count=32 27 13 14
is_linear=0
shrinkage=0.01


Tree=18
num_leaves=5
num_cat=0
split_feature=0 1 1 9
split_gain=4.29433 5.77137 3.22545 1.9995
threshold=-0.94061349095081492 -0.41106260188393001 -0.80943453969100776 -0.46955276621447833
decision_type=2 2 2 2
left_child=-1 2 -2 -3
right_child=1 3 -4 -5
leaf_value=-0.015184805226171256 0.0069178042926674836 0.025587776484470699 -0.014422072542275238 0.0092623567818421286
leaf_weight=1.1200607120990751 1.3516486883163454 1.1894543170928957 1.4880304485559461 2.0316567122936249
leaf_count=5 6 5 7 9
internal_value=0.00280405 0.00612847 -0.00426458 0.0152908
internal_weight=7.18085 6.06079 2.83968 3.22111
internal_count=32 27 13 14
is_linear=0
shrinkage=0.01


Tree=19
num_leaves=5
num_cat=0
split_feature=0 1 2 0
split_gain=4.21894 5.63217 4.48869 0.541134
threshold=-0.94061349095081492 -0.41106260188393001 -0.95974843588569769 -0.26932394123413039
decision_type=2 2 2 2
left_child=-1 2 -2 -3
right_child=1 3 -4 -5
leaf_value=-0.015106973820154525 0.01123322369741488 0.019773262557965538 -0.014472114294278257 0.011514102971481251
leaf_weight=1.1146003454923628 1.1292448937892916 1.3962362855672836 1.7049826085567472 1.8370206207036972
leaf_count=5 5 6 8 8
internal_value=0.00277523 0.0060602 -0.0042303 0.0150807
internal_weight=7.18208 6.06748 2.83423 3.23326
internal_count=32 27 13 14
is_linear=0
shrinkage=0.01


end of trees

feature_importances:
Column_1=23
Column_0=15
Column_9=13
Column_2=8
Column_3=6
Column_7=6
Column_4=5
Column_8=5
Column_5=3
Column_6=2

parameters:
[boosting: gbdt]
[objective: binary]
[metric: auc]
[tree_learner: serial]
[device_type: cpu]
[data_sample_strategy: bagging]
[data: ]
[valid: ]
[num_iterations: 1000]
[learning_rate: 0.01]
[num_leaves: 15]
[num_threads: 0]
[seed: 42]
[deterministic: 1]
[force_col_wise: 1]
[force_row_wise: 0]
[histogram_pool_size: -1]
[max_depth: -1]
[min_data_in_leaf: 5]
[min_sum_hessian_in_leaf: 0.001]
[bagging_fraction: 0.7]
[pos_bagging_fraction: 1]
[neg_bagging_fraction: 1]
[bagging_freq: 5]
[bagging_seed: 400]
[bagging_by_query: 0]
[feature_fraction: 0.7]
[feature_fraction_bynode: 1]
[feature_fraction_seed: 30056]
[extra_trees: 0]
[extra_seed: 12879]
[early_stopping_round: 0]
[early_stopping_min_delta: 0]
[first_metric_only: 0]
[max_delta_step: 0]
[lambda_l1: 0]
[lambda_l2: 0]
[linear_lambda: 0]
[min_gain_to_split: 0]
[drop_rate: 0.1]
[max_drop: 50]
[skip_drop: 0.5]
[xgboost_dart_mode: 0]
[uniform_drop: 0]
[drop_seed: 17869]
[top_rate: 0.2]
[other_rate: 0.1]
[min_data_per_group: 100]
[max_cat_threshold: 32]
[cat_l2: 10]
[cat_smooth: 10]
[max_cat_to_onehot: 4]
[top_k: 20]
[monotone_constraints: ]
[monotone_constraints_method: basic]
[monotone_penalty: 0]
[feature_contri: ]
[forcedsplits_filename: ]
[refit_decay_rate: 0.9]
[cegb_tradeoff: 1]
[cegb_penalty_split: 0]
[cegb_penalty_feature_lazy: ]
[cegb_penalty_feature_coupled: ]
[path_smooth: 0]
[interaction_constraints: ]
[verbosity: -1]
[saved_feature_importance_type: 0]
[use_quantized_grad: 0]
[num_grad_quant_bins: 4]
[quant_train_renew_leaf: 0]
[stochastic_rounding: 1]
[linear_tree: 0]
[max_bin: 255]
[max_bin_by_feature: ]
[min_data_in_bin: 3]
[bin_construct_sample_cnt: 200000]
[data_random_seed: 175]
[is_enable_sparse: 1]
[enable_bundle: 1]
[use_missing: 1]
[zero_as_missing: 0]
[feature_pre_filter: 1]
[pre_partition: 0]
[two_round: 0]
[header: 0]
[label_column: ]
[weight_column: ]
[group_column: ]
[ignore_column: ]
[categorical_feature: ]
[forcedbins_filename: ]
[precise_float_parser: 0]
[parser_config_file: ]
[objective_seed: 16083]
[num_class: 1]
[is_unbalance: 0]
[scale_pos_weight: 1]
[sigmoid: 1]
[boost_from_average: 1]
[reg_sqrt: 0]
[alpha: 0.9]
[fair_c: 1]
[poisson_max_delta_step: 0.7]
[tweedie_variance_power: 1.5]
[lambdarank_truncation_level: 30]
[lambdarank_norm: 1]
[label_gain: ]
[lambdarank_position_bias_regularization: 0]
[eval_at: ]
[multi_error_top_k: 1]
[auc_mu_weights: ]
[num_machines: 1]
[local_listen_port: 12400]
[time_out: 120]
[machine_list_filename: ]
[machines: ]
[gpu_platform_id: -1]
[gpu_device_id: -1]
[gpu_use_dp: 0]
[num_gpu: 1]

end of parameters

pandas_categorical:null
