tree
version=v4
num_class=1
num_tree_per_iteration=1
label_index=0
max_feature_idx=13
objective=binary sigmoid:1
feature_names=Column_0 Column_1 Column_2 Column_3 Column_4 Column_5 Column_6 Column_7 Column_8 Column_9 Column_10 Column_11 Column_12 Column_13
feature_infos=[-1.0168394290561711:3.0520799144994157] [-1.2852435072265382:3.7179440071051424] [-1.5799354526206366:2.8661667315291766] [-1.1069683468910279:3.8957591220666066] [-1.7538377553224795:2.0936438204162107] [-1.0344839720511658:5.4630136089127506] [-4.5492331473941379:0.97620292099344252] [-2.3691013711252142:2.3555903208684139] [-1.7413967205370187:3.2651075884595397] [-2.3674768659265362:2.1502771534562117] [-2.7688746209726918:0.36115755925730758] [-0.63671453996701333:1.5705625319186332] [-1.4999999999999998:0.66666666666666663] none
tree_sizes=652 664 665 662 763 772 771 772 774 768 670 664 773 661 769 665 671 670 668 667

Tree=0
num_leaves=5
num_cat=0
split_feature=1 1 2 2
split_gain=7.21656 8.30328 0.656051 0.515468
threshold=-0.2075557691482364 0.49171004456867218 1.0585250242553925 -0.95974843588569769
decision_type=2 2 2 2
left_child=3 -2 -3 -1
right_child=1 2 -4 -5
leaf_value=-0.64244628326125219 -0.61200910194139013 -0.63360968223290515 -0.64391905009931005 -0.65128288428959924
leaf_weight=1.1316568404436114 2.0369823127985001 1.1316568404436114 1.3579882085323332 1.5843195766210554
leaf_count=5 9 5 6 7
internal_value=-0.634714 -0.626982 -0.639233 -0.647601
internal_weight=7.2426 4.52663 2.48965 2.71598
internal_count=32 20 11 12
is_linear=0
shrinkage=1


Tree=1
num_leaves=5
num_cat=0
split_feature=1 1 4 6
split_gain=7.07607 8.06467 0.657912 0.517526
threshold=-0.2075557691482364 0.49171004456867218 1.1933072227265173 0.48557589190181111
decision_type=2 2 2 2
left_child=3 -2 -3 -1
right_child=1 2 -4 -5
leaf_value=-0.015233629215647122 0.023567557564184074 -0.0079093829095351169 0.0024199403723265058 -0.0063633671467983764
leaf_weight=1.5786673426628115 2.0517997741699219 1.3568201065063479 1.1303232908248899 1.127530515193939
leaf_count=7 9 6 5 5
internal_value=0.00126097 0.00889185 -0.00321505 -0.0115379
internal_weight=7.24514 4.53894 2.48714 2.7062
internal_count=32 20 11 12
is_linear=0
shrinkage=0.01


Tree=2
num_leaves=5
num_cat=0
split_feature=1 1 7 7
split_gain=6.93905 7.83655 0.655371 0.521938
threshold=-0.2075557691482364 0.49171004456867218 0.40179546513924774 0.40179546513924774
decision_type=2 2 2 2
left_child=3 -2 -3 -1
right_child=1 2 -4 -5
leaf_value=-0.015180712938459641 0.023171378733822627 0.0024383701976146304 -0.0078757416659375173 -0.0062556929922824214
leaf_weight=1.5736169368028643 2.0659397095441818 1.129719212651253 1.3549388051033018 1.1227384507656095
leaf_count=7 9 5 6 5
internal_value=0.00124771 0.00877999 -0.00318614 -0.0114644
internal_weight=7.24695 4.5506 2.48466 2.69636
internal_count=32 20 11 12
is_linear=0
shrinkage=0.01


Tree=3
num_leaves=5
num_cat=0
split_feature=1 1 0 0
split_gain=6.80539 7.61825 0.657204 0.519368
threshold=-0.2075557691482364 0.49171004456867218 -0.26932394123413039 0.20954438834810749
decision_type=2 2 2 2
left_child=3 -2 -3 -1
right_child=1 2 -4 -5
leaf_value=-0.006191197948872189 0.02279019777635603 0.0024786197684449522 -0.00785521830475709 -0.015109221499654896
leaf_weight=1.119829133152962 2.0794200897216797 1.1283900588750841 1.3537880927324293 1.5666312128305433
leaf_count=5 9 5 6 7
internal_value=0.00123471 0.00867085 -0.00315749 -0.0113918
internal_weight=7.24806 4.5616 2.48218 2.68646
internal_count=32 20 11 12
is_linear=0
shrinkage=0.01


Tree=4
num_leaves=6
num_cat=0
split_feature=2 2 3 6 6
split_gain=5.52699 2.38406 2.16967 0.485862 0.474108
threshold=-0.56240004460052984 0.75177098754750149 0.39449033374031772 0.48557589190181111 0.48557589190181111
decision_type=2 2 2 2 2
left_child=3 4 -3 -1 -2
right_child=1 2 -4 -5 -6
leaf_value=-0.015048836380809647 0.01936972038421305 -0.007861099398610594 0.01086116284489542 -0.0061130396452471914 0.010289885620618137
leaf_weight=1.337604954838753 1.1455942541360857 1.3540919423103335 1.1401721239089964 1.1162773817777631 1.1547250747680662
leaf_count=6 5 6 5 5 5
internal_value=0.00122199 0.00746901 0.000697177 -0.0109839 0.0148118
internal_weight=7.24847 4.79458 2.49426 2.45388 2.30032
internal_count=32 21 11 11 10
is_linear=0
shrinkage=0.01


Tree=5
num_leaves=6
num_cat=0
split_feature=0 7 0 8 1
split_gain=3.18179 3.56074 3.16342 1.84282 0.000332381
threshold=-0.26932394123413039 -0.37695560803701872 -0.94061349095081492 0.27064485313558384 -0.41106260188393001
decision_type=2 2 2 2 2
left_child=2 -2 -1 -4 -3
right_child=1 4 3 -5 -6
leaf_value=-0.0081287043575944649 0.0038542051816796504 -0.014959958225136292 0.0035800389782352851 0.02030974907460736 -0.01518603639347268
leaf_weight=1.3671596795320509 1.5739664584398267 1.1081149578094482 1.5855278074741366 1.1260337233543394 1.5740585774183273
leaf_count=6 7 5 7 5 7
internal_value=-0.00203749 -0.00808589 0.00427401 0.0105274 -0.0150926
internal_weight=8.33486 4.25614 4.07872 2.71156 2.68217
internal_count=37 19 18 12 12
is_linear=0
shrinkage=0.01


Tree=6
num_leaves=6
num_cat=0
split_feature=0 7 0 8 1
split_gain=3.12455 3.5122 3.09397 1.78678 0.000317669
threshold=-0.26932394123413039 -0.37695560803701872 -0.94061349095081492 0.27064485313558384 -0.41106260188393001
decision_type=2 2 2 2 2
left_child=2 -2 -1 -4 -3
right_child=1 4 3 -5 -6
leaf_value=-0.0080670037887447307 0.0038110117086528829 -0.014886309876784245 0.0035403690794510389 0.019979762854881341 -0.015107880892706803
leaf_weight=1.3638568520545957 1.5758779197931287 1.1024894416332245 1.5872521847486498 1.1331487149000166 1.5664177387952805
leaf_count=6 7 5 7 5 7
internal_value=-0.00201876 -0.00802669 0.00422531 0.010388 -0.0150164
internal_weight=8.32904 4.24479 4.08426 2.7204 2.66891
internal_count=37 19 18 12 12
is_linear=0
shrinkage=0.01


Tree=7
num_leaves=6
num_cat=0
split_feature=7 1 4 4 7
split_gain=2.75401 2.46629 3.90918 1.66534 0.000718455
threshold=-0.59690419088149582 -0.88275233187677993 0.68808236934668909 1.6531913841363606 0.40179546513924774
decision_type=2 2 2 2 2
left_child=-1 -2 4 -4 -3
right_child=1 2 3 -5 -6
leaf_value=0.0098507905907700179 0.0073621161404849303 -0.015271071457064439 0.010665647393714043 -0.0064446465108102657 -0.01495534846447355
leaf_weight=1.5869714617729185 1.3378405272960661 1.1288804411888125 1.1448356360197069 1.1306086480617521 1.9936100244522093
leaf_count=7 6 5 5 5 9
internal_value=-0.00200031 -0.00479247 -0.00780489 0.00216399 -0.0150695
internal_weight=8.32275 6.73578 5.39793 2.27544 3.12249
internal_count=37 30 24 10 14
is_linear=0
shrinkage=0.01


Tree=8
num_leaves=6
num_cat=0
split_feature=0 0 8 8 1
split_gain=3.06351 3.00037 2.24394 1.7272 0.000104687
threshold=-0.26932394123413039 -0.94061349095081492 -0.41834273360586233 0.27064485313558384 -0.33106299659788935
decision_type=2 2 2 2 2
left_child=1 -1 -2 -3 -4
right_child=2 3 4 -5 -6
leaf_value=-0.0079574174357058998 -0.00033212885485104624 0.0034935353943170017 -0.014846110435336284 0.019621037711787567 -0.014983800725840577
leaf_weight=1.3576302975416181 2.0201527178287506 1.5889617502689364 1.0989838391542437 1.1408473402261732 1.1098137050867078
leaf_count=6 9 7 5 5 5
internal_value=-0.00198203 0.00419149 -0.00794897 0.0102336 -0.0149153
internal_weight=8.31639 4.08744 4.22895 2.72981 2.2088
internal_count=37 18 19 12 10
is_linear=0
shrinkage=0.01


Tree=9
num_leaves=6
num_cat=0
split_feature=0 7 0 6 1
split_gain=3.00861 3.41108 2.93513 1.8228 0.000250154
threshold=-0.26932394123413039 -0.37695560803701872 -0.94061349095081492 0.46922891128516647 0.49171004456867218
decision_type=2 2 2 2 2
left_child=2 -2 -1 -4 -3
right_child=1 4 3 -5 -6
leaf_value=-0.0078972553301109687 0.0037329470719900792 -0.014766307853617541 0.0032232039057328737 0.01978067875388171 -0.014963594611609088
leaf_weight=1.3543098270893095 1.5791950821876524 1.5299741029739382 1.6007215529680254 1.137282609939575 1.1082551330327985
leaf_count=6 7 7 7 5 5
internal_value=-0.00196398 -0.00789119 0.00414444 0.0101007 -0.0148492
internal_weight=8.30974 4.21742 4.09231 2.738 2.63823
internal_count=37 19 18 12 12
is_linear=0
shrinkage=0.01


Tree=10
num_leaves=5
num_cat=0
split_feature=2 12 2 9
split_gain=4.50509 6.41145 3.87973 2.47716
threshold=0.75177098754750149 1.0000000180025095e-35 1.0000000180025095e-35 -0.18927403515271124
decision_type=2 2 2 2
left_child=1 -1 3 -3
right_child=-2 2 -4 -5
leaf_value=-0.010154831629419377 -0.015041756483037034 -0.0060546261432457829 0.027160356553560309 0.014065202096744996
leaf_weight=2.0123573988676071 1.5580875873565672 1.1128060668706896 1.1624854207038877 1.3595633655786517
leaf_count=9 7 5 5 6
internal_value=1.20609e-05 0.00416547 0.0120936 0.00500933
internal_weight=7.2053 5.64721 3.63485 2.47237
internal_count=32 25 16 11
is_linear=0
shrinkage=0.01


Tree=11
num_leaves=5
num_cat=0
split_feature=2 1 1 6
split_gain=4.43197 8.38735 3.84475 1.60028
threshold=0.75177098754750149 -0.33106299659788935 -0.88275233187677993 0.59197040078603325
decision_type=2 2 2 2
left_child=1 2 -1 -3
right_child=-2 3 -4 -5
leaf_value=0.0069776676563768096 -0.014966575060820756 0.026995278501706268 -0.014894353969994807 0.010374603536995083
leaf_weight=1.3509324193000791 1.5502942204475401 1.1654059886932375 1.9840199500322344 1.1518516689538953
leaf_count=6 7 5 9 5
internal_value=1.15975e-05 0.00411983 -0.00603437 0.0187336
internal_weight=7.2025 5.65221 3.33495 2.31726
internal_count=32 25 15 10
is_linear=0
shrinkage=0.01


Tree=12
num_leaves=6
num_cat=0
split_feature=3 12 0 8 0
split_gain=3.64028 2.8095 1.77035 0.844956 0.433636
threshold=0.26348721314712409 1.0000000180025095e-35 0.10083420168644903 0.56386151972577625 0.10083420168644903
decision_type=2 2 2 2 2
left_child=1 -1 3 -3 -2
right_child=4 2 -4 -5 -6
leaf_value=-0.0076198778571409977 -0.015026553213636431 -0.00069869668308132171 0.019666882729020889 0.010990882575446302 -0.0062055653340821141
leaf_weight=1.3369422703981397 1.1121402531862261 1.3595003634691245 1.1386902928352354 1.1342545598745344 1.1170782148838041
leaf_count=6 5 6 5 5 5
internal_value=1.11126e-05 0.00477398 0.0093356 0.00461817 -0.0106063
internal_weight=7.19861 4.96939 3.63245 2.49375 2.22922
internal_count=32 22 16 11 10
is_linear=0
shrinkage=0.01


Tree=13
num_leaves=5
num_cat=0
split_feature=2 1 1 0
split_gain=4.33547 8.14909 3.76194 1.76292
threshold=0.75177098754750149 -0.33106299659788935 -0.88275233187677993 0.10083420168644903
decision_type=2 2 2 2
left_child=1 2 -1 -3
right_child=-2 3 -4 -5
leaf_value=0.006837661072883059 -0.014865759393447781 0.009715147599492182 -0.014803938811343027 0.027109312434842249
leaf_weight=1.3555759638547895 1.5398627668619154 1.1671677529811861 1.9712240993976595 1.1635362505912779
leaf_count=6 7 5 9 5
internal_value=1.08003e-05 0.00405991 -0.00598561 0.0183987
internal_weight=7.19737 5.6575 3.3268 2.3307
internal_count=32 25 15 10
is_linear=0
shrinkage=0.01


Tree=14
num_leaves=6
num_cat=0
split_feature=3 1 1 3 6
split_gain=3.52637 2.61943 3.96162 1.92494 0.424806
threshold=0.26348721314712409 -0.33106299659788935 -0.88275233187677993 -0.34525093612124974 0.46279962042337391
decision_type=2 2 2 2 2
left_child=1 2 -1 -3 -2
right_child=4 3 -4 -5 -6
leaf_value=0.010887568387936237 -0.014889920506721029 0.019625525442758675 -0.01465595044729354 0.0021153971935447663 -0.0061299722703356775
leaf_weight=1.1396768987178805 1.1017238050699236 1.4028894305229189 1.2994762808084486 1.1363865733146665 1.1126890331506727
leaf_count=5 5 6 6 5 5
internal_value=1.03253e-05 0.00468011 -0.00272092 0.0117893 -0.0104883
internal_weight=7.19284 4.97843 2.43915 2.53928 2.21441
internal_count=32 22 11 11 10
is_linear=0
shrinkage=0.01


Tree=15
num_leaves=5
num_cat=0
split_feature=0 1 2 0
split_gain=4.37067 6.21106 4.65167 0.506856
threshold=-0.94061349095081492 -0.41106260188393001 -0.95974843588569769 -0.26932394123413039
decision_type=2 2 2 2
left_child=-1 2 -2 -3
right_child=1 3 -4 -5
leaf_value=-0.015300348898407239 0.011302009548791681 0.020287404272560258 -0.014755629236978025 0.012250464511358559
leaf_weight=1.1271376907825468 1.1278032809495928 1.3858641237020493 1.7451585233211515 1.8089631497859955
leaf_count=5 5 6 8 8
internal_value=0.00278337 0.00614256 -0.0045265 0.0157368
internal_weight=7.19493 6.06779 2.87296 3.19483
internal_count=32 27 13 14
is_linear=0
shrinkage=0.01


Tree=16
num_leaves=5
num_cat=0
split_feature=0 2 6 3
split_gain=4.29311 4.37072 5.02389 0.450737
threshold=-0.94061349095081492 1.0000000180025095e-35 0.46922891128516647 -0.34525093612124974
decision_type=2 2 2 2
left_child=-1 2 3 -2
right_child=1 -3 -4 -5
leaf_value=-0.015220235681250202 -0.0057034745237673897 0.017829987199778536 0.012272117982485356 -0.014785108102532793
leaf_weight=1.1217667162418363 1.0917349308729174 2.0795374810695648 1.8109993189573286 1.0942950993776324
leaf_count=5 5 9 8 5
internal_value=0.00275389 0.00607201 -4.53228e-05 -0.0102496
internal_weight=7.19833 6.07657 3.99703 2.18603
internal_count=32 27 18 10
is_linear=0
shrinkage=0.01


Tree=17
num_leaves=5
num_cat=0
split_feature=0 2 6 3
split_gain=4.21725 4.25653 4.92221 0.446684
threshold=-0.94061349095081492 1.0000000180025095e-35 0.46922891128516647 -0.34525093612124974
decision_type=2 2 2 2
left_child=-1 2 3 -2
right_child=1 -3 -4 -5
leaf_value=-0.015141741342551165 -0.005657770951775931 0.017568985304451792 0.012104209715322183 -0.014714892666713766
leaf_weight=1.1163333505392072 1.0895594954490664 2.0892767906188965 1.8177258521318433 1.0885504335165026
leaf_count=5 5 9 8 5
internal_value=0.00272487 0.00600256 -4.51084e-05 -0.0101842
internal_weight=7.20145 6.08511 3.99584 2.17811
internal_count=32 27 18 10
is_linear=0
shrinkage=0.01


Tree=18
num_leaves=5
num_cat=0
split_feature=12 9 1 7
split_gain=3.49121 2.61218 3.48632 2.56938
threshold=1.0000000180025095e-35 -0.35062239298780934 -0.33106299659788935 0.22562645690553457
decision_type=2 2 2 2
left_child=-1 2 -2 -3
right_child=1 3 -4 -5
leaf_value=-0.0094560534826443419 -0.014573713129129655 0.021345703156612425 0.010494200704951259 0.0034311333098216014
leaf_weight=1.7799064069986341 1.0759929269552233 1.614811033010483 1.1453422605991361 1.5878191590309141
leaf_count=8 5 7 5 7
internal_value=0.00269642 0.00668432 -0.00164845 0.0124639
internal_weight=7.20387 5.42397 2.22134 3.20263
internal_count=32 24 10 14
is_linear=0
shrinkage=0.01


Tree=19
num_leaves=5
num_cat=0
split_feature=0 1 2 9
split_gain=4.12288 5.7456 4.52451 1.77652
threshold=-0.94061349095081492 -0.41106260188393001 -0.95974843588569769 1.0000000180025095e-35
decision_type=2 2 2 2
left_child=-1 2 -2 -3
right_child=1 3 -4 -5
leaf_value=-0.015056092595551884 0.011104143158673061 0.0063496024353568437 -0.014624575739361434 0.021345843372358626
leaf_weight=1.1102033555507658 1.1314428746700289 1.3669564276933672 1.7263927757740019 1.8714783638715742
leaf_count=5 5 6 8 8
internal_value=0.00266823 0.00589604 -0.00443834 0.0150159
internal_weight=7.20647 6.09627 2.85784 3.23843
internal_count=32 27 13 14
is_linear=0
shrinkage=0.01


end of trees

feature_importances:
Column_1=22
Column_0=18
Column_2=12
Column_6=8
Column_7=8
Column_3=6
Column_8=5
Column_4=3
Column_9=3
Column_12=3

parameters:
[boosting: gbdt]
[objective: binary]
[metric: auc]
[tree_learner: serial]
[device_type: cpu]
[data_sample_strategy: bagging]
[data: ]
[valid: ]
[num_iterations: 1000]
[learning_rate: 0.01]
[num_leaves: 15]
[num_threads: 0]
[seed: 42]
[deterministic: 1]
[force_col_wise: 1]
[force_row_wise: 0]
[histogram_pool_size: -1]
[max_depth: -1]
[min_data_in_leaf: 5]
[min_sum_hessian_in_leaf: 0.001]
[bagging_fraction: 0.7]
[pos_bagging_fraction: 1]
[neg_bagging_fraction: 1]
[bagging_freq: 5]
[bagging_seed: 400]
[bagging_by_query: 0]
[feature_fraction: 0.7]
[feature_fraction_bynode: 1]
[feature_fraction_seed: 30056]
[extra_trees: 0]
[extra_seed: 12879]
[early_stopping_round: 0]
[early_stopping_min_delta: 0]
[first_metric_only: 0]
[max_delta_step: 0]
[lambda_l1: 0]
[lambda_l2: 0]
[linear_lambda: 0]
[min_gain_to_split: 0]
[drop_rate: 0.1]
[max_drop: 50]
[skip_drop: 0.5]
[xgboost_dart_mode: 0]
[uniform_drop: 0]
[drop_seed: 17869]
[top_rate: 0.2]
[other_rate: 0.1]
[min_data_per_group: 100]
[max_cat_threshold: 32]
[cat_l2: 10]
[cat_smooth: 10]
[max_cat_to_onehot: 4]
[top_k: 20]
[monotone_constraints: ]
[monotone_constraints_method: basic]
[monotone_penalty: 0]
[feature_contri: ]
[forcedsplits_filename: ]
[refit_decay_rate: 0.9]
[cegb_tradeoff: 1]
[cegb_penalty_split: 0]
[cegb_penalty_feature_lazy: ]
[cegb_penalty_feature_coupled: ]
[path_smooth: 0]
[interaction_constraints: ]
[verbosity: -1]
[saved_feature_importance_type: 0]
[use_quantized_grad: 0]
[num_grad_quant_bins: 4]
[quant_train_renew_leaf: 0]
[stochastic_rounding: 1]
[linear_tree: 0]
[max_bin: 255]
[max_bin_by_feature: ]
[min_data_in_bin: 3]
[bin_construct_sample_cnt: 200000]
[data_random_seed: 175]
[is_enable_sparse: 1]
[enable_bundle: 1]
[use_missing: 1]
[zero_as_missing: 0]
[feature_pre_filter: 1]
[pre_partition: 0]
[two_round: 0]
[header: 0]
[label_column: ]
[weight_column: ]
[group_column: ]
[ignore_column: ]
[categorical_feature: ]
[forcedbins_filename: ]
[precise_float_parser: 0]
[parser_config_file: ]
[objective_seed: 16083]
[num_class: 1]
[is_unbalance: 0]
[scale_pos_weight: 1]
[sigmoid: 1]
[boost_from_average: 1]
[reg_sqrt: 0]
[alpha: 0.9]
[fair_c: 1]
[poisson_max_delta_step: 0.7]
[tweedie_variance_power: 1.5]
[lambdarank_truncation_level: 30]
[lambdarank_norm: 1]
[label_gain: ]
[lambdarank_position_bias_regularization: 0]
[eval_at: ]
[multi_error_top_k: 1]
[auc_mu_weights: ]
[num_machines: 1]
[local_listen_port: 12400]
[time_out: 120]
[machine_list_filename: ]
[machines: ]
[gpu_platform_id: -1]
[gpu_device_id: -1]
[gpu_use_dp: 0]
[num_gpu: 1]

end of parameters

pandas_categorical:null
