tree
version=v4
num_class=1
num_tree_per_iteration=1
label_index=0
max_feature_idx=13
objective=binary sigmoid:1
feature_names=ApproxVol_30_60 Avg_NumTissuePixel_30_60 Avg_Tissue_30_60 Avg_Tissue_thickness_30_60 Avg_TissueByTotal_30_60 Avg_TissueByLung_30_60 Mean_30_60 Skew_30_60 Kurtosis_30_60 Age Sex SmokingStatus_0 SmokingStatus_1 SmokingStatus_2
feature_infos=[-1.5658002299264286:2.6020341444954287] [-1.6958650219282678:7.2652938591606695] [-1.6618206351096081:4.3966133820538147] [-0.95770367055856376:4.0281952501900546] [-1.6340339643549437:2.8406522391019453] [-0.71376406249026747:3.6047637860749049] [-1.9599384865214886:1.0196971027004038] [-1.9875064577499968:1.929677286599738] [-1.8923576818683381:2.6148891338279667] [-2.6968474790860704:2.3721792392881049] none none [-0.60934786041370603:0.39065213958629397] none
tree_sizes=245 359 360 360 359 358

Tree=0
num_leaves=1
num_cat=0
split_feature=
split_gain=
threshold=
decision_type=
left_child=
right_child=
leaf_value=-9.7313705345590752e-09
leaf_weight=
leaf_count=49
internal_value=
internal_weight=
internal_count=
is_linear=0
shrinkage=1


Tree=1
num_leaves=2
num_cat=0
split_feature=2
split_gain=1.68073
threshold=-0.17142335553190488
decision_type=2
left_child=-1
right_child=-2
leaf_value=-0.032884897356111713 0.0080371069679947161
leaf_weight=4.6865530610084534 4.9069602489471436
leaf_count=21 19
internal_value=-0.011571
internal_weight=9.59351
internal_count=40
is_linear=0
shrinkage=0.05


Tree=2
num_leaves=2
num_cat=0
split_feature=9
split_gain=1.6195
threshold=-0.083130577424386246
decision_type=2
left_child=-1
right_child=-2
leaf_value=0.0082555196886940057 -0.031920696695415259
leaf_weight=4.9065007567405701 4.6856666058301926
leaf_count=19 21
internal_value=-0.0109811
internal_weight=9.59217
internal_count=40
is_linear=0
shrinkage=0.05


Tree=3
num_leaves=2
num_cat=0
split_feature=9
split_gain=1.46773
threshold=-0.083130577424386246
decision_type=2
left_child=-1
right_child=-2
leaf_value=0.0078509775629025582 -0.030375365158382947
leaf_weight=4.9065070152282715 4.6829925626516342
leaf_count=19 21
internal_value=-0.0104215
internal_weight=9.5895
internal_count=40
is_linear=0
shrinkage=0.05


Tree=4
num_leaves=2
num_cat=0
split_feature=9
split_gain=1.33091
threshold=-0.083130577424386246
decision_type=2
left_child=-1
right_child=-2
leaf_value=0.007466496071620355 -0.028917794826922846
leaf_weight=4.9063578844070435 4.6782380342483521
leaf_count=19 21
internal_value=-0.0098916
internal_weight=9.5846
internal_count=40
is_linear=0
shrinkage=0.05


Tree=5
num_leaves=2
num_cat=0
split_feature=2
split_gain=1.3647
threshold=-0.17142335553190488
decision_type=2
left_child=-1
right_child=-2
leaf_value=-0.028682824790057716 0.008208515906482125
leaf_weight=4.6742697656154633 4.903523176908493
leaf_count=21 19
internal_value=-0.00938934
internal_weight=9.57779
internal_count=40
is_linear=0
shrinkage=0.05


end of trees

feature_importances:
Age=3
Avg_Tissue_30_60=2

parameters:
[boosting: gbdt]
[objective: binary]
[metric: auc]
[tree_learner: serial]
[device_type: cpu]
[data_sample_strategy: bagging]
[data: ]
[valid: ]
[num_iterations: 500]
[learning_rate: 0.05]
[num_leaves: 31]
[num_threads: 0]
[seed: 42]
[deterministic: 0]
[force_col_wise: 0]
[force_row_wise: 0]
[histogram_pool_size: -1]
[max_depth: -1]
[min_data_in_leaf: 20]
[min_sum_hessian_in_leaf: 0.001]
[bagging_fraction: 0.8]
[pos_bagging_fraction: 1]
[neg_bagging_fraction: 1]
[bagging_freq: 5]
[bagging_seed: 400]
[bagging_by_query: 0]
[feature_fraction: 0.8]
[feature_fraction_bynode: 1]
[feature_fraction_seed: 30056]
[extra_trees: 0]
[extra_seed: 12879]
[early_stopping_round: 0]
[early_stopping_min_delta: 0]
[first_metric_only: 0]
[max_delta_step: 0]
[lambda_l1: 0.1]
[lambda_l2: 0.1]
[linear_lambda: 0]
[min_gain_to_split: 0]
[drop_rate: 0.1]
[max_drop: 50]
[skip_drop: 0.5]
[xgboost_dart_mode: 0]
[uniform_drop: 0]
[drop_seed: 17869]
[top_rate: 0.2]
[other_rate: 0.1]
[min_data_per_group: 100]
[max_cat_threshold: 32]
[cat_l2: 10]
[cat_smooth: 10]
[max_cat_to_onehot: 4]
[top_k: 20]
[monotone_constraints: ]
[monotone_constraints_method: basic]
[monotone_penalty: 0]
[feature_contri: ]
[forcedsplits_filename: ]
[refit_decay_rate: 0.9]
[cegb_tradeoff: 1]
[cegb_penalty_split: 0]
[cegb_penalty_feature_lazy: ]
[cegb_penalty_feature_coupled: ]
[path_smooth: 0]
[interaction_constraints: ]
[verbosity: -1]
[saved_feature_importance_type: 0]
[use_quantized_grad: 0]
[num_grad_quant_bins: 4]
[quant_train_renew_leaf: 0]
[stochastic_rounding: 1]
[linear_tree: 0]
[max_bin: 255]
[max_bin_by_feature: ]
[min_data_in_bin: 3]
[bin_construct_sample_cnt: 200000]
[data_random_seed: 175]
[is_enable_sparse: 1]
[enable_bundle: 1]
[use_missing: 1]
[zero_as_missing: 0]
[feature_pre_filter: 1]
[pre_partition: 0]
[two_round: 0]
[header: 0]
[label_column: ]
[weight_column: ]
[group_column: ]
[ignore_column: ]
[categorical_feature: ]
[forcedbins_filename: ]
[precise_float_parser: 0]
[parser_config_file: ]
[objective_seed: 16083]
[num_class: 1]
[is_unbalance: 0]
[scale_pos_weight: 1]
[sigmoid: 1]
[boost_from_average: 1]
[reg_sqrt: 0]
[alpha: 0.9]
[fair_c: 1]
[poisson_max_delta_step: 0.7]
[tweedie_variance_power: 1.5]
[lambdarank_truncation_level: 30]
[lambdarank_norm: 1]
[label_gain: ]
[lambdarank_position_bias_regularization: 0]
[eval_at: ]
[multi_error_top_k: 1]
[auc_mu_weights: ]
[num_machines: 1]
[local_listen_port: 12400]
[time_out: 120]
[machine_list_filename: ]
[machines: ]
[gpu_platform_id: -1]
[gpu_device_id: -1]
[gpu_use_dp: 0]
[num_gpu: 1]

end of parameters

pandas_categorical:null
